tree
version=v4
num_class=1
num_tree_per_iteration=1
label_index=0
max_feature_idx=25
objective=quantile
feature_names=office arrival_port service_type service_category size_category loskrav gt loa_m beam_m draft_m stay_days month quarter is_summer is_shoulder day_of_week week_of_year gt_x_stay loa_x_stay fuel_x_stay size_svc_mean_charge size_svc_median_charge size_svc_count port_mean_charge port_median_charge cmt_len
feature_infos=-1:0:1:2 -1:0:10:9:11:5:8:3 -1:11:39:42:40:54:5:50:23:49:10:35:1:21:48:7:34:36:0:38:8:9:26:51:32:2:12:53:3:13:16:22:33:55:4:20 -1:1:4:3:6:5:0:2 -1:2:0:1 -1:1:0 [51.899999999999999:2407] [18.899999999999999:79.200000000000003] [7.0999999999999996:13.630000000000001] [2.1429999999999998:7.2000000000000002] [1:304] [4:10] [2:4] [0:1] [0:1] [0:6] [13:42] [161.84:731728] [28.579999999999998:23529.600000000002] [60:152000] [6554.2592307692312:99876.127999999997] [1767.4400000000001:100654.01000000001] [1:202] [8301.7900000000009:31485.151395348839] [4159.2600000000002:16586.07] [0:310]
tree_sizes=1161 1580 1506 1382 1245 1541 1218 1420 1304 1393 1359 1200 1444 1530 1511 1398 1565 1547 1699 1359 1392 1496 1298 1967 1765 1755 1858 1856 1945 1565

Tree=0
num_leaves=12
num_cat=1
split_feature=2 25 25 25 16 20 20 16 18 10 16
split_gain=5.93766 3.36638 4.97461 1.37146 0.944331 1.71407 0.113561 0.0991965 0.0306291 0.0224838 0.0216169
threshold=0 53.500000000000007 35.500000000000007 47.500000000000007 37.500000000000007 12485.669896039604 6946.8300820512841 22.500000000000004 530.85000000000002 30.500000000000004 36.500000000000007
decision_type=9 2 2 2 2 2 2 2 2 2 2
left_child=1 2 -1 -4 6 -6 7 -2 -7 -3 -8
right_child=4 9 3 -5 5 8 10 -9 -10 -11 -12
leaf_value=6.0597388506352425 6.1246972921170908 6.1183354765419224 6.0222918752551013 6.0771548367159012 6.017462695971437 6.0818974084363333 6.1404713810740548 6.0755417586087423 6.1115168929429133 6.1292808771684264 6.1429038123730964
leaf_weight=29 15.000000000000002 17 21 17 17 15.999999999999998 582 15.999999999999998 24 17 36
leaf_count=29 15 17 21 17 17 16 582 16 24 17 36
internal_value=6.09419 6.08345 6.07589 6.064 6.09587 6.08976 6.09644 6.09362 6.0953 6.09506 6.09659
internal_weight=807 101 67 38 706 57 649 31 40 34 618
internal_count=807 101 67 38 706 57 649 31 40 34 618
cat_boundaries=0 1
cat_threshold=2048
is_linear=0
shrinkage=1


Tree=1
num_leaves=16
num_cat=2
split_feature=21 25 25 25 18 7 6 16 13 11 6 25 16 4 4
split_gain=2.00428 1.68736 2.97591 4.79124 2.02984 0.593951 0.459829 0.365921 0.363108 0.304749 0.0680806 0.0667865 0.0613762 0.145243 0.00121375
threshold=5673.7800000000016 35.500000000000007 48.500000000000007 47.500000000000007 486.50000000000006 51.625000000000007 2278.0000000000005 22.500000000000004 1.0000000180025095e-35 8.5000000000000018 129.92000000000004 24.500000000000004 36.500000000000007 0 1
decision_type=2 2 2 2 2 2 2 2 2 2 2 2 2 1 1
left_child=1 5 3 4 -3 10 8 -6 -7 -4 -1 -12 14 -14 -2
right_child=12 2 9 -5 7 6 -8 -9 -10 -11 11 -13 13 -15 -16
leaf_value=0.022293733425951201 0.080696083636141891 -0.065812960475094426 0.034087690955390479 -0.015916248974785187 -0.036023548852709468 -0.030896224596116434 0.054037747841854028 0.038238151257370782 -0.034522623933008444 -0.056189292352485556 0.026636924006312901 -0.00095193748971281189 -0.014614631278969534 0.025559765750466659 0.064259866840485944
leaf_weight=109 84 23 57 18 14.999999999999998 14.999999999999998 15.999999999999998 31 18 20 19 22 15.999999999999998 33 311
leaf_count=109 84 23 57 18 15 15 16 31 18 20 19 22 16 33 311
internal_value=-9.60227e-05 -0.00285734 -0.00661182 -0.0129449 -0.00683792 0.000213461 -0.00453157 -0.000650759 -0.00793051 0.000486381 0.0017988 0 0.00215042 0.000356416 0.00236016
internal_weight=807 363 164 87 69 199 49 46 33 77 150 41 444 49 395
internal_count=807 363 164 87 69 199 49 46 33 77 150 41 444 49 395
cat_boundaries=0 1 2
cat_threshold=2 1
is_linear=0
shrinkage=0.05


Tree=2
num_leaves=15
num_cat=0
split_feature=21 14 25 25 25 25 25 19 17 19 19 25 11 17
split_gain=1.9594 1.34499 1.47953 1.51651 0.798686 0.691378 1.24851 1.15764 0.97967 0.243579 0.222413 0.294279 0.0509294 0.0408511
threshold=3383.0700000000006 1.0000000180025095e-35 26.500000000000004 49.500000000000007 35.500000000000007 35.500000000000007 50.500000000000007 2570.0000000000005 1531.0500000000002 2680.0000000000005 360.00000000000006 22.500000000000004 9.5000000000000018 4385.5000000000009
decision_type=2 2 2 2 2 2 2 2 2 2 2 2 2 2
left_child=1 5 -3 4 -4 9 7 8 -7 -1 11 -2 -12 -8
right_child=10 2 3 -5 -6 6 13 -9 -10 -11 12 -13 -14 -15
leaf_value=0.020063956470663981 0.076647535892063176 0.02711867401701016 -0.029262350859486724 0.024195225967763714 -0.034187646935603326 -0.0071036976552058236 0.0323833063939786 0.030059652462683974 -0.062424333632344314 -0.022894768765775179 0.053217216848380905 -0.017004675005399095 -0.0079565043658471613 -0.028288198362565287
leaf_weight=97 18 19 17 14.999999999999998 15.999999999999998 20 37 15.999999999999998 24 27 454 14.999999999999998 17 14.999999999999998
leaf_count=97 18 19 17 15 16 20 37 16 24 27 454 15 17 15
internal_value=7.74378e-05 -0.00309304 -0.00935171 -0.0140333 -0.0200151 -0.00129183 -0.00414808 -0.00906822 -0.0132653 0.00124899 0.00199365 -0.00188822 0.00227659 0.00143954
internal_weight=807 303 67 48 33 236 112 60 44 124 504 33 471 52
internal_count=807 303 67 48 33 236 112 60 44 124 504 33 471 52
is_linear=0
shrinkage=0.05


Tree=3
num_leaves=14
num_cat=1
split_feature=2 25 25 16 6 17 17 25 16 15 17 21 25
split_gain=4.59919 2.63168 3.64989 0.658954 1.11243 0.353776 0.0803424 0.130078 0.11456 0.0298701 0.0224838 0.0212685 0.0277102
threshold=0 53.500000000000007 35.500000000000007 37.500000000000007 351.50000000000006 1582.95 853.00000000000011 22.500000000000004 36.500000000000007 1.5000000000000002 1582.95 2174.2875000000008 34.500000000000007
decision_type=9 2 2 2 2 2 2 2 2 2 2 2 2
left_child=1 2 -1 6 9 -4 7 -2 11 -5 -3 12 -8
right_child=3 10 5 4 -6 -7 8 -9 -10 -11 -12 -13 -14
leaf_value=-0.029792594373848597 0.057057212004024305 0.020609607655745356 -0.012640498417792224 0.010695684637550218 -0.07061020061614165 -0.061959255999743196 0.0090575630046798149 -0.016154441255129139 0.011534905061401413 0.011894507738402 0.030023087672272953 0.046089811677441223 0.029961992391342847
leaf_weight=29 21 17 21 15.999999999999998 18 17 14.999999999999998 14.999999999999998 29 23 17 551 18
leaf_count=29 21 17 21 16 18 17 15 15 29 23 17 551 18
internal_value=7.74378e-05 -0.00938344 -0.0160581 0.00155006 -0.00354641 -0.0262467 0.00202973 -0.000138504 0.00216523 0.00108696 0.000879765 0.00231981 0.000830816
internal_weight=807 101 67 706 57 38 649 36 613 39 34 584 33
internal_count=807 101 67 706 57 38 649 36 613 39 34 584 33
cat_boundaries=0 1
cat_threshold=2048
is_linear=0
shrinkage=0.05


Tree=4
num_leaves=12
num_cat=1
split_feature=2 13 10 20 10 23 15 10 13 20 25
split_gain=3.53374 2.02968 1.66224 0.428728 1.06056 0.243001 0.116254 0.0731219 0.350013 0.916824 0.0292734
threshold=0 1.0000000180025095e-35 28.500000000000004 7750.0430424242431 32.000000000000007 24889.08602213542 2.5000000000000004 9.5000000000000018 1.0000000180025095e-35 20763.370100000004 27.500000000000004
decision_type=9 2 2 2 2 2 2 2 2 2 2
left_child=1 -1 -3 4 -2 -4 -7 8 9 -5 -6
right_child=3 2 5 7 10 6 -8 -9 -10 -11 -12
leaf_value=-0.029762270997664819 -0.018633030105099781 -0.041687446149838568 0.01884528252561668 -0.072201281845239024 0.012193671229547055 -0.0015528188665504762 -0.0079732747424997551 0.0471350084077558 0.043412522185101388 0.027690849143075843 0.028463892981185096
leaf_weight=25 21 15.999999999999998 30 17 20 15.000000000000002 14.999999999999998 441 136 33 38
leaf_count=25 21 16 30 17 20 15 15 441 136 33 38
internal_value=0.000263288 -0.0080333 -0.00466491 0.00155006 -0.00186473 -0.000748752 -0.00398671 0.00201324 0.00112843 -0.00239521 0.00154905
internal_weight=807 101 76 706 79 60 30 627 186 50 58
internal_count=807 101 76 706 79 60 30 627 186 50 58
cat_boundaries=0 1
cat_threshold=2048
is_linear=0
shrinkage=0.05


Tree=5
num_leaves=15
num_cat=2
split_feature=2 19 13 11 23 16 6 18 21 4 16 25 21 25
split_gain=3.51044 2.92598 0.790935 0.337072 0.296601 0.2907 0.429034 0.0850679 0.115177 0.0360524 0.0194165 0.0232677 0.0154103 0.0298701
threshold=0 1020.0000000000001 1.0000000180025095e-35 7.5000000000000009 24889.08602213542 37.500000000000007 351.50000000000006 150.40000000000003 7393.7775000000011 1 36.500000000000007 31.500000000000004 2174.2875000000008 32.500000000000007
decision_type=9 2 2 2 2 2 2 2 2 1 2 2 2 2
left_child=1 2 -1 4 -4 7 9 8 -2 -7 12 -12 13 -9
right_child=5 -3 3 -5 -6 6 -8 10 -10 -11 11 -13 -14 -15
leaf_value=-0.010116297968048828 -0.014257558148117825 -0.05630793749573923 0.010357262305259188 0.0026693755178937018 -0.0054051985359359969 0.026582628245001152 -0.058348035233168151 0.0087127985679887089 0.069645548529520207 0.0011389776643729182 -0.0036354206294872404 0.041239842384268782 0.045855728114549014 0.037705306731156657
leaf_weight=24 15.999999999999998 22 18 33 15.999999999999998 28 19 15.999999999999998 20 14.999999999999998 15.999999999999998 15.999999999999998 521 23
leaf_count=24 16 22 18 33 16 28 19 16 20 15 16 16 521 23
internal_value=0.000376665 -0.00741267 -0.00403403 -0.00115499 -0.00469208 0.00174261 -0.00144928 0.00209362 -0.000138504 0.0012181 0.0022378 0.000778816 0.00231209 0.00108696
internal_weight=803 113 91 67 34 690 62 628 36 43 592 32 560 39
internal_count=803 113 91 67 34 690 62 628 36 43 592 32 560 39
cat_boundaries=0 2 3
cat_threshold=2048 65536 1
is_linear=0
shrinkage=0.05


Tree=6
num_leaves=12
num_cat=1
split_feature=2 13 11 18 20 16 23 16 16 11 21
split_gain=2.86533 2.53962 0.504178 0.501602 0.283861 0.795731 0.105204 0.100163 0.0289939 0.0216191 0.108379
threshold=0 1.0000000180025095e-35 7.5000000000000009 576.45000000000016 7750.0430424242431 32.500000000000007 24889.08602213542 39.500000000000007 22.500000000000004 8.5000000000000018 3383.0700000000006
decision_type=9 2 2 2 2 2 2 2 2 2 2
left_child=1 3 6 -1 5 8 -3 9 -2 -6 -11
right_child=4 2 -4 -5 7 -7 -8 -9 -10 10 -12
leaf_value=-0.054479576423270795 0.0042579464741488021 -0.021587602743828545 0.0026883897307214081 -0.025111515838636491 0.049546059631763111 -0.016124034348989045 -0.0051150098503856744 -0.020186806941246895 0.024586100411338987 0.0018142789927672266 0.041771740599411647
leaf_weight=21 21 25 35 14.999999999999998 478 20 17 31 44 25 71
leaf_count=21 21 25 35 15 478 20 17 31 44 25 71
internal_value=0.000438924 -0.00660032 -0.00197795 -0.018144 0.00167119 -0.000969448 -0.00570071 0.00207817 0.00165131 0.00222958 0.00140479
internal_weight=803 113 77 36 690 85 42 605 65 574 96
internal_count=803 113 77 36 690 85 42 605 65 574 96
cat_boundaries=0 2
cat_threshold=2048 65536
is_linear=0
shrinkage=0.05


Tree=7
num_leaves=14
num_cat=1
split_feature=2 13 25 11 15 16 24 9 21 17 16 21 25
split_gain=2.54403 2.12008 0.550826 0.504178 0.604457 0.310913 0.497333 0.837018 0.132754 0.0429824 0.0241127 0.0141218 0.0339798
threshold=0 1.0000000180025095e-35 47.500000000000007 7.5000000000000009 3.5000000000000004 33.500000000000007 7822.1725000000015 3.8500000000000005 5673.7800000000016 701.00000000000011 35.500000000000007 2174.2875000000008 29.500000000000004
decision_type=9 2 2 2 2 2 2 2 2 2 2 2 2
left_child=1 2 -1 4 -3 9 7 -7 -9 -2 -8 12 -11
right_child=5 3 -4 -5 -6 6 10 8 -10 11 -12 -13 -14
leaf_value=-0.052090706043584782 0.027767288543113913 -0.0033657114104642008 -0.031246387836975704 0.002553970244185333 -0.024625725920387153 -0.049299701864542946 0.018908680332743052 -0.006795697903859645 0.079596785418478866 0.0066349786424579746 0.051606133600398965 0.045258960669060794 0.035665456133766475
leaf_weight=19 19 27 17 35 14.999999999999998 20 26 15.999999999999998 27 14.999999999999998 71 471 25
leaf_count=19 19 27 17 35 15 20 26 16 27 15 71 471 25
internal_value=0.000438924 -0.00619415 -0.016759 -0.00197795 -0.00570071 0.00159977 -0.000281074 -0.00376387 5.80047e-05 0.00220713 0.001931 0.00229407 0.00112219
internal_weight=803 113 36 77 42 690 160 63 43 530 97 511 40
internal_count=803 113 36 77 42 690 160 63 43 530 97 511 40
cat_boundaries=0 2
cat_threshold=2048 65536
is_linear=0
shrinkage=0.05


Tree=8
num_leaves=13
num_cat=1
split_feature=16 2 14 17 20 16 25 25 17 20 25 25
split_gain=2.17932 1.12006 1.42002 0.310916 0.220321 0.294279 0.21569 0.463795 0.0962329 0.024195 0.0565685 0.107246
threshold=40.500000000000007 0 1.0000000180025095e-35 25991.000000000004 6946.8300820512841 26.500000000000004 35.500000000000007 48.500000000000007 1582.95 11535.714557471265 27.500000000000004 22.500000000000004
decision_type=2 9 2 2 2 2 2 2 2 2 2 2
left_child=1 2 3 6 5 -3 -1 -8 -4 10 11 -6
right_child=-2 4 8 -5 9 -7 7 -9 -10 -11 -12 -13
leaf_value=0.014969043212850348 -0.066248564284858202 0.023462116459829388 -0.0066433759854900081 -0.0072187320531398773 0.024855449640508599 -0.013765907710739413 -0.0082663064611103124 0.031217088438381349 -0.021181955795584042 0.049695653646684747 0.042733569152561476 -0.0050696907295704995
leaf_weight=67 18 18 18 14.999999999999998 21 14.999999999999998 27 31 17 486 53 17
leaf_count=67 18 18 18 15 21 15 27 31 17 486 53 17
internal_value=0.000563442 0.000964845 -0.00247164 -0.000321199 0.00196742 -0.00188822 0.000459632 -0.00172117 -0.0116097 0.00223098 0.00134468 0
internal_weight=803 785 175 140 610 33 125 58 35 577 91 38
internal_count=803 785 175 140 610 33 125 58 35 577 91 38
cat_boundaries=0 2
cat_threshold=2048 1024
is_linear=0
shrinkage=0.05


Tree=9
num_leaves=14
num_cat=1
split_feature=16 2 14 20 16 16 24 19 16 25 25 25 25
split_gain=2.17932 1.07019 0.740964 0.316281 0.776749 0.283922 0.315499 0.170463 0.0475689 0.0850924 0.23112 0.0551056 0.0352718
threshold=40.500000000000007 0 1.0000000180025095e-35 7750.0430424242431 32.500000000000007 30.500000000000004 6750.2050000000008 762.50000000000011 34.500000000000007 27.500000000000004 22.500000000000004 11.500000000000002 27.500000000000004
decision_type=2 9 2 2 2 2 2 2 2 2 2 2 2
left_child=1 2 5 4 12 6 -1 -8 11 10 -10 -5 -3
right_child=-2 3 -4 8 -6 -7 7 -9 9 -11 -12 -13 -14
leaf_value=0.021339520436102752 -0.062936136070615309 0.0085576449150735531 -0.019547044924323506 -0.00010055653906402285 -0.014164952256029484 0.0056284279881315654 -0.0092486222833493958 -0.021824214713735302 0.072102991739543848 0.046891259649322767 -0.0026116290872043846 0.044450776160865915 0.026645965915009003
leaf_weight=15.999999999999998 18 18 25 17 20 31 21 20 32 62 21 459 43
leaf_count=16 18 18 25 17 20 31 21 20 32 62 21 459 43
internal_value=0.000563442 0.000964845 -0.00335093 0.00172262 -0.00114057 -0.00141884 -0.00354641 -0.00590024 0.00215277 0.00115117 -0.000235405 0.00238395 0.00159574
internal_weight=803 785 113 672 81 88 57 41 591 115 53 476 61
internal_count=803 785 113 672 81 88 57 41 591 115 53 476 61
cat_boundaries=0 1
cat_threshold=2176
is_linear=0
shrinkage=0.05


Tree=10
num_leaves=14
num_cat=1
split_feature=2 10 21 17 25 25 21 25 17 22 11 24 13
split_gain=1.61317 1.35859 2.21214 0.369336 0.218628 0.219146 0.15894 0.287882 0.100497 0.0986752 0.0493797 0.26839 0.00965545
threshold=0 8.5000000000000018 5673.7800000000016 56948.500000000007 39.500000000000007 53.500000000000007 2174.2875000000008 27.500000000000004 1582.95 55.500000000000007 8.5000000000000018 7822.1725000000015 1.0000000180025095e-35
decision_type=9 2 2 2 2 2 2 2 2 2 2 2 2
left_child=1 2 -1 4 9 12 7 -2 -7 -3 -8 -12 -6
right_child=6 3 -4 -5 5 8 10 -9 -10 -11 11 -13 -14
leaf_value=-0.045875355350346925 -0.010859271684136402 0.0056531722633171196 0.037978296490481817 -0.021270757478938543 -0.0059499650861061211 -0.013824806727741166 0.041607102082908257 0.031117586809903255 0.027688596930348863 0.01682897717523003 -0.010538818845195771 0.031302492207580981 -0.0057760371144039563
leaf_weight=22 17 26 22 19 15 18 409 26 22 62 25 99 15
leaf_count=22 17 26 22 19 15 18 409 26 22 62 25 99 15
internal_value=0.000548865 -0.00299654 -0.0109977 -0.00114342 -0.000316255 -0.00242511 0.00193653 -0.00087007 0 0.00130533 0.00220878 0.00124899 -0.00564784
internal_weight=797 221 44 177 158 70 576 43 40 88 533 124 30
internal_count=797 221 44 177 158 70 576 43 40 88 533 124 30
cat_boundaries=0 2
cat_threshold=2176 4259848
is_linear=0
shrinkage=0.05


Tree=11
num_leaves=12
num_cat=1
split_feature=16 2 9 20 16 23 15 16 25 16 6
split_gain=1.53137 1.19786 1.262 0.466233 0.713873 0.3224 0.308454 0.115605 0.031216 0.036058 0.062456
threshold=40.500000000000007 0 3.4000000000000008 7750.0430424242431 32.500000000000007 24889.08602213542 4.5000000000000009 22.500000000000004 11.500000000000002 36.500000000000007 351.50000000000006
decision_type=2 9 2 2 2 2 2 2 2 2 2
left_child=1 2 5 4 7 -1 -7 -3 -5 -10 -11
right_child=-2 3 -4 8 -6 6 -8 -9 9 10 -12
leaf_value=0.01653572927544298 -0.057760585500977249 -0.0010889578444806202 -0.026773374299315724 0.12504305339172211 -0.011429928226452652 -0.0020072313274969353 -0.0094459250352671963 0.021611190445686115 0.032937422981537311 0.044075021757918831 0.0057164075929762859
leaf_weight=34 18 20 23 23 19 29 15.999999999999998 39 503 41 32
leaf_count=34 18 20 23 23 19 29 16 39 503 41 32
internal_value=0.000548865 0.000888846 -0.00392507 0.00165551 -0.00192061 -0.00123262 -0.00404656 0.00071912 0.0021574 0.00223052 0.00106019
internal_weight=797 779 102 677 78 79 45 59 599 576 73
internal_count=797 779 102 677 78 79 45 59 599 576 73
cat_boundaries=0 1
cat_threshold=2048
is_linear=0
shrinkage=0.05


Tree=12
num_leaves=15
num_cat=0
split_feature=20 10 9 10 25 17 9 23 11 17 25 25 25 25
split_gain=1.43076 1.4281 2.09746 0.534589 0.332569 0.318013 0.182929 0.187716 0.140109 0.116119 0.13648 0.106455 0.0485036 0.0255316
threshold=11535.714557471265 28.500000000000004 3.8500000000000005 26.500000000000004 31.500000000000004 7215.5000000000009 3.0750000000000006 22867.397559523815 6.5000000000000009 1531.0500000000002 23.500000000000004 47.500000000000007 52.500000000000007 35.500000000000007
decision_type=2 2 2 2 2 2 2 2 2 2 2 2 2 2
left_child=1 2 -1 4 -4 -6 7 -2 13 11 -11 -9 -12 -3
right_child=6 8 3 -5 5 -7 -8 9 -10 10 12 -13 -14 -15
leaf_value=-0.05954303794642777 0.020951863336680109 0.020582349795191673 0.032556501151471844 -0.019645019373956529 -0.023465970678697226 0.002446958278435437 0.036364164511313836 0.044172053759898411 0.02193495911245303 -0.025732055664980255 -0.0011917206864597875 -0.0033288782737641181 0.025820758586609469 -0.0034143528516449462
leaf_weight=17 95 19 27 17 14.999999999999998 17 354 50 62 18 33 23 32 18
leaf_count=17 95 19 27 17 15 17 354 50 62 18 33 23 32 18
internal_value=0.000548865 -0.00320146 -0.00765306 -0.00400788 -0.00164975 -0.00514019 0.00174765 0.000686977 0.000933401 -0.000352338 -0.00165463 0.00106019 -0.000499232 -0.00141509
internal_weight=797 192 93 76 59 32 605 251 99 156 83 73 65 37
internal_count=797 192 93 76 59 32 605 251 99 156 83 73 65 37
is_linear=0
shrinkage=0.05


Tree=13
num_leaves=15
num_cat=0
split_feature=16 20 10 25 25 15 25 16 25 25 25 16 10 15
split_gain=1.53137 0.855279 0.739777 0.44082 0.521061 0.347352 0.2517 0.246829 0.135796 0.344298 0.0919751 0.0501717 0.040765 0.0033073
threshold=40.500000000000007 11535.714557471265 28.500000000000004 41.500000000000007 26.500000000000004 2.5000000000000004 21.500000000000004 22.500000000000004 47.500000000000007 48.500000000000007 68.500000000000014 39.500000000000007 2.5000000000000004 1.0000000180025095e-35
decision_type=2 2 2 2 2 2 2 2 2 2 2 2 2 2
left_child=1 2 3 4 6 -6 -1 -4 11 -10 -11 12 -3 -14
right_child=-2 8 7 -5 5 -7 -8 -9 9 10 -12 -13 13 -15
leaf_value=-0.019051002647224053 -0.051895404328606981 0.044661510242718055 -0.003068599597357698 0.021622671218791009 -0.0098617819564390044 -0.020398034277476631 0.030498466232850685 0.019128109959336736 -0.0048805022957800663 0.026709073955091089 0.008426895755845416 0.0024277116522685854 0.028883557329975662 0.02256398070481383
leaf_weight=15.999999999999998 18 21 25 14.999999999999998 14.999999999999998 26 15.999999999999998 72 15.999999999999998 66 28 15.999999999999998 75 372
leaf_count=16 18 21 25 15 15 26 16 72 16 66 28 16 75 372
internal_value=0.000548865 0.000888846 -0.00206645 -0.0053916 -0.00701094 -0.0107664 -0.00202492 0.000901133 0.00181788 0.000181653 0.00138151 0.0021793 0.00227515 0.00237643
internal_weight=797 779 185 88 73 41 32 97 594 110 94 484 468 447
internal_count=797 779 185 88 73 41 32 97 594 110 94 484 468 447
is_linear=0
shrinkage=0.05


Tree=14
num_leaves=15
num_cat=1
split_feature=16 2 20 10 24 16 10 15 21 17 16 24 10 6
split_gain=1.50429 0.955191 0.580921 0.711878 0.40723 0.404309 0.271678 0.142755 0.108493 0.0709369 0.0381697 0.1703 0.0471616 0.020429
threshold=40.500000000000007 0 12485.669896039604 32.000000000000007 7822.1725000000015 27.500000000000004 7.5000000000000009 2.5000000000000004 2174.2875000000008 1582.95 36.500000000000007 7822.1725000000015 2.5000000000000004 2278.0000000000005
decision_type=2 9 2 2 2 2 2 2 2 2 2 2 2 2
left_child=1 2 3 6 -4 -6 13 -5 -3 -7 12 -12 -10 -1
right_child=-2 8 4 7 5 9 -8 -9 10 -11 11 -13 -14 -15
leaf_value=-0.0078377129018041402 -0.049300634112176625 0.00037235221854254599 0.016487538324780584 -0.0055530442970428131 -0.0080217348727666966 -0.0036713649150873426 -0.016114254240219519 0.026034113584767218 0.040157575241488087 0.0085402499038013911 -0.0028882310073588594 0.042062010546831972 0.037910713053231168 -0.028435898117683434
leaf_weight=15.000000000000002 18 28 85 14.999999999999998 23 36 22 26 20 19 15.999999999999998 52 406 15.999999999999998
leaf_count=15 18 28 85 15 23 36 22 26 20 19 16 52 406 16
internal_value=0.00042341 0.000760493 -0.00169412 -0.00488842 1.53281e-05 -0.00256082 -0.00870998 0 0.00197331 -0.000136116 0.00218579 0.000954479 0.00237034 -0.00538585
internal_weight=797 779 257 94 163 78 53 41 522 55 494 68 426 31
internal_count=797 779 257 94 163 78 53 41 522 55 494 68 426 31
cat_boundaries=0 2
cat_threshold=2176 4195328
is_linear=0
shrinkage=0.05


Tree=15
num_leaves=14
num_cat=1
split_feature=16 2 20 10 23 11 18 25 11 11 10 16 9
split_gain=2.14042 1.21809 0.649662 0.764105 0.457933 0.391379 0.352773 0.822619 0.141687 0.13779 0.0327073 0.0383926 0.0797994
threshold=40.500000000000007 0 12485.669896039604 32.000000000000007 24889.08602213542 7.5000000000000009 423.7000000000001 31.500000000000004 8.5000000000000018 5.5000000000000009 2.5000000000000004 36.500000000000007 3.8500000000000005
decision_type=2 9 2 2 2 2 2 2 2 2 2 2 2
left_child=1 2 3 6 -4 -6 7 -1 -7 -5 -3 -12 -13
right_child=-2 10 4 9 5 8 -8 -9 -10 -11 11 12 -14
leaf_value=0.028484823173319813 -0.04683560240656779 0.041160104632297509 0.017720961560173082 -0.0052753920821906929 -0.0028470356339180213 0.0024817984119532223 -0.014534052522497457 -0.022395722581957479 -0.0018995228591757334 0.018924824199856097 0.032562907631134279 0.0078438819431527838 0.038954550884187561
leaf_weight=15.999999999999998 18 22 81 14.999999999999998 22 23 20 19 26 24 463 27 42
leaf_count=16 18 22 81 15 22 23 20 19 26 24 463 27 42
internal_value=0.000415597 0.000806149 -0.0020695 -0.00541977 -9.86193e-05 -0.00305907 -0.00921053 -0.00591168 -0.000458248 0 0.00209183 0.00220823 0.000976845
internal_weight=818 800 246 94 152 71 55 35 49 39 554 532 69
internal_count=818 800 246 94 152 71 55 35 49 39 554 532 69
cat_boundaries=0 2
cat_threshold=2048 4195328
is_linear=0
shrinkage=0.05


Tree=16
num_leaves=16
num_cat=2
split_feature=2 7 18 20 23 25 25 11 25 25 25 4 22 9 25
split_gain=1.59401 3.37883 1.24166 0.341635 0.27138 0.122096 0.5108 0.114065 0.0725961 0.144528 0.0530498 0.035081 0.0218371 0.00526134 0.0290965
threshold=0 51.625000000000007 404.2000000000001 6946.8300820512841 22867.397559523815 48.500000000000007 47.500000000000007 6.5000000000000009 16.500000000000004 14.500000000000002 26.500000000000004 1 17.500000000000004 3.8500000000000005 27.500000000000004
decision_type=9 2 2 2 2 2 2 2 2 2 2 1 2 2 2
left_child=1 4 -3 7 -1 6 10 -2 9 -5 -6 -11 -10 14 -14
right_child=3 2 -4 8 5 -7 -8 -9 12 11 -12 -13 13 -15 -16
leaf_value=0.014262663211295257 0.020251616831576374 -0.022815396662806877 -0.029812162072212302 0.06533481627515933 0.053410104327235697 0.025038556363349226 -0.0030514208804623107 -0.0061838369844263883 0.075875569857049435 0.0081613696365408894 -0.00074229069112936375 -0.0081083592246555657 0.016880666676334716 0.036138561879432402 0.032323310726148836
leaf_weight=61 18 18 25 43 14.999999999999998 31 20 17 29 17 38 14.999999999999998 69 293 109
leaf_count=61 18 18 25 43 15 31 20 17 29 17 38 15 69 293 109
internal_value=0.00035448 -0.00332416 -0.0159513 0.0016449 -0.00019685 -0.00177714 -0.00290698 -0.00306268 0.00196922 0.000432756 -0.000235405 -0.00202492 0.00218956 0.00227659 0.00190904
internal_weight=818 208 43 610 165 104 73 35 575 75 53 32 500 471 178
internal_count=818 208 43 610 165 104 73 35 575 75 53 32 500 471 178
cat_boundaries=0 2 3
cat_threshold=2048 66560 4
is_linear=0
shrinkage=0.05


Tree=17
num_leaves=16
num_cat=2
split_feature=2 7 10 23 2 15 17 25 25 15 25 25 11 10 10
split_gain=1.54278 3.37883 1.24166 0.27138 0.184214 0.439102 0.651086 0.122096 0.5108 0.181369 0.106119 0.152654 0.0236994 0.0513584 0.14524
threshold=0 51.625000000000007 6.5000000000000009 22867.397559523815 1 2.5000000000000004 4137.0000000000009 48.500000000000007 47.500000000000007 2.5000000000000004 15.500000000000002 13.500000000000002 8.5000000000000018 9.5000000000000018 7.5000000000000009
decision_type=9 2 2 2 9 2 2 2 2 2 2 2 2 2 2
left_child=1 3 -3 -1 5 6 -2 8 9 -5 11 -6 -12 14 -14
right_child=4 2 -4 7 10 -7 -8 -9 -10 -11 12 -13 13 -15 -16
leaf_value=0.013549530050730497 -0.025427929493953116 -0.021674626829666522 -0.028321553968601688 -0.00085739802677968046 0.092745271094214862 0.01910490100639075 0.034842466293987205 0.023786628545181751 -0.002898849836439202 0.011299904211925586 0.037917170598064369 -0.00067173209846664757 0.033640112970726332 0.05155958126661872 -0.0064248816044732097
leaf_weight=61 17 18 25 24 33 58 27 31 20 29 346 28 27 59 14.999999999999998
leaf_count=61 17 18 25 24 33 58 27 31 20 29 346 28 27 59 15
internal_value=0.000293363 -0.00332416 -0.0159513 -0.00019685 0.00156426 -0.000356824 -0.00419501 -0.00177714 -0.00290698 -0.000235405 0.00195908 0 0.00226459 0.00145895 6.37104e-11
internal_weight=818 208 43 165 610 102 44 104 73 53 508 61 447 101 42
internal_count=818 208 43 165 610 102 44 104 73 53 508 61 447 101 42
cat_boundaries=0 2 4
cat_threshold=2048 66560 128 4194312
is_linear=0
shrinkage=0.05


Tree=18
num_leaves=17
num_cat=1
split_feature=2 12 20 10 24 25 25 15 25 13 25 25 22 10 20 20
split_gain=1.40206 1.70403 0.801106 0.850427 0.366702 0.264314 0.291016 0.195434 0.318171 0.132754 0.106119 0.152654 0.019677 0.0243769 0.00101645 0.0126651
threshold=0 3.5000000000000004 12485.669896039604 32.000000000000007 7822.1725000000015 26.500000000000004 39.500000000000007 1.0000000180025095e-35 47.500000000000007 1.0000000180025095e-35 15.500000000000002 13.500000000000002 17.500000000000004 29.500000000000004 12485.669896039604 9395.8626332288422
decision_type=9 2 2 2 2 2 2 2 2 2 2 2 2 2 2 2
left_child=1 2 3 5 -4 -1 -7 -6 -9 -5 11 -2 13 -12 15 -14
right_child=10 -3 4 9 7 6 -8 8 -10 -11 12 -13 14 -15 -16 -17
leaf_value=-0.0024995001487093218 0.088108007539504138 -0.046257618204698092 0.015510227440601453 -0.0062367081620466787 -0.0093005174305579516 -0.016243248802372195 -0.0082987900694551364 0.011382714996743823 -0.0029799221457805346 0.018513333854729589 0.057700011492400262 -0.00063814549354330617 0.015897803254333456 0.090791038472031807 0.052193886724383645 0.02047828348550227
leaf_weight=21 33 17 105 15.999999999999998 14.999999999999998 18 15.999999999999998 38 37 27 15.999999999999998 28 53 17 328 33
leaf_count=21 33 17 105 16 15 18 16 38 37 27 16 28 53 17 328 33
internal_value=0.00035448 -0.0022493 -0.00140737 -0.00509684 0.00042286 -0.00921053 -0.0120235 -0.00188679 -0.000765646 5.80047e-05 0.00195908 0 0.00226459 0.000830816 0.00236658 0.0018583
internal_weight=818 310 293 98 195 55 34 90 75 43 508 61 447 33 414 86
internal_count=818 310 293 98 195 55 34 90 75 43 508 61 447 33 414 86
cat_boundaries=0 2
cat_threshold=2176 4260872
is_linear=0
shrinkage=0.05


Tree=19
num_leaves=14
num_cat=2
split_feature=16 2 7 23 15 6 15 10 22 4 16 25 16
split_gain=1.52804 0.805209 1.21406 0.227705 0.304611 0.221925 0.189769 0.103898 0.0532192 0.0891161 0.127742 0.0258876 0.0132082
threshold=40.500000000000007 0 51.625000000000007 22867.397559523815 1.0000000180025095e-35 2278.0000000000005 3.5000000000000004 2.5000000000000004 43.500000000000007 1 30.500000000000004 14.500000000000002 36.500000000000007
decision_type=2 9 2 2 2 2 2 2 2 1 2 2 2
left_child=1 2 3 -1 -5 -4 -6 -3 9 10 -9 -10 -13
right_child=-2 7 5 4 6 -7 -8 8 11 -11 -12 12 -14
leaf_value=0.01235376721661794 -0.039274255573963801 0.0053825095849954268 -0.009901521191619295 -0.016113051407497459 0.0026811099170389306 -0.018596773486425779 -0.0022407173456086469 0.039579357376035448 0.024490965501269932 0.035158685886461739 -0.0037734781000615309 0.029476208325742898 0.025197436961416794
leaf_weight=63 18 26 22 21 41 19 39 50 28 65 27 353 46
leaf_count=63 18 26 22 21 41 19 39 50 28 65 27 353 46
internal_value=0.000537832 0.000868641 -0.00177824 3.04693e-05 -0.0014095 -0.00954988 0 0.00178896 0.00196363 0.00105559 -3.24254e-05 0.00225357 0.00236156
internal_weight=818 800 205 164 101 41 80 595 569 142 77 427 399
internal_count=818 800 205 164 101 41 80 595 569 142 77 427 399
cat_boundaries=0 2 3
cat_threshold=2176 1024 2
is_linear=0
shrinkage=0.05


Tree=20
num_leaves=14
num_cat=0
split_feature=16 21 25 8 16 15 19 16 25 25 25 9 25
split_gain=1.15609 0.51364 0.610516 0.370123 0.512053 0.183883 0.187584 0.116683 0.0982171 0.166217 0.0500914 0.0285763 0.0887848
threshold=40.500000000000007 5673.7800000000016 16.500000000000004 9.2750000000000004 32.500000000000007 3.5000000000000004 737.50000000000011 22.500000000000004 15.500000000000002 13.500000000000002 47.500000000000007 3.0750000000000006 24.500000000000004
decision_type=2 2 2 2 2 2 2 2 2 2 2 2 2
left_child=1 2 -1 4 7 10 -7 -4 9 -3 -5 12 -10
right_child=-2 8 3 5 -6 6 -8 -9 11 -11 -12 -13 -14
leaf_value=-0.013427534549635203 -0.046651506236264413 0.070405252500719884 -0.010115732145241873 0.010697913579215606 -0.0054412413636861631 0.0044797186560208381 -0.0071713304367787339 0.0090340915065403576 0.00212588765589965 -0.0059740723644825071 0.0016495204142625633 0.031662002976440486 0.047258973082672823
leaf_weight=14.999999999999998 15.999999999999998 35 24 107 19 34 88 35 28 27 50 297 60
leaf_count=15 16 35 24 107 19 34 88 35 28 27 50 297 60
internal_value=0.000517902 0.000784398 -0.000577802 -0.000147018 -0.00320102 0.000689717 -0.000737101 -0.000803722 0.0019291 6.41878e-11 0.00183004 0.00222669 0.00130533
internal_weight=835 819 372 357 78 279 122 59 447 62 157 385 88
internal_count=835 819 372 357 78 279 122 59 447 62 157 385 88
is_linear=0
shrinkage=0.05


Tree=21
num_leaves=15
num_cat=1
split_feature=2 7 8 8 9 21 23 25 25 25 25 16 25 16
split_gain=0.833674 1.187 0.695198 0.302545 0.298136 0.267581 0.26272 0.151838 0.164396 0.110038 0.120331 0.318013 0.0566323 0.0405331
threshold=0 51.625000000000007 13.275000000000002 9.2750000000000004 3.8500000000000005 7163.8825000000006 22867.397559523815 15.500000000000002 13.500000000000002 39.500000000000007 48.500000000000007 30.500000000000004 27.500000000000004 26.500000000000004
decision_type=9 2 2 2 2 2 2 2 2 2 2 2 2 2
left_child=1 6 -3 4 -2 13 -1 8 -5 12 11 -11 -8 -6
right_child=3 2 -4 7 5 -7 9 -9 -10 10 -12 -13 -14 -15
leaf_value=0.013876560860959382 -0.010720638173130024 -0.020272752036126725 -0.014269170190084203 0.062198454092258548 0.0027086537484589963 0.059417526172653549 -0.0056664016223354008 0.032393505995127796 -0.0062322531901382169 -0.0093978789476671654 0.0038519324492464926 0.00043017739173612299 0.011679699670456838 -0.0033550548026017122
leaf_weight=64 14.999999999999998 26 21 27 28 67 25 432 25 14.999999999999998 31 17 20 22
leaf_count=64 15 26 21 27 28 67 25 432 25 15 31 17 20 22
internal_value=0.000637648 -0.0019533 -0.00907643 0.00157323 -0.000492051 0.000320239 -8.71586e-05 0.0021793 -0.000287908 -0.00161887 -0.00297147 -0.00514019 0.000166297 -0.00239521
internal_weight=835 219 47 616 132 117 172 484 52 108 63 32 45 50
internal_count=835 219 47 616 132 117 172 484 52 108 63 32 45 50
cat_boundaries=0 2
cat_threshold=2176 1024
is_linear=0
shrinkage=0.05


Tree=22
num_leaves=13
num_cat=0
split_feature=20 16 9 25 25 17 21 23 25 9 14 18
split_gain=0.723741 0.781173 0.292015 0.280473 0.294528 0.162273 0.140981 0.153755 0.274639 0.155697 0.106767 0.0407442
threshold=11535.714557471265 37.500000000000007 3.8500000000000005 41.500000000000007 37.500000000000007 56948.500000000007 10906.137500000003 22867.397559523815 16.500000000000004 3.4000000000000008 1.0000000180025095e-35 156.60000000000005
decision_type=2 2 2 2 2 2 2 2 2 2 2 2
left_child=1 2 -1 4 5 -4 7 -2 -9 10 -10 -8
right_child=6 -3 3 -5 -6 -7 11 8 9 -11 -12 -13
leaf_value=0.0080731183595532524 0.013584573568761258 -0.019323686834052209 0.00024538301216208146 0.019796602607298455 -0.02173571176615682 -0.008796016940514852 0.048525121755813319 -0.0089784429649284059 0.00038941559224072765 0.059841512022387688 -0.0068485358536251699 0.044192708638347393
leaf_weight=49 99 22 62 27 15.999999999999998 24 22 17 121 76 38 262
leaf_count=49 99 22 62 27 16 24 22 17 121 76 38 262
internal_value=0.000637648 -0.00197401 -0.000842223 -0.00211077 -0.00333007 -0.00209059 0.00146827 0.000776132 9.91671e-05 0.00056359 -0.000298554 0.00230553
internal_weight=835 200 178 129 102 86 635 351 252 235 159 284
internal_count=835 200 178 129 102 86 635 351 252 235 159 284
is_linear=0
shrinkage=0.05


Tree=23
num_leaves=20
num_cat=2
split_feature=2 20 4 15 23 16 21 25 25 22 25 15 25 13 6 17 25 15 17
split_gain=0.637813 0.41856 0.875194 0.312358 0.293434 0.237014 0.20548 0.395832 0.0970328 0.115701 0.204173 0.493737 0.0826136 0.0569692 0.0418309 0.0930488 0.0401189 0.0296026 0.00507035
threshold=0 12485.669896039604 1 2.5000000000000004 24889.08602213542 27.500000000000004 2174.2875000000008 27.500000000000004 17.500000000000004 69.000000000000014 13.500000000000002 4.5000000000000009 47.500000000000007 1.0000000180025095e-35 351.50000000000006 13238.500000000002 21.500000000000004 3.5000000000000004 1531.0500000000002
decision_type=9 2 1 2 2 2 2 2 2 2 2 2 2 2 2 2 2 2 2
left_child=1 2 -1 -4 16 -6 7 -2 9 10 -8 -12 -7 14 18 -16 -3 -14 -10
right_child=6 4 3 -5 5 12 8 -9 13 -11 11 -13 17 -15 15 -17 -18 -19 -20
leaf_value=-0.02376154259632228 -0.0064027200916729893 0.0088665151959164169 -0.0040688421604758735 0.015387503695867544 -0.0074877572936007334 0.036808501563590112 0.055480217844566727 0.0040711637386022905 0.039866161182478904 0.045561333917141074 -0.0074545273992181419 0.0070374013627740126 -0.0080759783443532969 0.033055648874154756 -0.022497197178839773 0.03240620111271382 0.0098592174443182506 -0.0043398075712908022 0.0052654558811820766
leaf_weight=17 21 18 24 25 20 15.999999999999998 22 27 53 38 15.000000000000002 14.999999999999998 15.999999999999998 318 18 50 63 15.000000000000002 44
leaf_count=17 21 18 24 25 20 16 22 27 53 38 15 15 16 318 18 50 63 15 44
internal_value=0.000697521 -0.00160643 -0.00499244 -0.00147658 -0.000168805 -0.00264531 0.00150135 -0.00155925 0.00179288 0.000221976 -0.0012476 -0.00398671 -0.000583864 0.00207514 0.00125681 0.000220264 0.00181874 -0.00217042 0.001931
internal_weight=835 214 66 49 148 67 621 48 573 90 52 30 47 483 165 68 81 31 97
internal_count=835 214 66 49 148 67 621 48 573 90 52 30 47 483 165 68 81 31 97
cat_boundaries=0 2 3
cat_threshold=2176 4194312 4
is_linear=0
shrinkage=0.05


Tree=24
num_leaves=18
num_cat=3
split_feature=2 4 6 20 14 17 23 11 13 22 9 2 16 6 17 17 16
split_gain=0.664746 0.70035 0.401831 0.374864 0.337787 0.246725 0.189177 0.15088 0.0876358 0.0595221 0.125363 0.0777878 0.125512 0.0535368 0.0297515 0.0225874 0.0287601
threshold=0 1 2278.0000000000005 7750.0430424242431 1.0000000180025095e-35 7107.0000000000009 24889.08602213542 7.5000000000000009 1.0000000180025095e-35 17.500000000000004 3.4000000000000008 2 36.500000000000007 2278.0000000000005 1531.0500000000002 59097.500000000007 32.500000000000007
decision_type=9 1 2 2 2 2 2 2 2 2 2 9 2 2 2 2 2
left_child=1 2 -1 5 6 8 -3 -8 -2 10 -5 12 13 -11 -9 -13 -17
right_child=3 4 -4 9 -6 -7 7 14 -10 11 -12 15 -14 -15 -16 16 -18
leaf_value=-0.017461319150578487 -0.0036448044889563513 0.0110961526653022 -0.011280849007834643 -0.0056840291379794865 -0.0089461225452969941 0.020229552829357945 -0.0037700098471747448 -0.0076575860266455409 -0.0034072258889925929 0.01718326882583154 0.083336407801003556 0.038393905539686891 -0.005547994842749527 0.0082439420514363523 0.001175609670931997 0.038798192499243427 0.10011884375834919
leaf_weight=24 22 75 21 15.999999999999998 33 20 31 14.999999999999998 21 51 24 373 15.999999999999998 39 20 14.999999999999998 19
leaf_count=24 22 75 21 16 33 20 31 15 21 51 24 373 16 39 20 15 19
internal_value=0.000577775 -0.00173505 -0.00737251 0.00141351 -0.000344629 -0.00217908 0.000690999 -0.00121029 -0.00435035 0.00185771 0 0.00200253 0.000516796 0.00133185 0.000925926 0.0023076 0.000879765
internal_weight=835 219 45 616 174 63 141 66 43 553 40 513 106 90 35 407 34
internal_count=835 219 45 616 174 63 141 66 43 553 40 513 106 90 35 407 34
cat_boundaries=0 2 3 5
cat_threshold=2176 1024 4 8388608 264
is_linear=0
shrinkage=0.05


Tree=25
num_leaves=18
num_cat=1
split_feature=2 7 14 16 24 9 17 21 21 17 16 17 15 24 21 16 15
split_gain=0.684883 1.00547 0.513436 0.330958 0.419077 1.40025 0.155636 0.104328 0.176519 0.079338 0.0787847 0.0903673 0.0343936 0.071517 0.0245304 0.0232677 0.0177168
threshold=0 51.625000000000007 1.0000000180025095e-35 31.500000000000004 7822.1725000000015 3.8500000000000005 59097.500000000007 7163.8825000000006 3971.8500000000008 1582.95 35.500000000000007 13238.500000000002 1.0000000180025095e-35 7822.1725000000015 2174.2875000000008 25.500000000000004 4.5000000000000009
decision_type=9 2 2 2 2 2 2 2 2 2 2 2 2 2 2 2 2
left_child=1 2 9 6 5 -5 12 8 -7 -1 11 16 13 -2 15 -14 -6
right_child=3 -3 -4 4 10 7 -8 -9 -10 -11 -12 -13 14 -15 -16 -17 -18
leaf_value=0.0016846018741831466 0.062977565770575741 -0.016880160934062565 -0.011916936897621799 -0.018917184892654284 -0.0019882263665860502 0.025959142307769807 -0.0013360345514510765 0.068348332323199951 -0.0029875748817640903 3.2218583885927633e-05 0.017688051438414433 0.070940805783288943 0.0090802728942363884 0.0014560936631048934 0.027396097049623022 0.0092305811496564694 0.039080316840792544
leaf_weight=46 41 23 18 20 18 15.999999999999998 20 33 20 28 75 25 15.999999999999998 29 339 15.999999999999998 17
leaf_count=46 41 23 18 20 18 16 20 33 20 28 75 25 16 29 339 16 17
internal_value=0.000556181 -0.00285771 -0.000705755 0.0011617 -0.000379295 -0.00305836 0.00194643 0.000253256 -0.00152355 0.00107962 0.00135085 0 0.00214804 0.000998574 0.00235112 0.000778816 -0.00163818
internal_weight=800 115 92 685 224 89 461 69 36 74 135 60 441 70 371 32 35
internal_count=800 115 92 685 224 89 461 69 36 74 135 60 441 70 371 32 35
cat_boundaries=0 2
cat_threshold=2048 8
is_linear=0
shrinkage=0.05


Tree=26
num_leaves=19
num_cat=0
split_feature=20 10 18 13 10 16 21 17 25 25 16 20 25 25 17 16 21 25
split_gain=0.556497 0.467291 0.49934 0.236006 0.221311 0.249174 0.210837 0.535635 0.465678 0.183429 0.141475 0.0924678 0.0798882 0.174481 0.0454092 0.0415046 0.0173521 0.0217806
threshold=11535.714557471265 28.500000000000004 404.2000000000001 1.0000000180025095e-35 39.500000000000007 31.500000000000004 9789.1425000000017 1531.0500000000002 38.500000000000007 31.500000000000004 29.500000000000004 59362.380494791672 25.500000000000004 19.500000000000004 59097.500000000007 22.500000000000004 5673.7800000000016 30.500000000000004
decision_type=2 2 2 2 2 2 2 2 2 2 2 2 2 2 2 2 2 2
left_child=1 2 9 -4 5 14 7 -7 -9 -1 -11 -8 13 -3 16 -14 17 -2
right_child=4 12 3 -5 -6 6 11 8 -10 10 -12 -13 15 -15 -16 -17 -18 -19
leaf_value=0.026520505562507232 0.0072430305355954188 0.050887962666947423 -0.015642796863080347 -0.0042778364576389095 -0.00051943112650864134 0.015570846909576825 0.050457550184455718 -0.0085571440991147746 -9.7182805725508454e-05 -0.00086782444631209633 -0.014240673619151507 0.0025310764700266137 0.004385258310076248 -0.0011279587326591966 0.045432297175390261 0.023771005463046731 0.031409820078459161 0.0029188747997270959
leaf_weight=22 21 18 24 15.999999999999998 25 34 67 15.999999999999998 24 17 14.999999999999998 28 15.999999999999998 21 17 47 279 93
leaf_count=22 21 18 24 16 25 34 67 16 24 17 15 28 16 21 17 47 279 93
internal_value=0.000493688 -0.0018103 -0.00435707 -0.00860349 0.00124979 0.00145484 -0.000133057 -0.00215924 -0.00610973 -0.00110906 -0.00358255 0.00139327 0.000489716 -0.00121483 0.00212143 0.00162441 0.00223226 0.00157756
internal_weight=800 196 94 40 604 579 169 74 40 54 32 95 102 39 410 63 393 114
internal_count=800 196 94 40 604 579 169 74 40 54 32 95 102 39 410 63 393 114
is_linear=0
shrinkage=0.05


Tree=27
num_leaves=19
num_cat=0
split_feature=20 7 6 13 15 21 25 14 9 9 13 16 16 25 18 11 25 16
split_gain=0.587147 0.405355 0.573008 0.658474 0.132764 0.120359 0.56688 0.138732 0.260994 0.086049 0.0887471 0.0770693 0.0482537 0.0417023 0.0410161 0.0396609 0.0322473 0.0149691
threshold=11535.714557471265 51.625000000000007 2278.0000000000005 1.0000000180025095e-35 4.5000000000000009 9789.1425000000017 16.500000000000004 1.0000000180025095e-35 3.4000000000000008 3.8500000000000005 1.0000000180025095e-35 26.500000000000004 37.500000000000007 20.500000000000004 1975.0000000000002 5.5000000000000009 50.500000000000007 27.500000000000004
decision_type=2 2 2 2 2 2 2 2 2 2 2 2 2 2 2 2 2 2
left_child=1 9 3 -3 -4 6 -2 14 -9 13 -11 -12 15 -1 17 -7 -17 -8
right_child=5 2 4 -5 -6 12 7 8 -10 10 11 -13 -14 -15 -16 16 -18 -19
leaf_value=0.00054997605358551806 -0.0068978248657062015 -0.024636509450054456 0.0079316795078625043 -0.0015159416563171949 -0.018746408863884862 0.0042175908727641416 0.0052732503095457781 -0.0050995637768069847 0.051370758910154947 0.0055848920017186809 0.029707499826770178 -0.0021392829681229739 0.013341964287315973 0.010589480879066615 0.010402997869116779 0.04371505084864119 0.011229334972727668 0.004959438969280504
leaf_weight=14.999999999999998 19 19 22 20 14.999999999999998 20 93 28 28 30 17 19 14.999999999999998 39 14.999999999999998 256 26 104
leaf_count=15 19 19 22 20 15 20 93 28 28 30 17 19 15 39 15 256 26 104
internal_value=0.000556181 -0.0018103 -0.00466491 -0.00888747 -6.73854e-05 0.00133256 0.000566005 0.00117493 -0.000980392 0 -0.00121029 -0.00290859 0.00201041 0.00147874 0.00176803 0.00215161 0.00230415 0.00196601
internal_weight=800 196 76 39 37 604 287 268 56 120 66 36 317 54 212 302 282 197
internal_count=800 196 76 39 37 604 287 268 56 120 66 36 317 54 212 302 282 197
is_linear=0
shrinkage=0.05


Tree=28
num_leaves=20
num_cat=1
split_feature=2 17 25 16 24 9 17 22 11 16 17 21 25 23 22 22 21 21 16
split_gain=0.35282 0.924385 0.405716 0.193812 0.232153 0.624903 0.14767 0.11802 0.209201 0.0787847 0.0903673 0.0753174 0.13779 0.0417714 0.0267956 0.0212818 0.0254136 0.00715536 0.00302263
threshold=0 2792.4500000000003 32.500000000000007 31.500000000000004 7822.1725000000015 3.8500000000000005 59097.500000000007 62.500000000000007 8.5000000000000018 35.500000000000007 13238.500000000002 2174.2875000000008 29.500000000000004 24889.08602213542 110.00000000000001 17.500000000000004 10906.137500000003 2812.2275000000004 29.500000000000004
decision_type=9 2 2 2 2 2 2 2 2 2 2 2 2 2 2 2 2 2 2
left_child=1 13 -3 6 5 -5 11 8 -7 10 14 12 -2 -1 -6 16 -13 -17 -15
right_child=3 2 -4 4 9 7 -8 -9 -10 -11 -12 15 -14 18 -16 17 -18 -19 -20
leaf_value=0.0024035057094937877 -0.0037694716437194466 -0.013739908612260699 -0.017749761047451823 -0.015957360332364834 -0.0021665362841020819 -0.0020454393311214983 -0.0011181530443426927 0.023000804634939871 0.0069446464721900697 0.016115628294355977 0.062685135442469606 -0.0016679825703024348 0.012406278147119233 -0.0016834132346059544 0.009332077088618709 0.022374808041616553 0.097451132836045284 0.026102982088793292 0.00022128248310706512
leaf_weight=38 14.999999999999998 18 18 20 17 18 20 35 15.999999999999998 75 25 15.000000000000002 24 14.999999999999998 18 59 15.999999999999998 312 26
leaf_count=38 15 18 18 20 17 18 20 35 16 75 25 15 24 15 18 59 16 312 26
internal_value=0.000806149 -0.00165867 -0.00844875 0.00123364 2.23115e-05 -0.00193603 0.001838 0.000253256 -0.00175953 0.00135085 0 0.00203469 0 0.00116941 -0.00163818 0.00223825 0.000723473 0.00235112 0
internal_weight=800 115 36 685 224 89 461 69 34 135 60 441 39 79 35 402 31 371 41
internal_count=800 115 36 685 224 89 461 69 34 135 60 441 39 79 35 402 31 371 41
cat_boundaries=0 2
cat_threshold=2048 8
is_linear=0
shrinkage=0.05


Tree=29
num_leaves=16
num_cat=1
split_feature=16 24 9 17 25 10 17 16 3 17 16 17 15 25 24
split_gain=0.341986 0.338994 1.16496 0.276203 0.165129 0.0892909 0.0884673 0.111775 0.0881292 0.136032 0.175785 0.0379235 0.0374104 0.0340747 0.0251741
threshold=31.500000000000004 7822.1725000000015 3.8500000000000005 59097.500000000007 31.500000000000004 39.500000000000007 13238.500000000002 35.500000000000007 0 6901.0000000000009 23.500000000000004 9386.0000000000018 5.5000000000000009 27.500000000000004 7822.1725000000015
decision_type=2 2 2 2 2 2 2 2 1 2 2 2 2 2 2
left_child=3 2 -2 5 11 8 7 12 9 14 -11 -4 -3 -9 -1
right_child=1 6 4 -5 -6 -7 -8 13 -10 10 -12 -13 -14 -15 -16
leaf_value=0.0046224329385992106 -0.014118442723212122 -0.0049854288642284944 0.019496459151814943 -0.0064174003295806026 -0.0021268545203208334 -7.1261628275803257e-05 0.054927029633238769 0.00017496813639680684 0.024979146692543853 -0.011643552126659011 0.0043262091803269011 0.039279794375710941 0.0033277073264842642 0.029101678155967592 0.0010399986096069908
leaf_weight=70 22 25 37 23 24 28 53 17 316 19 33 15.999999999999998 18 34 65
leaf_count=70 22 25 37 23 24 28 53 17 316 19 33 16 18 34 65
internal_value=0.000806149 -0.00073141 -0.00300202 0.00149792 -3.24254e-05 0.00173696 0.000764786 -0.00010627 0.00189326 0.000824455 -0.0012476 0.00145951 -0.00203016 0.00141879 0.00172095
internal_weight=800 246 99 554 77 531 147 94 503 187 52 53 43 51 135
internal_count=800 246 99 554 77 531 147 94 503 187 52 53 43 51 135
cat_boundaries=0 1
cat_threshold=2
is_linear=0
shrinkage=0.05


end of trees

feature_importances:
cmt_len=92
week_of_year=59
gt_x_stay=32
size_svc_median_charge=24
service_type=23
stay_days=23
size_svc_mean_charge=23
day_of_week=20
draft_m=16
month=16
port_mean_charge=14
is_summer=13
gt=11
port_median_charge=11
loa_x_stay=9
size_svc_count=9
size_category=7
loa_m=7
is_shoulder=7
fuel_x_stay=6
beam_m=3
service_category=1
quarter=1

parameters:
[boosting: gbdt]
[objective: quantile]
[metric: quantile]
[tree_learner: serial]
[device_type: cpu]
[data_sample_strategy: bagging]
[data: ]
[valid: ]
[num_iterations: 3000]
[learning_rate: 0.05]
[num_leaves: 40]
[num_threads: 0]
[seed: 42]
[deterministic: 0]
[force_col_wise: 0]
[force_row_wise: 0]
[histogram_pool_size: -1]
[max_depth: 6]
[min_data_in_leaf: 15]
[min_sum_hessian_in_leaf: 0.001]
[bagging_fraction: 0.836905]
[pos_bagging_fraction: 1]
[neg_bagging_fraction: 1]
[bagging_freq: 5]
[bagging_seed: 400]
[bagging_by_query: 0]
[feature_fraction: 0.787584]
[feature_fraction_bynode: 1]
[feature_fraction_seed: 30056]
[extra_trees: 0]
[extra_seed: 12879]
[early_stopping_round: 0]
[early_stopping_min_delta: 0]
[first_metric_only: 0]
[max_delta_step: 0]
[lambda_l1: 0.1]
[lambda_l2: 0.1]
[linear_lambda: 0]
[min_gain_to_split: 0]
[drop_rate: 0.1]
[max_drop: 50]
[skip_drop: 0.5]
[xgboost_dart_mode: 0]
[uniform_drop: 0]
[drop_seed: 17869]
[top_rate: 0.2]
[other_rate: 0.1]
[min_data_per_group: 100]
[max_cat_threshold: 32]
[cat_l2: 10]
[cat_smooth: 10]
[max_cat_to_onehot: 4]
[top_k: 20]
[monotone_constraints: ]
[monotone_constraints_method: basic]
[monotone_penalty: 0]
[feature_contri: ]
[forcedsplits_filename: ]
[refit_decay_rate: 0.9]
[cegb_tradeoff: 1]
[cegb_penalty_split: 0]
[cegb_penalty_feature_lazy: ]
[cegb_penalty_feature_coupled: ]
[path_smooth: 0]
[interaction_constraints: ]
[verbosity: -1]
[saved_feature_importance_type: 0]
[use_quantized_grad: 0]
[num_grad_quant_bins: 4]
[quant_train_renew_leaf: 0]
[stochastic_rounding: 1]
[linear_tree: 0]
[max_bin: 255]
[max_bin_by_feature: ]
[min_data_in_bin: 3]
[bin_construct_sample_cnt: 200000]
[data_random_seed: 175]
[is_enable_sparse: 1]
[enable_bundle: 1]
[use_missing: 1]
[zero_as_missing: 0]
[feature_pre_filter: 0]
[pre_partition: 0]
[two_round: 0]
[header: 0]
[label_column: ]
[weight_column: ]
[group_column: ]
[ignore_column: ]
[categorical_feature: 0,1,2,3,4,5]
[forcedbins_filename: ]
[precise_float_parser: 0]
[parser_config_file: ]
[objective_seed: 16083]
[num_class: 1]
[is_unbalance: 0]
[scale_pos_weight: 1]
[sigmoid: 1]
[boost_from_average: 1]
[reg_sqrt: 0]
[alpha: 0.05]
[fair_c: 1]
[poisson_max_delta_step: 0.7]
[tweedie_variance_power: 1.5]
[lambdarank_truncation_level: 30]
[lambdarank_norm: 1]
[label_gain: ]
[lambdarank_position_bias_regularization: 0]
[eval_at: ]
[multi_error_top_k: 1]
[auc_mu_weights: ]
[num_machines: 1]
[local_listen_port: 12400]
[time_out: 120]
[machine_list_filename: ]
[machines: ]
[gpu_platform_id: -1]
[gpu_device_id: -1]
[gpu_use_dp: 0]
[num_gpu: 1]

end of parameters

pandas_categorical:[["Bergen Office", "Copenhagen Office", "Stockholm OFFICE"], ["Bergen", "Esbjerg", "Fredericia", "G\u00f6teborg", "Kristiansand", "K\u00f8benhavn", "Malm\u00f6", "Stavanger", "Stockholm", "Svolv\u00e6r", "Troms\u00f8", "\u00c5lesund"], ["Administrative Fees", "Agency Fees", "Agency Services", "Agent Time & Service", "Airport Transfer", "Arrival Pilot Fees", "Boat Work", "Car Rental", "Carpenter Service", "Clearance in/out", "Courier", "Custom Clearance", "Custom Formalities", "Delivery Charge", "Delivery Services", "Dirty Water Removal Service", "Diver Services", "Doctor/Medical", "Dry Cleaning Services", "Dry Dock/Shipyard Services", "Florist Services", "Fuel - Diesel", "Garbage Disposal", "Guide Services", "Hotel Accommodation", "Hydraulic Services", "Immigration Formalities", "International Transport", "Internet Connection", "Laundry/Dry Cleaning", "Logistic Arrangements", "Lube Oil Supply", "Marina Water Fees", "Mechanical Services", "Medical Arrangements", "Mooring/Unmooring Assistance", "NOx Tax", "Parcel Transfer", "Pilot Fees Arrival", "Port Dues", "Provisioning", "Provisioning Assistance", "Purchasing Assistance", "Rental Car", "Repair of", "Service", "Sludge/Oil/Water Removal", "Speciality Shipment Items", "Storage & Transport", "Storage Arrangements", "Technical Assistance", "Technician", "Tourism or Guide / Tour", "Tours / Excursions", "Transfer Service", "Transportation"], ["Agency Fee", "Agency Services", "Bunkering", "Hospitality", "Port Marina", "Provisioning", "Technical Services"], ["Liten", "Mellomstor", "Stor"], ["Ja", "Nei"]]
