tree
version=v4
num_class=1
num_tree_per_iteration=1
label_index=0
max_feature_idx=30
objective=quantile
feature_names=office arrival_port service_type service_category size_category loskrav gt loa_m beam_m draft_m fuel_lph stay_days month quarter is_summer is_shoulder gt_x_stay loa_x_stay fuel_x_stay log_gt size_svc_mean_charge size_svc_median_charge size_svc_count size_mean_charge size_count port_mean_charge port_median_charge cmt_len cmt_has_urgent cmt_has_repair cmt_has_fuel
feature_infos=-1:0:1:2 -1:0:10:9:11:5:8:3 -1:11:39:42:40:54:5:50:23:49:10:35:1:21:48:7:34:36:0:38:8:9:26:51:32:2:12:53:3:13:16:22:33:55:4:20 -1:1:4:3:6:5:0:2 -1:2:0:1 -1:1:0 [51.899999999999999:2407] [18.899999999999999:79.200000000000003] [7.0999999999999996:13.630000000000001] [2.1429999999999998:7.2000000000000002] [25:500] [1:304] [4:10] [2:4] [0:1] [0:1] [161.84:731728] [28.579999999999998:23529.600000000002] [60:152000] [3.9684033388642534:7.7865518064287116] [6554.2592307692312:99876.127999999997] [1767.4400000000001:100654.01000000001] [1:202] [14726.62893877551:36092.448415584418] [245:385] [8301.7900000000009:31485.151395348839] [4159.2600000000002:16586.07] [0:310] none none [0:1]
tree_sizes=1589 1786 1616 1703 1782 1943 1865 1781 2121 2051 1968 2197 1969 1880 2063 1885 2058 2231 1887 2214 1791 2307 2146 2235 1981 1792 2571 2174 2302 2308 1988 2331 2214 2151 2348 2333 2557 2314 2555 2426 2425 1803 2329 2564 2733 2476 2756 2334 2743 2441 1967 2676 2775 2598 2599 2343 2577 2703 2591 2553 2688 2312 2754 2242 2686 2771 2324 2681 2420 2779 2826 2721 2429 2853 2620 2877 2587 2857 2684 2832 2509 2850 2824 2847 2690 2869 2783 2823 2328 2837 2892 2820 2868 2856 2871 2795 2822 2766 2431 2607 2617 2882 2428 2692 2866 2085 2779 2513 2590 1973 2527 2886 2876 2875 2848 2801 1915 2764 2887 2502 2465 2881 2717 2876 2883 2629 1764 2800 1852 2890 2806 2722 2869 2337 2876 2888 2867 2767 2805 2172 2866 2536 2891 2357 2515 2881 2791 2709 2711 2529 2534 2878 2887 2889 2877 2552 2770 2844 2540 2893 2359 2808 2870 2722 2546 2805 2890 2889 2876 2727 2613 2791 2720 2894 2871 2878 2859 2686 2890 2277 2718 2863 2365 2892 2700 2883 2733 2789 2801 2276 2873 2864 2888 2342 2782 2745 2893 2865 2622 2812 2521 2627 2889 2532 2886 1841 2879 2883 1827 2266 2163 2861 2886 2874 2879 2885 2896 2894 2885 2899 2887 1991 2194 2464 2713 2455 2714 2596 2861 1850 2726 2554 2899 2870 2432 2855 2646 1671 2290 2874 2876 2891 2895 2906 2905 2466 2876 2740 2893 2887 2911 2698 2915 2876 2562 2460 2882 2911 2880 2890 2896 2894 2893 2547 2892 2784 2907 2269 2903 2289 2543 2726 2831 2745 2914 2795 2198 2376 2654 2895 2912 2885 2884 2895 2466 2429 2875 2713 2906 2882 2903 2900 2892 2901 2905 2472 2895 2211 2813 2906 2289 2718 2531 2815 2882 2557 2633 2629 2171 2896 2639 2640 2551 2890 2901 2732 2890 2721 2870 2462 2393 2378 2534 2887 2919 2621 2449 2171 2732 2643 2797 2876 2867 2625 2344 2892 2190 2899 2441 2456 2897 1848 2621 2455 2273 2904 2899 2921 2829 2884 2874 2883 2276 2653 2569 2384 2197 2460 2725 2867 2877 2914 2893 2710 2895 2370 2790 2642 2902 2895 2729 2446 2874 2552 2026 2631 2743 2894 1595 2206 2218 2812 2462 2733 2870 2882 2442 2738 2114 2458 2876 2369 2749 2722 2882 2892 2550 2913 2362 2901 2649 2638 2886 2647 2012 2641 2882 2900 2811 2900 2623 2874 2428 2903 2876 2914 2895 2891 2615 2538 1955 1600 1748 2014 2724 2893 2696 2645 2511 2882 2448 2900 2885 2893 2861 2037 2037 2893 2630 2882 2894 2905 2457 2784 2924 2890 2765 1847 2591 2639 2904 2739 2878 2450 2154 2906 2889 2880 2375 2607 2715 2917 2280 2716 2878 2115 2014 2894 2902 2744 2425 2358 2906 2911 2917 2892 2904 2877 2565 2111 2915 2367 2893 2900 2904 2661 2897 2644 2899 2722 2908 2164 2431 2804 2121 2614 2739 2455 2873 2709 2817 2893 2881 2750 2786 2806 2883 2906 2727 2920 2748 2885 2906 2911 2446 2451 2127 2889 2911 2628 2720 2306 2445 2528 2347 2643 2773 2034 2881 2894 2789 2731 2712 2634 2803 2905 2893 2627 2225 2894 2636 2731 2894 2733 2863 2557 2380 2801 2637 2387 2729 2631 2743 2558 2041 2899 2898 2673 2907 2714 2745 2886 2908 2903 2913 2919 2826 2892 1854 2878 2555 2475 2836 2919 2541 2275 2894 2906 2734 2517 2734 2904 2026 1926 2208 2008 2886 2900 1583 2913 2906 2897 2631 2888 2903 2811 2895 2910 2879 1737 2893 2570 2904 2920 2647 2889 1916 2100 2006 2454 2882 2118 2191 2623 2735 2455 2912 2198 2466 1838 1766 2040 2715 2931 2439 2463 2879 1818 2902 2198 2116 2458 1639 2175 2179 2191 2880 2561 2639 2633 2561 2719 2875 2903 2881 2724 2721 2104 2346 2694 2904 2908 2804 2905 2916 2730 2287 2207 2910 2299 2888 2896 2279 2893 2550 2893 2899 2883 2887 2909 2889 2905 2872 2874 2814 2897 2368 2890 2834 2270 2879 2612 2876 2732 2911 2825 2730 2370 2567 2898 2822 2912 2855 2891 2897 2391 2896 2354 2920 2489 2879 1946 2547 2561 2095 2899 2788 2729 2886 2536 2613 2686 2904 2800 2904 2863 2879 2894 2923 2635 2917 2878 2840 2365 2901 2871 2915 2793 2905 2304 2558 2836 2906 2300 2293 2331 2364 2909 1951 2645 2906 2873 2552 2698 2045 1569 2206 2727 2825 2741 2485 2635 2717 2610 2919 2899 2886 2897 2883 2628 2865 2880 2357 2905 2898 2828 2893 1931 1758 2643 2892 2867 2898 2886 2911 2891 2903 2919 2880 2902 2864 2907 2357 2908 2907 2884 2776 2719 2886 2894 2890 2796 2903 2300 2898 2919 2900 2207 2268 2637 2738 2886 2905 2740 2704 2853 2887 2868 2869 2904 2373 2441 2713 2618 2689 2386 2928 2879 2898 2914 2800 2896 2887 2900 2203 2625 2635 2815 2877 2906 2891 2905 2885 2924 2915 2887 2910 2886 2821 2917 2867 2563 2899 2913 2875 2543 2563 2899 2890 2305 2553 2866 2919 2430 2883 2541 2450 2887 2798 2916 2896 2659 2883 2284 2894 2898 2727 2657 2567 2641 2895 2620 2015 2284 2215 2441 2737 2870 2430 2768 2900 2703 2388 2912 2872 2900 2649 2897 2918 2755 2466 2920 2914 2564 2731 2617 2198 2913 2816 2898 2653 2911 2813 2736 2822 2889 2914 2900 2651 2697 2842 2641 2879 2870 2902 2908 2557 2611 2890 2905 2907 2905 2910 2549 2651 2573 2368 2563 2443 2898 2881 2883 2750 2707 2122 2915 2291 1684 2903 2911 2654 2478 2913 2630 2889 2896 2738 2631 2902 2909 2916 2824 2025 2896 2904 2832 2892 2513 2904 2475 2529 2812 2884 2892 2472 2368 2896 2911 2367 2542 2896 2863 2374 2630 2545 2894 2344 2707 2700 2217 2531 2892 2811 2017 2906 2371 2724 1929 2370 2795 2912 2735 2542 2551 2227 2377 2392 2356 2436 2905 2544 2195 2881 2634 2686 2620 2883 2180 2897 2820 2635 2796 2557 2742 2375 1395 2910 2897 2911 2735 2886 2882 2905 2890 2482 2922 2564 2903 2889 2876 2806 2896 2695 2740 2644 2606 2193 2195 2735 2924 2745 2910 2907 2437 2367 2350 2620 2718 2817 2190 2910 2559 2652 2378 2926 2891 2829 2919 2904 2903 2776 2713 2718 2628 2917 2460 2895 2821 2637 2906 2884 2907 2904 2925 2925 2821 2909 2899 2656 2820 2885 2291 2199 2903 2211 1480 1945 2817 1560 1743 2622 2883 2903 2542 2880 2906 2880 2908 2921 2658 2900 2894 2837 2878 2876 2905 2931 2886 2636 2544 2103 2877 2717 2783 2890 2620 2780 2817 2876 2644 2834 2647 2902 2888 2891 2474 2906 2898 2883 2885 2800 2718 2874 2364 2903 2785 2915 2808 2658 2874 2906 2455 2833 2908 2104 2714 2635 2453 2880 2363 2365 2914 2574 2571 2918 2630 2910 2912 2919 2884 2789 2813 2897 2919 2913 2884 2822 2700 2739 2647 2860 2866 2866 2687 2887 2816 2813 2913 2640 2651 2709 2877 2789 2690 2899 2915 2709 2815 2440 2889 2928 2890 2648 2898 2458 2789 2909 2915 2903 2898 2798 1933 2096 2902 1852 2882 2472 2346 2561 2623 2815 2917 2040 2889 2922 2729 2897 2738 2461 2903 2884 2868 2721 2898 2908 2887 2824 2895 2912 2692 2890 2903 2426 2372 2886 2478 2883 2887 2800 2882 2921 2634 2786 2889 2385 2743 2800 2903 2546 2909 2902 2558 2910 2872 2888 2911 2870 2723 2656 2017 1832 2391 2265 2105 2899 2892 2911 2880 2912 2577 2726 2905 2663 2650 2649 2798 2473 2914 2820 2901 2889 2182 2896 2893 2639 2816 2195 2891 2718 2624 2880 2378 2342 2894 2630 2906 2903 2880 2899 2892 2459 2553 2527 2542 2902 2912 2919 2902 2462 2819 2531 2457 2767 2643 2811 2811 2880 2289 2910 2894 2916 2698 2918 2724 2821 2820 2652 2914 2726 2443 2903 2466 2914 2661 2305 2727 2905 2907 2909 2906 2886 2877 2884 2896 2865 2613 2879 2869 2709 2649 2823 2738 2658 2900 2462 2644 2884 2734 2383 2817 2697 2895 2451 2896 2662 2913 1919 2428 2712 2805 2892 2892 2096 2882 2702 2449 2533 2796 2531 2809 2908 2383 2895 2830 2897 2905 2531 2883 2826 2820 2538 2479 2388 2403 2905 2095 2564 2823 1667 2899 2905 2830 2896 2638 2729

Tree=0
num_leaves=18
num_cat=2
split_feature=2 27 20 27 11 12 16 27 2 27 11 12 9 16 12 11 11
split_gain=17.9742 9.87067 2.22214 1.59192 1.48798 0.977177 0.566957 0.502169 0.197738 0.223829 0.360969 0.0591035 0.110195 0.207452 0.0529088 0.0260749 0.0176255
threshold=0 53.500000000000007 7750.0430424242431 47.500000000000007 32.000000000000007 9.5000000000000018 1531.0500000000002 27.500000000000004 1 27.500000000000004 27.500000000000004 8.5000000000000018 3.8500000000000005 1531.0500000000002 6.5000000000000009 2.5000000000000004 28.500000000000004
decision_type=9 2 2 2 2 2 2 2 9 2 2 2 2 2 2 2 2
left_child=1 3 4 -1 -2 8 -7 -6 9 10 -4 15 13 -13 -9 -10 -11
right_child=2 -3 5 -5 7 6 -8 14 11 16 -12 12 -14 -15 -16 -17 -18
leaf_value=6.7018986151025732 6.7079601477298532 6.7684586927901949 6.7941352435976539 6.7218066884240724 6.7631420203165842 6.7960284007681162 6.7122469022678528 6.7717649246281306 6.8191757588498794 6.7735335106100898 6.7494871444941325 6.8234807476358101 6.8368994268909384 6.7478051058881405 6.7816737869288861 6.8134217854641141 6.8230916727897544
leaf_weight=56 28 41 20 22 21 23 26 26 27 21 34 21 52 20 20 451 34
leaf_count=56 28 41 20 22 21 23 26 26 27 21 34 21 52 20 20 451 34
internal_value=6.76628 6.75066 6.76872 6.74011 6.76229 6.76961 6.76351 6.76606 6.77005 6.76772 6.76578 6.77039 6.76926 6.76742 6.76871 6.77068 6.76983
internal_weight=943 119 824 78 95 729 49 67 680 109 54 571 93 41 46 478 55
internal_count=943 119 824 78 95 729 49 67 680 109 54 571 93 41 46 478 55
cat_boundaries=0 1 3
cat_threshold=2048 129 1088
is_linear=0
shrinkage=1


Tree=1
num_leaves=19
num_cat=2
split_feature=2 27 27 20 11 12 27 16 2 27 11 12 12 9 16 27 27 11
split_gain=15.3256 8.30475 2.64683 2.22214 1.48798 0.709887 0.502169 0.391496 0.182991 0.223829 0.360969 0.0529088 0.0497942 0.110195 0.207452 0.0485228 0.0738078 0.0176255
threshold=0 53.500000000000007 47.500000000000007 7750.0430424242431 32.000000000000007 9.5000000000000018 27.500000000000004 1531.0500000000002 1 27.500000000000004 27.500000000000004 6.5000000000000009 8.5000000000000018 3.8500000000000005 1531.0500000000002 15.500000000000002 13.500000000000002 28.500000000000004
decision_type=9 2 2 2 2 2 2 2 9 2 2 2 2 2 2 2 2 2
left_child=1 2 -1 4 -2 8 -6 -7 9 10 -5 -8 15 14 -14 16 -10 -11
right_child=3 -3 -4 5 6 7 11 -9 12 17 -12 -13 13 -15 -16 -17 -18 -19
leaf_value=-0.061442273564081606 -0.055655760783439347 0.0020978843304088673 -0.042437456169488595 0.026609455668242361 -0.0029775635984830165 0.028416717764521652 0.0052541080055699182 -0.051563502035218027 0.07913589972432207 0.0069424508748654867 -0.016012899432377443 0.014713391964035974 0.054623514919026346 0.067433370739926904 -0.017618621695968419 0.047516136309182971 0.0053445897027156906 0.054252092919383425
leaf_weight=56 28 41 22 20 21 23 26 26 33 21 34 20 21 52 20 419 26 34
leaf_count=56 28 41 22 20 21 23 26 26 33 21 34 20 21 52 20 419 26 34
internal_value=0.00020637 -0.0142191 -0.0238906 0.00246347 -0.00396957 0.00334473 -0.000196163 -0.00186213 0.00372466 0.00146028 -0.000484037 0.00244941 0.00405356 0.00300387 0.00115574 0.00432781 0.00289331 0.00357226
internal_weight=943 119 78 824 95 729 67 49 680 109 54 46 571 93 41 478 59 55
internal_count=943 119 78 824 95 729 67 49 680 109 54 46 571 93 41 478 59 55
cat_boundaries=0 1 3
cat_threshold=2048 129 1088
is_linear=0
shrinkage=0.0453713


Tree=2
num_leaves=17
num_cat=2
split_feature=2 27 27 20 11 2 12 12 27 21 12 22 8 20 18 27
split_gain=13.4771 7.219 3.53716 1.91138 1.26629 0.728656 0.917177 0.708979 0.233848 0.200145 0.179908 0.0527321 0.0997157 0.0436855 0.110014 0.0208848
threshold=0 53.500000000000007 47.500000000000007 7750.0430424242431 34.500000000000007 1 8.5000000000000018 7.5000000000000009 35.500000000000007 2812.2275000000004 9.5000000000000018 17.500000000000004 8.6500000000000004 59362.380494791672 2125.0000000000005 28.500000000000004
decision_type=9 2 2 2 2 9 2 2 2 2 2 2 2 2 2 2
left_child=1 2 8 4 7 6 9 -2 -1 15 11 12 -7 -13 -15 -5
right_child=3 -3 -4 5 -6 10 -8 -9 -10 -11 -12 13 -14 14 -16 -17
leaf_value=-0.011864151592867087 -0.0027504333649763526 0.0020027005110203914 -0.040512011994711043 0.055420947395684407 0.0092645694510923374 0.072625427774809959 -0.019953029832177671 -0.055111521837111183 -0.066246566516534364 -0.00026620000965169559 0.012352227697293527 0.046440311425611717 0.054609262048018373 0.0093803146764987761 0.040815746980078595 0.030391408135681922
leaf_weight=33 35 41 22 20 36 26 25 24 23 34 37 473 20 21 37 36
leaf_count=33 35 41 22 20 36 26 25 24 23 34 37 473 20 21 37 36
internal_value=0.000350384 -0.0131812 -0.0221922 0.00246347 -0.0035025 0.00328267 -0.000178048 -0.00749418 -0.0151383 0.00196912 0.00386939 0.00412856 0.00244941 0.00426352 0.00286597 0.00358885
internal_weight=943 119 78 824 95 729 115 59 56 90 614 577 46 531 58 56
internal_count=943 119 78 824 95 729 115 59 56 90 614 577 46 531 58 56
cat_boundaries=0 1 3
cat_threshold=2048 128 66560
is_linear=0
shrinkage=0.0453713


Tree=3
num_leaves=18
num_cat=1
split_feature=2 27 27 20 16 12 12 16 27 27 27 27 16 12 27 9 16
split_gain=13.384 7.219 3.53716 1.87674 1.26629 0.708979 0.676784 0.391496 0.233848 0.192498 0.39204 0.125874 0.400073 0.146565 0.0408595 0.0269786 0.0180354
threshold=0 53.500000000000007 47.500000000000007 7750.0430424242431 7107.0000000000009 7.5000000000000009 9.5000000000000018 1531.0500000000002 35.500000000000007 27.500000000000004 26.500000000000004 15.500000000000002 25991.000000000004 8.5000000000000018 75.500000000000014 3.4000000000000008 6901.0000000000009
decision_type=9 2 2 2 2 2 2 2 2 2 2 2 2 2 2 2 2
left_child=1 2 8 4 5 -2 9 -8 -1 10 11 12 16 -13 -11 -15 -5
right_child=3 -3 -4 6 -6 -7 7 -9 -10 14 -12 13 -14 15 -16 -17 -18
leaf_value=-0.011325859158892494 -0.0026256425226705033 0.0019118353088893206 -0.038673927798707403 0.062009372168799724 0.0088442235375629265 -0.052611038342987762 0.028032708917210412 -0.049051567719951422 -0.063240871144765509 0.047333038611970253 -0.007118440617230745 0.033497759734003138 -0.0040438424211919595 0.0081271910644264943 0.022678114222494678 0.03858012815356162 0.093485963915354242
leaf_weight=33 35 41 22 21 36 24 23 26 23 317 25 198 22 20 20 22 35
leaf_count=33 35 41 22 21 36 24 23 26 23 317 25 198 22 20 20 22 35
internal_value=0.000302379 -0.0131812 -0.0221922 0.00240921 -0.0035025 -0.00749418 0.00322062 -0.00186213 -0.0151383 0.00359164 0.0027999 0.00323113 0.0015846 0.00374731 0.00437456 0.00123235 0.00358885
internal_weight=943 119 78 824 95 59 729 49 56 680 343 318 78 240 337 42 56
internal_count=943 119 78 824 95 59 729 49 56 680 343 318 78 240 337 42 56
cat_boundaries=0 1
cat_threshold=2048
is_linear=0
shrinkage=0.0453713


Tree=4
num_leaves=19
num_cat=2
split_feature=2 27 27 12 26 0 21 16 21 27 17 27 16 21 16 22 6 25
split_gain=11.4017 6.20927 4.51249 1.50726 2.89286 2.39092 0.502504 0.41967 0.332344 0.562983 0.254363 0.171138 0.504506 0.103715 0.0712177 0.0255648 0.00945049 0.0144032
threshold=0 53.500000000000007 47.500000000000007 8.5000000000000018 7822.1725000000015 1 2174.2875000000008 7107.0000000000009 2812.2275000000004 35.500000000000007 156.60000000000005 15.500000000000002 25991.000000000004 8613.1300000000028 6622.5000000000009 43.500000000000007 1646.0000000000002 24889.08602213542
decision_type=9 2 2 2 2 1 2 2 2 2 2 2 2 2 2 2 2 2
left_child=1 2 14 6 5 -5 7 -2 9 -6 13 12 -12 -8 -1 -10 17 -13
right_child=3 -3 -4 4 8 -7 10 -9 15 -11 11 16 -14 -15 -16 -17 -18 -19
leaf_value=-0.011182824673343318 -0.002598547796439591 0.0018250927825716908 -0.036919239942338505 -0.070360196677860809 -0.012078671947912066 -0.0095759646023221411 -0.0065673500794997909 0.0084429491945490903 0.038687578574809499 0.098063886443598064 0.062348404288669147 0.053637347830581737 -0.0056524894273513263 0.065321821201424657 -0.0604532533668906 0.053028902566715025 0.038103800478834007 0.018704873279538264
leaf_weight=33 21 41 22 24 20 26 20 26 21 20 42 157 20 22 23 62 234 109
leaf_count=33 21 41 22 24 20 26 20 26 21 20 42 157 20 22 23 62 234 109
internal_value=0.000302379 -0.0121433 -0.0204938 0.00224642 -0.00147634 -0.0104411 0.00327179 -0.00119929 0.00228375 -0.0010755 0.00362279 0.00387642 0.00155545 0.000204477 -0.0127972 0.00388957 0.00415627 0.0038239
internal_weight=943 119 78 824 173 50 651 47 123 40 604 562 62 42 56 83 500 266
internal_count=943 119 78 824 173 50 651 47 123 40 604 562 62 42 56 83 500 266
cat_boundaries=0 1 2
cat_threshold=2048 1
is_linear=0
shrinkage=0.0453713


Tree=5
num_leaves=21
num_cat=3
split_feature=21 1 27 27 4 16 12 20 27 27 27 12 9 6 17 27 27 27 26 4
split_gain=6.54852 2.68546 2.30205 9.67634 1.50516 0.699145 0.564829 0.443894 0.357302 1.04336 0.340312 0.281507 0.126613 0.41564 0.0534753 0.0524177 0.0801238 0.0460254 0.0997157 0.0230956
threshold=3383.0700000000006 0 50.500000000000007 47.500000000000007 1 1531.0500000000002 5.5000000000000009 7750.0430424242431 31.500000000000004 30.500000000000004 27.500000000000004 9.5000000000000018 3.8500000000000005 351.50000000000006 557.55000000000007 15.500000000000002 13.500000000000002 20.500000000000004 7822.1725000000015 2
decision_type=2 9 2 2 1 2 2 2 2 2 2 2 2 2 2 2 2 2 2 1
left_child=1 2 3 4 -1 -6 -7 -2 9 -3 -8 12 13 17 -4 16 -14 18 -9 -10
right_child=7 8 14 -5 5 6 10 11 19 -11 -12 -13 15 -15 -16 -17 -18 -19 -20 -21
leaf_value=-0.041061777735314282 -0.022691973101116335 0.01789377089397353 -0.0013796270643395927 -0.045210160576730878 0.01811863140697282 0.035402880926526797 -0.037778470124474418 0.039138912173193027 0.0099767847925158436 -0.0046370048770366795 -0.058896138760520994 -0.00280676077354735 0.087850547118601297 -0.0030095281641477718 0.0046512021910549654 0.056359627887099799 0.0014508807158058409 0.051012004118240022 0.032973590710478208 0.020077055508974966
leaf_weight=34 37 30 24 28 40 24 24 26 20 24 31 23 30 37 33 307 24 93 20 42
leaf_count=34 37 30 24 28 40 24 24 26 20 24 31 23 30 37 33 307 24 93 20 42
internal_value=0.000337923 -0.0045352 -0.00711002 -0.00988455 -0.00517609 -0.00265878 -0.00508781 0.00323348 0.00127429 -0.0012922 -0.00754237 0.00355123 0.00376163 0.00269948 0.000536201 0.00426037 0.0027469 0.00382504 0.00244941 0.00367756
internal_weight=951 354 238 181 153 119 79 597 116 54 55 560 537 176 57 361 54 139 46 62
internal_count=951 354 238 181 153 119 79 597 116 54 55 560 537 176 57 361 54 139 46 62
cat_boundaries=0 1 2 3
cat_threshold=1025 2 2
is_linear=0
shrinkage=0.0453713


Tree=6
num_leaves=20
num_cat=1
split_feature=2 27 27 20 11 12 12 16 16 27 21 12 9 16 27 11 11 16 18
split_gain=11.9573 5.16675 4.82416 1.23576 0.932522 0.687475 0.596496 0.40876 0.277314 0.211246 0.573513 0.205437 0.400897 0.26291 0.0337556 0.0995244 0.0271129 0.0277668 0.0180354
threshold=0 53.500000000000007 47.500000000000007 7750.0430424242431 34.500000000000007 7.5000000000000009 9.5000000000000018 1531.0500000000002 1582.95 15.500000000000002 9789.1425000000017 8.5000000000000018 3.8500000000000005 1531.0500000000002 50.500000000000007 10.500000000000002 39.500000000000007 59097.500000000007 2375.0000000000005
decision_type=9 2 2 2 2 2 2 2 2 2 2 2 2 2 2 2 2 2 2
left_child=1 2 8 4 5 -2 9 -8 -1 10 -5 14 13 -13 16 -16 17 -11 -12
right_child=3 -3 -4 6 -6 -7 7 -9 -10 11 18 12 -14 -15 15 -17 -18 -19 -20
leaf_value=-0.0097873675194807691 -0.00050257766744000901 0.0013285277460741369 -0.033192919138003651 -0.0070763196728610414 0.0091111288652080524 -0.045168641050813474 0.028676003563284026 -0.042544400259970284 -0.057112556925540653 0.037664924488537671 0.04979955114553751 0.046418009198426979 0.053569391035217871 -0.01775770279848499 0.0031655773862924804 0.041237864916532349 0.019783863047871632 0.020480525831978704 0.083890972933136312
leaf_weight=25 36 40 22 24 37 24 24 26 33 415 21 21 50 24 21 30 21 22 35
leaf_count=25 36 40 22 24 37 24 24 26 33 415 21 21 50 24 21 30 21 22 35
internal_value=0.000337923 -0.0123604 -0.0198843 0.00231925 -0.00242503 -0.0058403 0.00298302 -0.0017394 -0.0122207 0.00333265 0.00110413 0.00362279 0.00163423 -0.00144266 0.00398545 0.00264584 0.0041215 0.00420495 0.00358885
internal_weight=951 120 80 831 97 60 734 50 58 684 80 604 95 45 509 51 458 437 56
internal_count=951 120 80 831 97 60 734 50 58 684 80 604 95 45 509 51 458 437 56
cat_boundaries=0 1
cat_threshold=2048
is_linear=0
shrinkage=0.0453713


Tree=7
num_leaves=19
num_cat=4
split_feature=2 27 27 2 12 11 20 11 12 2 25 18 20 4 12 16 27 20
split_gain=10.5335 4.60859 5.51761 1.1985 2.06031 0.812429 0.788205 0.422202 0.26201 0.297648 0.500374 0.322192 0.302417 0.232326 0.44998 0.0213474 0.0759957 0.018088
threshold=0 53.500000000000007 47.500000000000007 1 9.5000000000000018 29.500000000000004 12485.669896039604 34.500000000000007 6.5000000000000009 2 22867.397559523815 2570.0000000000005 17276.850188235298 3 7.5000000000000009 26398.500000000004 25.500000000000004 9395.8626332288422
decision_type=9 2 2 9 2 2 2 2 2 9 2 2 2 1 2 2 2 2
left_child=1 2 5 15 6 -1 7 13 -8 10 -10 -12 -11 14 -5 17 -17 -2
right_child=3 -3 -4 4 -6 -7 8 -9 9 12 11 -13 -14 -15 -16 16 -18 -19
leaf_value=-0.054188053693491903 0.012604160149368463 0.0012682506644438663 -0.031686911979071211 -0.00050278359242084678 -0.063706406131500401 -0.0019924388029819514 0.050444697041793551 0.0055002899660512817 0.024325808849241758 -0.00074698416558931073 -0.0096417346779224117 0.0096222873449189582 0.060237385126624209 0.00023804729985469253 -0.039017486424121187 0.026029663989237558 0.045083023691771508 0.052331837409537708
leaf_weight=36 31 40 22 35 23 22 93 29 34 23 43 38 93 36 20 28 44 261
leaf_count=36 31 40 22 35 23 22 93 29 34 23 43 38 93 36 20 28 44 261
internal_value=0.000242719 -0.0116737 -0.0187796 0.002104 0.00053965 -0.0107119 0.00126094 -0.00185694 0.00242046 0.00157612 -0.000178048 -0.00212771 0.00304465 -0.00336064 -0.0051603 0.00402869 0.00318154 0.00434969
internal_weight=951 120 80 831 467 58 444 120 324 231 115 81 116 91 55 364 72 292
internal_count=951 120 80 831 467 58 444 120 324 231 115 81 116 91 55 364 72 292
cat_boundaries=0 1 3 5 6
cat_threshold=2048 10486816 393348 128 1288 2
is_linear=0
shrinkage=0.0453713


Tree=8
num_leaves=23
num_cat=3
split_feature=21 1 27 27 4 5 27 21 27 6 20 12 20 9 27 27 25 17 16 16 16 27
split_gain=4.72879 2.85413 1.98595 10.3079 1.62503 1.19111 0.482433 0.388086 0.553196 0.779841 0.381572 0.109399 0.190359 0.0911044 0.110785 0.090787 0.0556479 0.0534753 0.035893 0.0244619 0.0125014 0.00616787
threshold=3383.0700000000006 0 50.500000000000007 47.500000000000007 1 2 27.500000000000004 18124.630000000001 17.500000000000004 351.50000000000006 7750.0430424242431 8.5000000000000018 17276.850188235298 3.8500000000000005 32.500000000000007 40.500000000000007 24889.08602213542 557.55000000000007 56948.500000000007 13238.500000000002 41426.000000000007 30.500000000000004
decision_type=2 9 2 2 1 1 2 2 2 2 2 2 2 2 2 2 2 2 2 2 2 2
left_child=1 2 3 4 6 -6 -1 8 9 -2 -10 16 -13 14 -3 -16 18 -4 -12 -18 -9 -7
right_child=7 13 17 -5 5 21 -8 20 10 -11 11 12 -14 -15 15 -17 19 -19 -20 -21 -22 -23
leaf_value=-0.006544837798324773 0.019024007585557279 -0.00056261920617728205 -0.0019773712259351624 -0.039616393867454663 -0.042644517339446478 -0.034620262015052951 0.011389401720197633 0.081521593070136206 -0.019982930962958129 -0.0053061293032878277 0.056047383455223747 -0.0074976371521448112 0.011896761666068243 0.026094969524379619 0.036811634101221492 0.0044480664755384139 0.013260949596192322 0.0043223516121592203 0.046466702436813813 0.016111909349773787 0.019151702923902138 -0.038626191508506852
leaf_weight=28 35 35 24 28 37 25 38 175 36 37 133 20 39 30 29 22 29 33 20 39 34 25
leaf_count=28 35 35 24 28 37 25 38 175 36 37 133 20 39 30 29 22 29 33 20 39 34 25
internal_value=0.000242719 -0.00389821 -0.00656587 -0.00914134 -0.00429873 -0.00829589 0.00106464 0.00270338 0.00183733 -0.00171283 0.00265247 0.00321604 0.00140915 0.00198243 0.00133782 0.00264584 0.00368006 0.000536201 0.00418175 0.00245737 0.00427601 -0.00347973
internal_weight=951 354 238 181 153 87 66 597 388 72 316 280 59 116 86 51 221 57 153 68 209 50
internal_count=951 354 238 181 153 87 66 597 388 72 316 280 59 116 86 51 221 57 153 68 209 50
cat_boundaries=0 1 2 3
cat_threshold=1025 1 2
is_linear=0
shrinkage=0.0453713


Tree=9
num_leaves=22
num_cat=2
split_feature=2 27 27 2 12 9 6 17 17 27 27 16 12 26 20 25 16 20 20 17 17
split_gain=9.58702 4.08234 6.24669 1.0681 1.85549 1.01087 0.514465 0.376798 0.281066 0.230953 0.399339 0.315721 0.157707 0.347036 0.0863666 0.0304573 0.0235383 0.0247797 0.0233086 0.0180277 0.0390275
threshold=0 53.500000000000007 47.500000000000007 1 8.5000000000000018 3.4000000000000008 129.92000000000004 1975.0000000000002 303.30000000000007 17.500000000000004 13.500000000000002 8870.0000000000018 8.5000000000000018 7822.1725000000015 7750.0430424242431 24889.08602213542 59097.500000000007 59362.380494791672 6946.8300820512841 557.55000000000007 530.85000000000002
decision_type=9 2 2 9 2 2 2 2 2 2 2 2 2 2 2 2 2 2 2 2 2
left_child=1 2 5 4 7 -1 -6 8 -2 10 -5 -12 14 -14 -11 18 17 -16 -10 20 -15
right_child=3 -3 -4 9 6 -7 -8 -9 15 12 11 -13 13 19 16 -17 -18 -19 -20 -21 -22
leaf_value=-0.0015623240498095832 -0.0021486271410818764 0.0010140271731732032 -0.028451785577143174 0.064331377376427815 -0.0038807975656170624 -0.050584832920605734 -0.060130126802231912 -0.0033768298154150207 0.016992239213333832 0.0016296142118347593 0.030164076849131704 -0.0018582896988483413 -0.02064029749151761 0.046941769464998624 0.047042230780473065 0.0071220012851689277 0.065200908791927373 0.043874459368327706 0.037909635223553027 0.05229493751184746 0.042164202238726189
leaf_weight=26 30 40 22 42 22 32 21 38 22 33 23 29 25 20 305 40 25 27 63 36 30
leaf_count=26 30 40 22 42 22 32 21 38 22 33 23 29 25 20 305 40 25 27 63 36 30
internal_value=0.000385525 -0.010987 -0.0176749 0.00215781 -0.000438632 -0.00920306 -0.00874331 0.00146454 0.0024539 0.00317592 0.00113212 -0.00150754 0.00361597 0.00204475 0.00404943 0.00338977 0.00425728 0.00437213 0.00390443 0.00339685 0.00260957
internal_weight=951 120 80 831 236 58 43 193 155 595 94 52 501 111 390 125 357 332 85 86 50
internal_count=951 120 80 831 236 58 43 193 155 595 94 52 501 111 390 125 357 332 85 86 50
cat_boundaries=0 1 3
cat_threshold=2048 128 4260872
is_linear=0
shrinkage=0.0453713


Tree=10
num_leaves=21
num_cat=2
split_feature=2 27 27 20 12 9 2 12 27 7 27 27 21 25 14 27 27 11 18 17
split_gain=9.82252 4.22868 5.56997 1.07793 1.83247 0.922461 0.730293 0.566377 0.389797 0.371938 0.247891 0.211899 0.411139 0.112393 0.0683145 0.128922 0.152657 0.0337234 0.0191506 0.0118357
threshold=0 53.500000000000007 47.500000000000007 7750.0430424242431 7.5000000000000009 3.4000000000000008 1 8.5000000000000018 16.500000000000004 51.625000000000007 46.500000000000007 17.500000000000004 9789.1425000000017 24889.08602213542 1.0000000180025095e-35 27.500000000000004 19.500000000000004 34.500000000000007 2375.0000000000005 2054.6000000000008
decision_type=9 2 2 2 2 2 9 2 2 2 2 2 2 2 2 2 2 2 2 2
left_child=1 2 5 4 17 -1 7 8 -5 -9 13 12 -8 19 15 16 -13 -2 -14 -10
right_child=3 -3 -4 6 -6 -7 11 9 10 -11 -12 14 18 -15 -16 -17 -18 -19 -20 -21
leaf_value=-0.0014128922289693689 0.0014269465042005879 0.00096801940338946807 -0.027509038396309547 -0.0045673433913621577 -0.035809631817363352 -0.048160479222228242 -0.0014439487543900925 0.0053785210415924116 0.025403322934071576 -0.058125858693558907 -0.0015488759523829656 0.042904293757160726 0.04449288953707866 0.0059736485757882919 0.052737865876033803 0.054660122900890354 -0.00024510756493351088 0.0097838408291374725 0.085053896189720812 0.013117296486793403
leaf_weight=27 37 40 21 29 30 33 21 28 70 20 20 24 20 40 291 72 37 31 32 29
leaf_count=27 37 40 21 29 30 33 21 28 70 20 20 24 20 40 291 72 37 31 32 29
internal_value=0.00024722 -0.0112112 -0.0179534 0.00205019 -0.0023555 -0.0102211 0.00267232 0.000475202 0.00162236 -0.0037995 0.00250561 0.00362682 0.00138813 0.00318212 0.00408834 0.00312196 0.00150823 0.00181051 0.00351879 0.00399201
internal_weight=952 121 81 831 98 60 733 236 188 48 159 497 73 139 424 133 61 68 52 99
internal_count=952 121 81 831 98 60 733 236 188 48 159 497 73 139 424 133 61 68 52 99
cat_boundaries=0 1 3
cat_threshold=2048 1152 66824
is_linear=0
shrinkage=0.0453713


Tree=11
num_leaves=24
num_cat=3
split_feature=3 1 27 27 11 16 20 27 27 7 11 27 4 27 17 12 20 16 25 11 9 11 16
split_gain=4.17829 2.32498 1.85235 9.92397 1.17699 0.65839 0.515643 0.51666 0.594409 0.749745 0.358899 0.380905 0.144031 0.288745 0.129883 0.068102 0.227183 0.0983468 0.0377175 0.0208865 0.0163095 0.0123511 0.0108452
threshold=0 1 47.500000000000007 50.500000000000007 18.500000000000004 56948.500000000007 7750.0430424242431 17.500000000000004 13.500000000000002 43.250000000000007 28.500000000000004 27.500000000000004 2 34.500000000000007 557.55000000000007 8.5000000000000018 17276.850188235298 59097.500000000007 24889.08602213542 7.5000000000000009 3.8500000000000005 29.500000000000004 13238.500000000002
decision_type=1 9 2 2 2 2 2 2 2 2 2 2 1 2 2 2 2 2 2 2 2 2 2
left_child=1 2 4 -4 -1 10 -2 8 -8 -10 -6 -12 13 -3 -5 17 -17 18 -9 -18 -14 22 -20
right_child=6 12 3 14 5 -7 7 15 9 -11 11 -13 20 -15 -16 16 19 -19 21 -21 -22 -23 -24
leaf_value=-0.042818928486112962 -0.020791565535231371 -0.0011131461537029895 -0.035937970455005609 -0.0023894511754635507 0.024983227965891096 -0.041782401146247455 0.057117348249756311 0.051216821132804582 0.013795969484772585 -0.006330792673994467 -0.0087027893003745228 0.0077204020615917208 0.0093399347930778406 0.013831112524886398 0.0036898582261502043 -0.0071830870433807351 0.0098056376636613454 0.030584893622882654 0.010651579117629274 0.032385992438200936 0.02437831753100159 0.011742053387194426 0.079103184067705112
leaf_weight=35 39 30 27 24 32 20 39 230 28 34 33 35 21 35 31 22 21 28 26 43 31 46 42
leaf_count=35 39 30 27 24 32 20 39 230 28 34 33 35 21 35 31 22 21 28 26 43 31 46 42
internal_value=0.000294772 -0.00354391 -0.0060641 -0.0117546 -0.00332009 -0.001114 0.00258772 0.00298348 4.352e-05 -0.00268724 0.000443729 -0.0014224 0.00165088 0.000337159 -0.000396164 0.00362849 0.00236734 0.0039047 0.0041157 0.00370355 0.00351879 0.0032811 0.00375109
internal_weight=952 354 237 82 155 120 598 559 101 62 100 68 117 65 55 458 86 372 344 64 52 114 68
internal_count=952 354 237 82 155 120 598 559 101 62 100 68 117 65 55 458 86 372 344 64 52 114 68
cat_boundaries=0 1 2 3
cat_threshold=2 1025 1
is_linear=0
shrinkage=0.0453713


Tree=12
num_leaves=21
num_cat=2
split_feature=2 27 27 20 12 2 18 12 27 6 27 27 21 25 14 27 27 16 18 16
split_gain=9.32388 3.97552 5.91489 1.07793 1.83247 0.730293 0.637471 0.566377 0.389797 0.371938 0.247891 0.211899 0.411139 0.112393 0.0683145 0.128922 0.152657 0.0337234 0.0191506 0.0118357
threshold=0 53.500000000000007 47.500000000000007 7750.0430424242431 7.5000000000000009 1 950.00000000000011 8.5000000000000018 16.500000000000004 351.50000000000006 46.500000000000007 17.500000000000004 9789.1425000000017 24889.08602213542 1.0000000180025095e-35 27.500000000000004 19.500000000000004 7107.0000000000009 2375.0000000000005 41426.000000000007
decision_type=9 2 2 2 2 9 2 2 2 2 2 2 2 2 2 2 2 2 2 2
left_child=1 2 6 4 17 7 -1 8 -5 -9 13 12 -7 19 15 16 -13 -2 -14 -10
right_child=3 -3 -4 5 -6 11 -8 9 10 -11 -12 14 18 -15 -16 -17 -18 -19 -20 -21
leaf_value=-0.0048581399406763615 0.0017570612281496388 0.00071067306124111395 -0.024630362702085032 -0.0044817256021425465 -0.033141618701521686 -0.001091198331888412 -0.052482285246455367 0.0050077479926012892 0.024867990054877831 -0.053992388581547798 -0.0013701887804564777 0.041283574807646432 0.04139437094526173 0.0052626244044004129 0.048930919259227497 0.050278294631874637 -0.0012732798869248992 0.0089161695383681103 0.080118841095060095 0.011042271137244323
leaf_weight=33 37 40 21 29 30 21 27 28 70 20 20 24 20 40 291 72 37 31 32 29
leaf_count=33 37 40 21 29 30 21 27 28 70 20 20 24 20 40 291 72 37 31 32 29
internal_value=0.000294772 -0.0108704 -0.0174077 0.00205019 -0.0023555 0.00267232 -0.00949097 0.000475202 0.00162236 -0.0037995 0.00250561 0.00362682 0.00138813 0.00318212 0.00408834 0.00312196 0.00150823 0.00181051 0.00351879 0.00399201
internal_weight=952 121 81 831 98 733 60 236 188 48 159 497 73 139 424 133 61 68 52 99
internal_count=952 121 81 831 98 733 60 236 188 48 159 497 73 139 424 133 61 68 52 99
cat_boundaries=0 1 3
cat_threshold=2048 1152 66824
is_linear=0
shrinkage=0.0453713


Tree=13
num_leaves=20
num_cat=2
split_feature=2 27 27 20 11 12 2 11 25 9 27 27 12 11 12 16 27 16 11
split_gain=9.4792 3.97552 5.91489 0.922482 1.71771 1.60954 0.490317 0.487137 0.413298 0.566577 0.251179 0.30253 0.184975 0.178657 0.114113 0.1195 0.0878645 0.0286807 0.0176813
threshold=0 53.500000000000007 47.500000000000007 11535.714557471265 18.500000000000004 8.5000000000000018 1 27.500000000000004 22867.397559523815 3.8500000000000005 17.500000000000004 13.500000000000002 8.5000000000000018 6.5000000000000009 6.5000000000000009 25991.000000000004 23.500000000000004 59097.500000000007 26.500000000000004
decision_type=9 2 2 2 2 2 9 2 2 2 2 2 2 2 2 2 2 2 2
left_child=1 2 7 4 5 -2 8 -1 -5 12 11 -8 -10 -11 15 -6 -16 -12 -15
right_child=3 -3 -4 6 14 -7 10 -9 9 13 17 -13 -14 18 16 -17 -18 -19 -20
leaf_value=-0.053637339411062614 0.00051108120285381115 0.00067842887345395881 -0.023512850186773484 0.023414762238843048 0.0046013562916736861 -0.045671327045211513 0.074570075264925068 -0.0064225640431466472 -0.0027817698918930185 0.0020152319074843951 0.047565410166139993 -0.00049268637875819255 -0.0074889043623557524 0.032053213185221072 0.003054811009127632 -0.012760384859812644 0.015252442574226987 0.063156483281114464 0.02518157347150914
leaf_weight=25 35 40 21 46 39 23 34 35 29 23 371 37 22 29 27 20 53 23 20
leaf_count=25 35 40 21 46 39 23 34 35 29 23 371 37 22 29 27 20 53 23 20
internal_value=0.000389876 -0.0108704 -0.0174077 0.00215781 -0.000523777 -0.00693982 0.00302401 -0.00949097 0.000726111 -0.000615967 0.00375595 0.00130202 -0.00418266 0.00195762 0.00221774 0.000667076 0.00331356 0.00428342 0.00345906
internal_weight=952 121 81 831 197 58 634 60 169 123 465 71 51 72 139 59 80 394 49
internal_count=952 121 81 831 197 58 634 60 169 123 465 71 51 72 139 59 80 394 49
cat_boundaries=0 1 3
cat_threshold=2048 128 1288
is_linear=0
shrinkage=0.0453713


Tree=14
num_leaves=22
num_cat=2
split_feature=2 27 27 9 2 13 16 27 11 21 6 16 27 11 25 21 20 14 27 11 20
split_gain=8.83818 3.73017 6.26793 0.998364 0.895 1.57195 0.522112 0.451445 0.176059 0.141059 0.213447 0.539868 0.186102 0.128297 0.104018 0.101383 0.0733975 0.0369472 0.0703298 0.0361641 0.00776159
threshold=0 53.500000000000007 47.500000000000007 3.4000000000000008 1 3.5000000000000004 931.00000000000011 15.500000000000002 8.5000000000000018 9789.1425000000017 351.50000000000006 26398.500000000004 31.500000000000004 3.5000000000000004 24889.08602213542 2174.2875000000008 9395.8626332288422 1.0000000180025095e-35 25.500000000000004 29.500000000000004 12485.669896039604
decision_type=9 2 2 2 9 2 2 2 2 2 2 2 2 2 2 2 2 2 2 2 2
left_child=1 2 3 -1 5 6 -2 -8 13 10 15 12 -12 -9 16 -6 -10 18 -11 -16 -17
right_child=4 -3 -4 -5 9 -7 7 8 14 17 11 -13 -14 -15 19 20 -18 -19 -20 -21 -22
leaf_value=-0.0007864618520860376 -0.017780681655315055 0.00064764764761479719 -0.022446040709699064 -0.041061791234300454 0.0012066864249406417 -0.048252311856164687 -0.00082160392475738966 0.015682701072687624 0.01428803369187736 0.017617541614152316 -0.026440948182594494 0.033934284181472645 0.0029888339767619671 -0.0021168943060855855 0.021988264716740813 0.0099876162510801857 0.025261886802664637 0.065148264405121545 0.05404951821050967 0.00043835433187376931 0.058027343891537471
leaf_weight=27 29 40 21 33 25 22 35 22 30 27 21 40 21 26 27 34 115 190 34 46 87
leaf_count=27 29 40 21 33 25 22 35 22 30 27 21 40 21 26 27 34 115 190 34 46 87
internal_value=0.000342324 -0.0105296 -0.016862 -0.00876084 0.00205019 0.000273983 0.00109268 0.00166119 0.00230103 0.00331632 0.00252326 0.0006465 -0.00287694 -0.000180008 0.00284398 0.00355242 0.00354573 0.0041401 0.00294537 0.00138813 0.0040894
internal_weight=952 121 81 60 831 352 330 301 266 479 228 82 42 48 218 146 145 251 61 73 121
internal_count=952 121 81 60 831 352 330 301 266 479 228 82 42 48 218 146 145 251 61 73 121
cat_boundaries=0 1 3
cat_threshold=2048 8388736 4261128
is_linear=0
shrinkage=0.0453713


Tree=15
num_leaves=20
num_cat=2
split_feature=2 27 27 2 17 27 25 27 27 18 18 9 27 11 22 21 27 27 16
split_gain=8.09848 4.57428 6.26793 0.82717 0.764379 1.48098 0.733695 0.573057 0.966648 0.267022 0.642038 0.23553 0.205464 0.180946 0.117239 0.0805559 0.250126 0.137125 0.0641144
threshold=0 53.500000000000007 47.500000000000007 1 486.50000000000006 30.500000000000004 22867.397559523815 27.500000000000004 24.500000000000004 950.00000000000011 1625.0000000000002 3.8500000000000005 27.500000000000004 33.500000000000007 110.00000000000001 7163.8825000000006 25.500000000000004 50.500000000000007 41426.000000000007
decision_type=9 2 2 9 2 2 2 2 2 2 2 2 2 2 2 2 2 2 2
left_child=1 2 6 4 5 -2 -1 8 14 -5 -11 12 -12 -9 -6 16 -13 18 -17
right_child=3 -3 -4 9 7 -7 -8 13 -10 10 11 15 -14 -15 -16 17 -18 -19 -20
leaf_value=-0.00090787320154257257 0.0078897026170655221 0.0027025868556675632 -0.02142763380616786 0.035417335843403577 -0.0010975679415753997 -0.039996306548679215 -0.03859499130961256 0.011935234955520997 -0.012262429816168192 -0.0040025585553419884 -0.0038841292046555504 4.1912193047607225e-05 0.0085042208724451663 0.00023111745758974973 0.041533475256568246 0.060522883632424911 0.027460164558082891 0.011815064832224434 0.048340445043137094
leaf_weight=25 33 38 21 215 28 25 35 77 21 32 23 32 26 33 20 166 37 21 43
leaf_count=25 33 38 21 215 28 25 35 77 21 32 23 32 26 33 20 166 37 21 43
internal_value=0.000433127 -0.0100675 -0.016862 0.00205314 -0.00023655 -0.00467657 -0.00876084 0.00122706 -0.00197639 0.00295173 0.00225573 0.00282471 -8.77704e-05 0.0032363 0.00162781 0.0032994 0.00184884 0.00371329 0.00406112
internal_weight=951 119 81 832 237 58 60 179 69 595 380 348 49 110 48 299 69 230 209
internal_count=951 119 81 832 237 58 60 179 69 595 380 348 49 110 48 299 69 230 209
cat_boundaries=0 1 3
cat_threshold=2048 128 4260872
is_linear=0
shrinkage=0.0453713


Tree=16
num_leaves=22
num_cat=2
split_feature=2 27 27 2 17 27 25 27 27 18 9 27 21 27 27 27 17 27 11 20 11
split_gain=8.09848 4.57428 6.26793 0.870114 0.800532 1.91686 0.733695 0.490991 0.238992 0.260693 0.91412 0.229649 0.255614 0.214723 0.845992 0.155595 0.140472 0.0857323 0.0250485 0.0187904 0.00947726
threshold=0 53.500000000000007 47.500000000000007 1 486.50000000000006 30.500000000000004 22867.397559523815 16.500000000000004 27.500000000000004 1020.0000000000001 3.8500000000000005 24.500000000000004 7393.7775000000011 27.500000000000004 24.500000000000004 35.500000000000007 1975.0000000000002 19.500000000000004 3.5000000000000004 11535.714557471265 37.000000000000007
decision_type=9 2 2 9 2 2 2 2 2 2 2 2 2 2 2 2 2 2 2 2 2
left_child=1 2 6 4 5 7 -1 -2 9 19 -11 12 -12 14 17 -15 -17 -6 -10 -5 -20
right_child=3 -3 -4 8 13 -7 -8 -9 18 10 11 -13 -14 15 -16 16 -18 -19 20 -21 -22
leaf_value=-0.00086668177950337591 -0.0029398438151909288 0.0025799668735156534 -0.020455433386647535 0.0049499780955537661 0.011417085166767886 -0.033940882746032588 -0.036843884907384022 0.016565670318178228 0.012970265259411119 -0.023154820961569518 0.00063754165551013048 -0.0022184932150812464 0.053015500701745967 0.023561112427996595 -0.011706066966239992 0.0065728689739145913 -0.00028322837467474902 0.055138203962391413 0.043479937182414753 0.036978778845580824 0.017389761956407613
leaf_weight=25 20 38 21 25 38 31 35 39 23 22 26 21 86 61 21 48 21 28 210 74 38
leaf_count=25 20 38 21 25 38 31 35 39 23 22 26 21 86 61 21 48 21 28 210 74 38
internal_value=0.000433127 -0.0100675 -0.016862 0.00205314 9.93653e-05 -0.00344636 -0.00876084 0.00140915 0.00316747 0.00219627 0.00101025 0.00245049 0.00325909 0.001594 -0.000152151 0.00274648 0.00121107 0.00239633 0.00416917 0.00399201 0.00431672
internal_weight=951 119 81 832 307 90 60 59 525 254 155 133 112 217 87 130 69 66 271 99 248
internal_count=951 119 81 832 307 90 60 59 525 254 155 133 112 217 87 130 69 66 271 99 248
cat_boundaries=0 1 3
cat_threshold=2048 128 4261128
is_linear=0
shrinkage=0.0453713


Tree=17
num_leaves=24
num_cat=2
split_feature=2 27 27 2 12 20 25 17 17 27 16 27 22 11 8 21 17 20 11 16 20 16 11
split_gain=8.02721 4.57428 6.26793 0.959253 1.22057 1.18703 0.733695 0.291987 0.282671 0.238992 0.232171 0.439431 0.509344 0.222353 0.0973049 0.0819892 0.173882 0.104883 0.0250485 0.0223842 0.0180739 0.0134002 0.00947726
threshold=0 53.500000000000007 47.500000000000007 1 8.5000000000000018 17276.850188235298 22867.397559523815 156.60000000000005 1975.0000000000002 27.500000000000004 2792.4500000000003 24.500000000000004 62.500000000000007 27.500000000000004 13.275000000000002 7393.7775000000011 530.85000000000002 6946.8300820512841 3.5000000000000004 7107.0000000000009 11535.714557471265 1531.0500000000002 37.000000000000007
decision_type=9 2 2 9 2 2 2 2 2 2 2 2 2 2 2 2 2 2 2 2 2 2 2
left_child=1 2 6 4 7 -6 -1 -2 15 10 20 12 14 -10 -12 17 -17 -9 -11 -14 -5 -19 -20
right_child=3 -3 -4 9 5 -7 -8 8 13 18 11 -13 19 -15 -16 16 -18 21 22 -21 -22 -23 -24
leaf_value=-0.00082735926740307891 -0.013420168395652556 0.0024629103240398917 -0.019527343001126542 0.0047253909654653009 -0.034521308253601259 0.0066456851564875626 -0.035172228545895939 0.016356317767725354 0.0040540929898048705 0.012381786968221554 -0.0034308708630631317 -0.020115911968311362 0.010355192321292176 -0.0095294012258016168 0.053915442322990642 -0.00030168395679778436 0.017197293955983944 0.027903022884198641 0.041507194249067916 0.049039919561017394 0.034841206806722209 0.028295844621181045 0.01660076518605437
leaf_weight=25 22 38 21 25 38 23 35 23 21 23 20 25 23 26 21 20 35 28 210 71 69 71 38
leaf_count=25 22 38 21 25 38 23 35 23 21 23 20 25 23 26 21 20 35 28 210 71 69 71 38
internal_value=0.000385525 -0.0100675 -0.016862 0.00199939 -4.24981e-05 -0.00567594 -0.00876084 0.00138943 0.00188574 0.00316747 0.00219627 0.00111901 0.00215009 -0.00119929 -0.0019971 0.00270974 0.00119019 0.00336205 0.00416917 0.00396366 0.00396366 0.00399201 0.00431672
internal_weight=951 119 81 832 307 61 60 246 224 525 254 160 135 47 41 177 55 122 271 94 94 99 248
internal_count=951 119 81 832 307 61 60 246 224 525 254 160 135 47 41 177 55 122 271 94 94 99 248
cat_boundaries=0 1 3
cat_threshold=2048 128 4261128
is_linear=0
shrinkage=0.0453713


Tree=18
num_leaves=20
num_cat=1
split_feature=2 27 27 20 11 25 27 21 13 22 11 25 9 6 27 27 16 27 22
split_gain=8.09848 4.57428 6.26793 0.906308 1.03904 0.733695 0.41285 0.919988 0.252223 0.205464 0.126814 0.102407 0.120008 0.175632 0.123884 0.120997 0.116262 0.0953587 0.0213894
threshold=0 53.500000000000007 47.500000000000007 7750.0430424242431 32.000000000000007 22867.397559523815 16.500000000000004 9789.1425000000017 3.5000000000000004 110.00000000000001 8.5000000000000018 22867.397559523815 3.8500000000000005 351.50000000000006 28.500000000000004 50.500000000000007 41426.000000000007 36.500000000000007 81.000000000000014
decision_type=9 2 2 2 2 2 2 2 2 2 2 2 2 2 2 2 2 2 2
left_child=1 2 5 4 -2 -1 7 -5 11 -10 -9 -8 13 14 -13 16 -14 -6 -17
right_child=3 -3 -4 6 17 -7 8 10 9 -11 -12 12 15 -15 -16 18 -18 -19 -20
leaf_value=-0.00078982087029680576 -0.027187263579651847 0.0023511647868549555 -0.018641361318335801 -0.0045356699879254489 -3.2767266037165055e-05 -0.033576417470482539 0.031923984828311013 0.056912605788321635 -0.0026868717909302431 0.010529933392284868 0.038271659653978635 0.0023898466387695873 0.041171463951889017 -0.0030751738075315968 0.010756930195124506 0.011120447850289684 0.015993910223480026 0.013557894805559889 0.0017515633230577121
leaf_weight=25 29 38 21 33 36 35 129 20 23 26 44 73 181 32 50 20 85 31 20
leaf_count=25 29 38 21 33 36 35 129 20 23 26 44 73 181 32 50 20 85 31 20
internal_value=0.000433127 -0.0100675 -0.016862 0.00205314 -0.00203366 -0.00876084 0.00261843 -0.000136804 0.00303581 -8.77704e-05 0.00301757 0.00329469 0.00294862 0.00187644 0.00264631 0.00347476 0.0038239 0.00111486 0.0010755
internal_weight=951 119 81 832 96 60 736 97 639 49 64 590 461 155 123 306 266 67 40
internal_count=951 119 81 832 96 60 736 97 639 49 64 590 461 155 123 306 266 67 40
cat_boundaries=0 1
cat_threshold=2048
is_linear=0
shrinkage=0.0453713


Tree=19
num_leaves=24
num_cat=3
split_feature=2 27 27 2 20 11 5 25 25 27 27 27 27 27 22 21 22 6 20 11 21 22 11
split_gain=8.02721 4.57428 6.26793 0.959253 0.906677 0.881551 1.17768 0.733695 0.303644 0.259976 0.279545 0.416609 0.238992 0.316966 0.386691 0.210376 0.12741 0.328592 0.0321753 0.0250485 0.0230956 0.0184322 0.00947726
threshold=0 53.500000000000007 47.500000000000007 1 12485.669896039604 32.000000000000007 2 22867.397559523815 22867.397559523815 16.500000000000004 26.500000000000004 30.500000000000004 27.500000000000004 24.500000000000004 74.500000000000014 7163.8825000000006 62.500000000000007 351.50000000000006 12664.005463607173 3.5000000000000004 3971.8500000000008 62.500000000000007 37.000000000000007
decision_type=9 2 2 9 2 2 1 2 2 2 2 2 2 2 2 2 2 2 2 2 2 2 2
left_child=1 2 7 4 5 6 -2 -1 -6 -10 21 -12 13 16 -15 -13 17 20 -18 -14 -5 -11 -21
right_child=3 -3 -4 12 8 -7 -8 -9 9 10 11 15 19 14 -16 -17 18 -19 -20 22 -22 -23 -24
leaf_value=-0.000753985640499858 -0.03666903547801869 0.0022444892942261722 -0.017795577810083972 0.0023343981251174942 0.026387126699716119 0.0061784818214542653 0.00011201622841878957 -0.032053010479021045 -0.0041549870715506636 0.039320950863441249 -0.009868688824445292 0.0047766765665730963 0.011466745279975597 0.021467273755633159 -0.021626309650346506 -0.00110452123934014 0.0011558257635898919 -0.0026608260759762841 0.047045949297054288 0.038370988659147058 0.048765286591563178 0.031063093246374181 0.015760691673094324
leaf_weight=25 21 38 21 20 54 39 24 35 20 21 21 42 23 26 22 29 20 36 88 210 42 36 38
leaf_count=25 21 38 21 20 54 39 24 35 20 21 21 42 23 26 22 29 20 36 88 210 42 36 38
internal_value=0.000385525 -0.0100675 -0.016862 0.00199939 -4.24981e-05 -0.00400243 -0.00817987 -0.00876084 0.00147091 0.000503427 0.00117043 -0.000385046 0.00316747 0.00219627 -0.00108488 0.00130202 0.00296434 0.0017212 0.00403656 0.00416917 0.00367756 0.00360489 0.00431672
internal_weight=951 119 81 832 307 84 45 60 223 169 149 92 525 254 48 71 206 98 108 271 62 57 248
internal_count=951 119 81 832 307 84 45 60 223 169 149 92 525 254 48 71 206 98 108 271 62 57 248
cat_boundaries=0 1 3 4
cat_threshold=2048 128 4261128 2
is_linear=0
shrinkage=0.0453713


Tree=20
num_leaves=19
num_cat=3
split_feature=2 27 27 2 12 25 17 22 1 9 21 16 11 16 16 11 12 12
split_gain=8.12375 3.59943 5.90158 0.932822 1.22613 0.617435 0.489328 0.526741 0.286731 0.713577 0.246409 0.181677 0.106644 0.0766735 0.0756719 0.0313551 0.119511 0.0111103
threshold=0 53.500000000000007 47.500000000000007 1 8.5000000000000018 22867.397559523815 1975.0000000000002 55.500000000000007 2 3.8500000000000005 7163.8825000000006 9386.0000000000018 3.5000000000000004 1531.0500000000002 41426.000000000007 30.500000000000004 7.5000000000000009 8.5000000000000018
decision_type=9 2 2 9 2 2 2 2 9 2 2 2 2 2 2 2 2 2
left_child=1 2 5 4 6 -1 7 -2 9 -5 11 -11 -12 -9 -14 17 -17 -10
right_child=3 -3 -4 8 -6 -7 -8 13 15 10 12 -13 14 -15 -16 16 -18 -19
leaf_value=-0.00071977630303232719 -0.0045576689140112243 0.00030763946584248049 -0.01664002022738232 -0.014204903563416705 -0.027013582240423422 -0.030900608255777902 -0.0048653880649171186 0.007808161170585034 0.037137364151189262 -0.0023208933486580426 0.001423935103343226 0.01890411616393034 0.047213115995856564 0.019053369125796544 0.034860806551389185 0.0034850689068639108 0.045675622069237733 0.026751341189568262
leaf_weight=25 39 41 22 27 40 34 39 33 168 23 22 36 102 82 35 39 52 94
leaf_count=25 39 41 22 27 40 34 39 33 168 23 22 36 102 82 35 39 52 94
internal_value=0.000299214 -0.0100791 -0.0163163 0.00194257 -0.000499525 -0.00823626 0.000999525 0.00214998 0.00288517 0.0014996 0.00243177 -7.3415e-05 0.0033503 0.00367915 0.00381481 0.00376485 0.00297094 0.00415663
internal_weight=953 122 81 831 233 59 193 154 598 245 218 59 159 115 137 353 91 262
internal_count=953 122 81 831 233 59 193 154 598 245 218 59 159 115 137 353 91 262
cat_boundaries=0 1 3 4
cat_threshold=2048 128 4260872 1
is_linear=0
shrinkage=0.0453713


Tree=21
num_leaves=25
num_cat=3
split_feature=2 27 27 2 12 6 27 25 16 2 16 20 11 27 27 27 15 27 27 11 11 16 11 21
split_gain=7.60247 3.36425 6.26208 0.953951 1.03691 2.25919 0.691347 0.460616 0.422711 0.250141 0.265003 0.190118 0.17786 0.277732 0.136183 0.296069 0.112415 0.125291 0.393059 0.0234509 0.0187366 0.0148368 0.0141983 0.00104085
threshold=0 53.500000000000007 47.500000000000007 1 8.5000000000000018 351.50000000000006 15.500000000000002 22867.397559523815 19256.000000000004 2 1582.95 12664.005463607173 30.500000000000004 27.500000000000004 35.500000000000007 40.500000000000007 1.0000000180025095e-35 25.500000000000004 18.500000000000004 3.5000000000000004 37.000000000000007 25991.000000000004 34.500000000000007 2812.2275000000004
decision_type=9 2 2 9 2 2 2 2 2 9 2 2 2 2 2 2 2 2 2 2 2 2 2 2
left_child=1 2 7 16 6 11 8 -1 -5 10 -8 -6 19 -14 21 -16 20 18 -18 -11 -2 -12 -15 -21
right_child=3 -3 -4 4 5 -7 9 -9 -10 12 14 -13 13 22 15 -17 17 -19 -20 23 -22 -23 -24 -25
leaf_value=-0.00068711908898344228 0.045779626769147201 0.00029368145160449036 -0.01588504024255398 0.026190155430787398 -0.0051382934272534717 -0.033447524912530405 -0.006332774051940898 -0.029498606309064888 -0.0053435802808252594 0.0075803404720639232 0.025145876461474675 0.024960892025385414 -0.0012375231775593248 0.038708230889281332 -0.0014858978271057148 0.0072396407881921256 0.030639447599760596 0.052626555282877983 -0.0025312833295856904 0.0093863690332382406 0.02775680837429733 0.0071261105501536455 0.00032349317288275781 0.0354246902105433
leaf_weight=25 223 41 22 23 34 32 28 34 20 21 24 27 25 23 20 29 27 35 21 44 30 20 20 105
leaf_count=25 223 41 22 23 34 32 28 34 20 21 24 27 25 23 20 29 27 35 21 44 30 20 20 105
internal_value=0.000299214 -0.00974084 -0.0157706 0.00188875 0.000581427 -0.0036715 0.00159406 -0.00749418 -0.0037178 0.0022487 0.00037449 0.00150823 0.00304704 0.00116365 0.00157321 -8.77704e-05 0.00372714 0.00229088 0.000722933 0.00395328 0.00432104 0.00334223 0.00331576 0.00417235
internal_weight=953 122 81 831 495 93 402 59 43 359 121 61 238 68 93 49 336 83 48 170 253 44 43 149
internal_count=953 122 81 831 495 93 402 59 43 359 121 61 238 68 93 49 336 83 48 170 253 44 43 149
cat_boundaries=0 1 3 5
cat_threshold=2048 2097185 393428 1152 4194312
is_linear=0
shrinkage=0.0453713


Tree=22
num_leaves=23
num_cat=1
split_feature=2 27 27 20 11 12 25 27 27 6 6 12 11 12 17 12 11 25 16 27 6 20
split_gain=7.1663 3.13701 5.42923 1.02143 1.06209 1.0005 0.460616 0.45441 0.731681 0.403339 0.695947 0.236166 0.128075 0.124573 0.0867701 0.111121 0.0747054 0.0251196 0.0240006 0.00496171 0.039677 0.000581745
threshold=0 53.500000000000007 47.500000000000007 11535.714557471265 18.500000000000004 8.5000000000000018 22867.397559523815 27.500000000000004 26.500000000000004 351.50000000000006 1646.0000000000002 6.5000000000000009 37.000000000000007 5.5000000000000009 313.2000000000001 6.5000000000000009 33.500000000000007 24889.08602213542 56948.500000000007 19.500000000000004 129.92000000000004 46203.64388001254
decision_type=9 2 2 2 2 2 2 2 2 2 2 2 2 2 2 2 2 2 2 2 2 2
left_child=1 2 6 4 5 -2 -1 8 9 19 -11 13 18 -6 -12 -16 17 -13 21 20 -5 -9
right_child=3 -3 -4 7 11 -7 -8 12 -10 10 14 16 -14 -15 15 -17 -18 -19 -20 -21 -22 -23
leaf_value=-0.00065594357643675909 -0.00055845578822061813 0.00028035673115060967 -0.015164314709925962 0.021980662568277225 0.00082262167425585096 -0.03226211104223408 -0.028160215066785833 0.028635356336477364 -0.0072036186097311312 -0.006295863962568554 0.0045169941770444718 0.00095577869333132249 0.0023189195693837259 -0.011566615939122993 0.017206363384989508 0.034412730889641356 0.0087148264344981616 0.008826761295594121 0.036217185696504395 0.045075621023655643 0.027737281752145765 0.037276660104369419
leaf_weight=25 32 41 22 39 27 21 34 226 26 24 28 21 24 29 33 61 34 23 24 65 42 52
leaf_count=25 32 41 22 39 27 21 34 226 26 24 28 21 24 29 33 61 34 23 24 65 42 52
internal_value=0.000346716 -0.0094026 -0.0152249 0.00188875 -0.00103123 -0.00633486 -0.00749418 0.00276655 0.00153046 0.00219019 0.000489707 0.00113275 0.00395431 -0.00109168 0.00190012 0.00254789 0.00271688 0.0013756 0.00420668 0.00385869 0.00332828 0.00434033
internal_weight=953 122 81 831 187 53 59 644 318 292 146 134 326 56 122 94 78 44 302 146 81 278
internal_count=953 122 81 831 187 53 59 644 318 292 146 134 326 56 122 94 78 44 302 146 81 278
cat_boundaries=0 1
cat_threshold=2048
is_linear=0
shrinkage=0.0453713


Tree=23
num_leaves=24
num_cat=2
split_feature=2 27 27 20 11 14 2 27 25 27 27 6 13 17 13 27 27 16 25 14 11 11 27
split_gain=6.82991 3.13701 5.42923 1.35895 0.794448 1.0005 0.495498 0.563673 0.460616 0.34129 0.46563 0.666303 0.195565 0.112224 0.197039 0.0969118 0.0880169 0.0769906 0.0653461 0.0455549 0.0332785 0.0873653 0.0138984
threshold=0 53.500000000000007 47.500000000000007 11535.714557471265 18.500000000000004 1.0000000180025095e-35 1 27.500000000000004 22867.397559523815 17.500000000000004 13.500000000000002 577.50000000000011 2.5000000000000004 1613.7500000000002 2.5000000000000004 23.500000000000004 22.500000000000004 26727.500000000004 22867.397559523815 1.0000000180025095e-35 8.5000000000000018 6.5000000000000009 22.500000000000004
decision_type=9 2 2 2 2 2 9 2 2 2 2 2 2 2 2 2 2 2 2 2 2 2 2
left_child=1 2 8 4 5 -2 7 16 -1 10 -8 -12 19 20 -15 -14 -5 -17 -9 -6 21 22 -11
right_child=3 -3 -4 6 12 -7 9 18 -10 13 11 -13 15 14 -16 17 -18 -19 -20 -21 -22 -23 -24
leaf_value=-0.00062618253861233158 -0.030798335892182591 0.00026763657109442254 -0.014476289459163795 -0.0013167194421779768 0.0007852982280903897 -0.00053311790180242261 0.039951102259696128 0.02924566316144003 -0.02688254842615885 0.030114049023514913 0.025398431731125954 -0.0040789967131767664 0.00031308985863207767 0.00020781886212144728 0.042217976115013031 0.017318029482276606 -0.0081131449705229338 0.0045113374869785606 0.0019558027011141628 -0.011041823095910921 0.033731844355848029 0.017924255633737202 0.038405232039023428
leaf_weight=25 21 41 22 27 27 32 40 27 34 26 21 34 26 37 36 28 20 24 26 29 271 24 55
leaf_count=25 21 41 22 27 27 32 40 27 34 26 21 34 26 37 36 28 20 24 26 29 271 24 55
internal_value=0.000109205 -0.0094026 -0.0152249 0.00161969 -0.00175087 -0.00633486 0.00262611 -0.000404159 -0.00749418 0.00313268 0.000700101 -0.00198421 0.000132951 0.00371093 0.00199195 0.0015846 -0.00396915 0.00268077 0.00271444 -0.00187205 0.00403138 0.00317559 0.003874
internal_weight=953 122 81 831 187 53 644 100 59 544 95 55 134 449 73 78 47 52 53 56 376 105 81
internal_count=953 122 81 831 187 53 644 100 59 544 95 55 134 449 73 78 47 52 53 56 376 105 81
cat_boundaries=0 1 3
cat_threshold=2048 128 1032
is_linear=0
shrinkage=0.0453713


Tree=24
num_leaves=21
num_cat=3
split_feature=2 14 2 12 6 25 21 25 3 17 11 16 9 11 7 21 17 16 16 12
split_gain=5.89273 1.63576 1.2792 0.783766 1.74848 0.479084 0.277679 0.263226 0.380712 0.261546 0.148964 0.267164 0.144885 0.106003 0.0867729 0.0865607 0.0844436 0.0495832 0.029763 0.00711947
threshold=0 1.0000000180025095e-35 1 8.5000000000000018 351.50000000000006 22867.397559523815 7163.8825000000006 20497.240940567073 2 303.30000000000007 27.500000000000004 25991.000000000004 3.4000000000000008 29.500000000000004 78.300000000000026 3383.0700000000006 303.30000000000007 1531.0500000000002 26398.500000000004 7.5000000000000009
decision_type=9 2 9 2 2 2 2 2 1 2 2 2 2 2 2 2 2 2 2 2
left_child=1 -1 -2 7 6 -3 15 17 10 -10 16 13 -11 -12 -14 -5 -9 -4 -18 -7
right_child=2 5 3 4 -6 19 -8 8 9 12 11 -13 14 -15 -16 -17 18 -19 -20 -21
leaf_value=-0.025673349037932197 0.05238544434622984 -0.00059777178719478156 0.012569729263085496 0.0020252163079286867 -0.027408103866943329 -0.013298910460770003 0.020073585208712656 -0.00050892965602148527 -0.0023268298459436284 0.0021744577165128069 0.0058051606713140358 -0.0055674472580400508 0.039949648578696623 -0.00031008327870551359 0.010094175065861806 -0.0035487651270085974 0.016857776957464786 0.024412634474552053 0.0064033611771828645 -0.010848478924346141
leaf_weight=30 230 35 37 24 37 37 30 22 29 32 22 32 89 79 31 23 28 50 36 20
leaf_count=30 230 35 37 24 37 37 30 22 29 32 22 32 89 79 31 23 28 50 36 20
internal_value=0.000109205 -0.00872613 0.00151207 0.000377312 -0.00296858 -0.00616845 0.000973993 0.00117792 0.000676826 0.00213746 -0.000608298 -0.00157759 0.00300205 -0.000395436 0.00371427 -0.00119929 0.000823064 0.00340965 0.00164562 -0.00866822
internal_weight=953 122 831 601 114 92 77 487 400 181 219 133 152 101 120 47 86 87 64 57
internal_count=953 122 831 601 114 92 77 487 400 181 219 133 152 101 120 47 86 87 64 57
cat_boundaries=0 1 3 4
cat_threshold=2048 2097185 393300 74
is_linear=0
shrinkage=0.0453713


Tree=25
num_leaves=19
num_cat=4
split_feature=2 27 27 2 12 6 4 27 27 27 21 11 21 27 27 2 11 25
split_gain=4.94554 2.03532 4.22566 1.33564 0.692222 1.70536 0.659633 0.524849 0.238083 0.594667 0.311843 0.246634 0.320206 0.230678 0.185807 0.156161 0.564876 0.128661
threshold=0 53.500000000000007 47.500000000000007 1 8.5000000000000018 351.50000000000006 2 15.500000000000002 35.500000000000007 37.500000000000007 2174.2875000000008 6.5000000000000009 2812.2275000000004 19.500000000000004 33.500000000000007 3 30.500000000000004 24889.08602213542
decision_type=9 2 2 9 2 2 1 2 2 2 2 2 2 2 2 9 2 2
left_child=1 2 6 -2 7 13 -1 -5 10 -10 -9 -11 -13 -6 -15 16 -12 -17
right_child=3 -3 -4 4 5 -7 -8 8 9 11 15 12 -14 14 -16 17 -18 -19
leaf_value=-0.043683962079357014 0.052611756043219007 0.00015606685009584773 -0.013002795037680988 -0.0039566183832397163 0.029517556880287052 -0.025832416474065204 -0.0016569820214401277 -0.00067078288650337535 -0.0040659014644165584 -0.0020867108252577982 -0.0018870505453349327 -6.5512145484971879e-06 0.035991954918377513 -0.0067318416977424581 0.0060709208952640448 0.026448679456867654 0.024991557884725717 0.0095299921992711145
leaf_weight=20 233 39 21 36 28 38 39 25 24 25 52 31 58 29 22 145 48 42
leaf_count=20 233 39 21 36 28 38 39 25 24 25 52 31 58 29 22 145 48 42
internal_value=0.000213263 -0.00799162 -0.0127037 0.00147641 0.000317079 -0.00277958 -0.00601003 0.00107809 0.00150511 -6.4405e-05 0.00219518 0.00132782 0.00243876 0.00106182 -0.0007675 0.00262036 0.000808751 0.00334893
internal_weight=955 119 80 836 603 117 59 486 450 138 312 114 89 79 51 287 100 187
internal_count=955 119 80 836 603 117 59 486 450 138 312 114 89 79 51 287 100 187
cat_boundaries=0 1 3 4 6
cat_threshold=2048 2097187 393232 4 128 136
is_linear=0
shrinkage=0.0453713


Tree=26
num_leaves=28
num_cat=1
split_feature=21 1 16 12 16 21 11 17 9 6 16 11 21 12 22 12 21 12 11 20 11 12 21 11 14 11 11
split_gain=3.35562 1.32987 0.921623 2.08841 0.607475 0.328994 0.259573 0.425651 0.203052 0.626653 0.200227 0.518359 0.120845 0.105785 0.155026 0.105074 0.0976202 0.111649 0.0860018 0.0549829 0.112864 0.0951716 0.0350583 0.0238281 0.0214404 0.0138036 0.0114028
threshold=5673.7800000000016 0 1531.0500000000002 8.5000000000000018 1582.95 3383.0700000000006 26.500000000000004 234.90000000000006 3.8500000000000005 351.50000000000006 853.00000000000011 28.500000000000004 7163.8825000000006 7.5000000000000009 49.000000000000007 6.5000000000000009 2812.2275000000004 7.5000000000000009 10.500000000000002 59362.380494791672 8.5000000000000018 5.5000000000000009 8613.1300000000028 30.500000000000004 1.0000000180025095e-35 30.500000000000004 3.5000000000000004
decision_type=2 9 2 2 2 2 2 2 2 2 2 2 2 2 2 2 2 2 2 2 2 2 2 2 2 2 2
left_child=1 16 10 5 -5 6 7 -4 9 13 -3 -12 18 14 -2 -8 17 25 -10 21 -21 -14 -11 -17 -13 -1 -23
right_child=8 2 3 4 -6 -7 15 -9 12 22 11 24 19 -15 -16 23 -18 -19 -20 20 -22 26 -24 -25 -26 -27 -28
leaf_value=0.0012574145754739858 0.057637968153790652 -0.0059830457665769584 -0.0097107854090055217 -0.010870101522348876 -0.041701962263416686 0.010137572524463866 -0.010462341018107132 0.0082209864582294019 0.029046438360903187 -0.0037938040654715917 0.010488764327636235 -0.0063330666778360764 0.03327980013921629 0.021582487655286847 0.0039552333976304909 -0.004282652078276405 0.069140244944751003 -6.2538945662619665e-06 0.0035569407830136801 0.0049557263245247809 0.051479888635491369 0.022380420060120497 -0.0026440268359639949 -0.004479752413891658 -0.0030126387744616465 0.0061214363861286291 0.036226110560128845
leaf_weight=28 41 24 20 23 20 26 42 24 30 22 34 29 30 59 23 22 23 31 26 33 29 35 25 26 27 29 174
leaf_count=28 41 24 20 23 20 26 42 24 30 22 34 29 30 59 23 22 23 31 26 33 29 35 25 26 27 29 174
internal_value=0.000213263 -0.00276347 -0.00417664 -0.00612621 -0.0147739 -0.00363744 -0.00453208 -0.00157226 0.00263229 0.00131757 -0.00101529 0 0.00324662 0.00300887 0.00164562 -0.00590841 0.00151025 0.000905469 0.00124775 0.0036069 0.00226282 0.00393219 -0.00304586 -0.007419 -0.00265241 0.00207054 0.00427601
internal_weight=955 428 317 203 43 160 134 44 527 170 114 90 357 123 64 90 111 88 56 301 62 239 47 48 56 57 209
internal_count=955 428 317 203 43 160 134 44 527 170 114 90 357 123 64 90 111 88 56 301 62 239 47 48 56 57 209
cat_boundaries=0 1
cat_threshold=2560
is_linear=0
shrinkage=0.0453713


Tree=27
num_leaves=23
num_cat=2
split_feature=2 12 17 20 18 25 12 11 2 6 6 17 25 14 11 20 14 7 11 12 11 18
split_gain=4.84555 2.76547 0.887011 0.682303 0.444114 0.86432 0.421165 0.353195 0.25276 0.243299 0.531381 0.165714 0.127974 0.0973507 0.0880169 0.0659845 0.106684 0.0390295 0.0165335 0.0154551 0.0403118 0.00287038
threshold=0 8.5000000000000018 1975.0000000000002 7750.0430424242431 1775.0000000000002 22867.397559523815 7.5000000000000009 34.500000000000007 1 351.50000000000006 1646.0000000000002 234.90000000000006 24889.08602213542 1.0000000180025095e-35 9.5000000000000018 24666.267259953165 1.0000000180025095e-35 78.300000000000026 27.500000000000004 7.5000000000000009 29.500000000000004 737.50000000000011
decision_type=9 2 2 2 2 2 2 2 9 2 2 2 2 2 2 2 2 2 2 2 2 2
left_child=1 2 4 7 5 19 21 14 17 12 -11 -12 -10 -14 -2 -13 -17 -5 -4 20 -1 -7
right_child=3 -3 18 8 -6 6 -8 -9 9 10 11 15 13 -15 -16 16 -18 -19 -20 -21 -22 -23
leaf_value=0.0012113340930454139 -0.012943185861926082 -0.031793105367820131 -0.0035691366105591038 0.046326585232631223 0.0072016102802524747 -0.0051551989663113258 -0.00050654125410619149 0.0081244303232898985 0.033539245168017331 -0.0036645748602603099 -0.0019355472213946454 0.015811236303832674 0.0072962600615177039 0.0035247392879406143 -0.0043047814997629703 0.0059075763349141896 0.028038172431673634 0.043576672790010693 -0.010456970528024847 0.002274843015328671 0.0022179044664056508 -0.014911621966315456
leaf_weight=20 20 49 20 214 36 20 41 25 91 37 22 36 38 28 27 27 81 20 20 32 27 24
leaf_count=20 20 49 20 214 36 20 41 25 91 37 22 36 38 28 27 27 81 20 20 32 27 24
internal_value=0.000260666 -0.00453485 -0.00262306 0.00238176 -0.00134648 -0.00234828 -0.00546643 -0.00171283 0.00292248 0.00195059 0.000950801 0.0020505 0.00333538 0.00173048 -0.00396915 0.00260755 0.00197686 0.00412881 -0.00861208 0.00106182 0.0015686 -0.00845548
internal_weight=955 289 240 666 200 164 85 72 594 360 203 166 157 66 47 144 108 234 40 79 47 44
internal_count=955 289 240 666 200 164 85 72 594 360 203 166 157 66 47 144 108 234 40 79 47 44
cat_boundaries=0 2 4
cat_threshold=2176 66568 2097184 4587536
is_linear=0
shrinkage=0.0453713


Tree=28
num_leaves=25
num_cat=3
split_feature=2 12 27 2 16 27 27 20 11 11 2 27 16 17 16 27 20 16 11 20 22 27 9 16
split_gain=3.8455 1.78591 0.84194 0.820831 0.888854 0.747759 1.05852 0.682303 0.353195 0.28128 0.25276 0.425414 0.391496 0.135301 0.320104 0.185773 0.228846 0.126511 0.0880169 0.0779641 0.0713671 0.0592988 0.0335259 0.0310743
threshold=0 8.5000000000000018 47.500000000000007 1 25991.000000000004 53.500000000000007 37.500000000000007 7750.0430424242431 34.500000000000007 29.500000000000004 2 17.500000000000004 8870.0000000000018 641.25000000000011 1582.95 46.500000000000007 59362.380494791672 1582.95 9.5000000000000018 12485.669896039604 110.00000000000001 34.500000000000007 3.8500000000000005 56948.500000000007
decision_type=9 2 2 9 2 2 2 2 2 2 9 2 2 2 2 2 2 2 2 2 2 2 2 2
left_child=1 3 -3 4 17 6 9 8 18 -5 23 12 -12 14 19 16 -16 21 -2 -13 22 -1 -15 -9
right_child=7 2 -4 5 -6 -7 -8 10 -10 -11 11 13 -14 20 15 -17 -18 -19 -20 -21 -22 -23 -24 -25
leaf_value=0.0033712924488022425 -0.012355936199237158 -0.019477935272400364 -0.030045291505590838 -0.0056473998323658004 -0.005286213529060748 0.0013197439688755099 -0.018128659087981967 0.043897982551786417 0.0077558140476845089 0.00024227090043574457 0.016427088384653558 0.0043227775162980129 -0.0035716593305916691 0.010364539340102095 -0.0047201697517073558 -0.0022073375127083543 0.015086409887645924 0.0072332790325303426 -0.0041094678026057842 0.033769735409937218 0.033530983750104465 0.0096842756030742702 0.023876798923506179 0.055855938316019094
leaf_weight=27 20 29 20 27 28 34 27 211 25 28 23 30 26 20 28 20 22 44 27 59 31 25 101 23
leaf_count=27 20 29 20 27 28 34 27 211 25 28 23 30 26 20 28 20 22 44 27 59 31 25 101 23
internal_value=0.000497681 -0.00378152 -0.0116211 -0.00224831 0.000466218 -0.0047442 -0.00744079 0.00238176 -0.00171283 -0.00357226 0.00292248 0.00195059 -0.00186213 0.00262237 0.00166092 -0.000628253 0.000869236 0.00258843 -0.00396915 0.00343439 0.00359075 0.00100473 0.0040894 0.00412881
internal_weight=955 289 49 240 124 116 82 666 72 55 594 360 49 311 159 70 50 96 47 89 152 52 121 234
internal_count=955 289 49 240 124 116 82 666 72 55 594 360 49 311 159 70 50 96 47 89 152 52 121 234
cat_boundaries=0 2 4 6
cat_threshold=2176 66568 0 66568 2097184 4587536
is_linear=0
shrinkage=0.0453713


Tree=29
num_leaves=25
num_cat=4
split_feature=2 12 20 27 2 27 27 16 14 11 25 2 27 16 22 27 25 20 16 20 27 16 9 4
split_gain=3.57861 1.85992 0.876359 0.84194 0.714484 0.650014 0.770747 0.539503 0.393745 0.28128 0.275585 0.25276 0.425414 0.391496 0.124068 0.263199 0.177623 0.174172 0.113876 0.0977543 0.0825343 0.0310743 0.0271797 0.0243598
threshold=0 8.5000000000000018 7750.0430424242431 47.500000000000007 1 53.500000000000007 37.500000000000007 25991.000000000004 1.0000000180025095e-35 29.500000000000004 24889.08602213542 2 17.500000000000004 8870.0000000000018 81.000000000000014 27.500000000000004 24889.08602213542 46203.64388001254 8870.0000000000018 14616.114500000001 34.500000000000007 56948.500000000007 3.4000000000000008 3
decision_type=9 2 2 2 9 2 2 2 2 2 2 9 2 2 2 2 2 2 2 2 2 2 2 1
left_child=1 4 8 -3 7 6 9 10 -2 -6 23 21 13 -13 16 -16 22 19 -17 -18 -10 -4 -14 -1
right_child=2 3 11 -5 5 -7 -8 -9 20 -11 -12 12 14 -15 15 18 17 -19 -20 -21 -22 -23 -24 -25
leaf_value=0.0066338411966324496 -0.0035942603497437953 -0.018594195284377679 0.041906272340617043 -0.02868209642438976 -0.0053911697448119911 0.0012598654189709081 -0.01730613756600205 -0.005046370947415179 -0.0083972804393204741 0.00023127874548426518 -0.00028093407675027697 0.015681769402468005 0.023983874725975837 -0.0034096083672890557 -0.0059913151387622262 0.0030588373385576472 0.0015273910110342244 -0.0024630259680584374 0.016188235823960437 0.018839428948402411 0.022855034445209078 0.053321679650094697 0.028640565705821009 0.015027506250544127
leaf_weight=20 28 29 211 20 27 34 27 28 22 28 30 23 23 26 24 20 38 20 34 34 22 23 118 46
leaf_count=20 28 29 211 20 27 34 27 28 22 28 30 23 23 26 24 20 38 20 34 34 22 23 118 46
internal_value=0.000497681 -0.00363086 0.00231486 -0.0116211 -0.00206093 -0.00439013 -0.00690156 0.000466218 -0.00232479 -0.00357226 0.00212612 0.00292248 0.00195059 -0.00186213 0.00262237 0.00101845 0.00314494 0.00154173 0.0027469 0.00256958 0.000392277 0.00412881 0.00415196 0.00372802
internal_weight=955 289 666 49 240 116 82 124 72 55 96 594 360 49 311 78 233 92 54 72 44 234 141 66
internal_count=955 289 666 49 240 116 82 124 72 55 96 594 360 49 311 78 233 92 54 72 44 234 141 66
cat_boundaries=0 2 4 6 7
cat_threshold=2176 66568 0 66568 2097184 4587536 2
is_linear=0
shrinkage=0.0453713


Tree=30
num_leaves=21
num_cat=4
split_feature=2 7 6 20 2 15 14 2 26 6 5 17 14 26 26 14 14 21 7 16
split_gain=3.5655 1.37837 1.16991 0.812541 0.770911 0.462888 0.393745 0.365466 0.337854 0.316455 0.770999 0.320963 0.253933 0.101168 0.0894177 0.0679675 0.0665609 0.0627261 0.0390549 0.0124819
threshold=0 51.625000000000007 2278.0000000000005 7750.0430424242431 1 1.0000000180025095e-35 1.0000000180025095e-35 2 7822.1725000000015 351.50000000000006 3 234.90000000000006 1.0000000180025095e-35 7822.1725000000015 7822.1725000000015 1.0000000180025095e-35 1.0000000180025095e-35 15168.252500000001 78.300000000000026 931.00000000000011
decision_type=9 2 2 2 9 2 2 9 2 2 1 2 2 2 2 2 2 2 2 2
left_child=1 4 -3 6 5 13 -2 18 -6 14 -11 -12 -10 -1 19 -13 -16 -17 -5 -9
right_child=3 2 -4 7 8 -7 -8 9 12 10 11 15 -14 -15 16 17 -18 -19 -20 -21
leaf_value=-0.00085552634739245867 -0.0034311839479583277 -0.025409025125188767 -0.0036577837942052354 0.040341367836263985 0.022027109851520194 -0.0078587735842265607 0.0022383777145971681 0.012757699072897316 0.0067229469296022845 -0.0035374714073909499 -0.0032898454057364492 0.018753854721568746 -0.0032586044271191647 -0.0049992682022806144 0.0067154414903347788 0.0097442649203258493 0.0034684654459361075 0.025473123240333812 0.0377064869678801 0.028471736535846719
leaf_weight=42 28 32 25 215 47 22 44 29 29 43 24 39 29 36 36 29 32 83 20 75
leaf_count=42 28 32 25 215 47 22 44 29 29 43 24 39 29 36 36 29 32 83 20 75
internal_value=0.000467286 -0.00393881 -0.0102026 0.00215608 -0.00229964 -0.00485467 -0.00232479 0.00271291 0.00058057 0.00169225 0.000576863 0.00192071 -0.00165891 -0.00350948 0.00317835 0.00269575 0.00181051 0.00325909 0.00413046 0.00401769
internal_weight=959 262 57 697 205 100 72 625 105 390 218 175 58 78 172 151 68 112 235 104
internal_count=959 262 57 697 205 100 72 625 105 390 218 175 58 78 172 151 68 112 235 104
cat_boundaries=0 2 3 5 6
cat_threshold=2176 66560 2048 2097184 4587536 2
is_linear=0
shrinkage=0.0453713


Tree=31
num_leaves=25
num_cat=2
split_feature=2 7 27 27 27 2 11 9 20 13 20 27 27 27 20 27 13 17 27 27 11 27 25 11
split_gain=3.64031 1.37837 1.31194 0.810221 3.81257 0.747985 0.444379 0.876583 0.381059 0.244649 0.244581 0.237675 0.344334 0.191949 0.180933 0.233918 0.128867 0.108025 0.127007 0.107271 0.0854335 0.0508939 0.0457825 0.0734664
threshold=0 51.625000000000007 28.500000000000004 47.500000000000007 48.500000000000007 1 9.5000000000000018 3.8500000000000005 12664.005463607173 2.5000000000000004 40944.829088345876 31.500000000000004 26.500000000000004 15.500000000000002 9395.8626332288422 36.500000000000007 2.5000000000000004 1613.7500000000002 35.500000000000007 25.500000000000004 30.500000000000004 23.500000000000004 24889.08602213542 29.500000000000004
decision_type=9 2 2 2 2 9 2 2 2 2 2 2 2 2 2 2 2 2 2 2 2 2 2 2
left_child=1 3 -3 9 -5 -2 7 -7 -9 -1 -10 12 -11 -8 15 16 -15 22 19 -19 -6 -12 -16 -24
right_child=5 2 -4 4 20 6 13 8 10 11 21 -13 -14 14 17 -17 -18 18 -20 -21 -22 -23 23 -25
leaf_value=0.012257631915172196 0.0387224553140708 -0.0075379393891252056 -0.035611481522671233 -0.0076627707847823764 -0.0010979488835917788 -0.013554823330510104 -0.0031278046139506907 -0.0036343691640194887 0.021974075571736067 0.012219106190959493 -0.0035007300293166373 0.0012742972233727322 -0.0041672209253458079 -0.0016515710451618418 0.022300200474279899 0.024162123609630284 0.0022467035295024485 0.0078656798974131911 -0.0014631550851408818 0.014303971747454841 0.0075329970263612088 0.010601119534022674 0.074485379591716472 0.0035611440758626018
leaf_weight=34 230 29 28 21 24 28 20 26 48 25 21 42 33 21 92 23 35 21 24 35 26 27 23 23
leaf_count=34 230 29 28 21 24 28 20 26 48 25 21 42 33 21 92 23 35 21 24 35 26 27 23 23
internal_value=0.000514492 -0.00393881 -0.0102026 -0.00229964 -0.00614057 0.00222006 0.00110781 -0.000894338 0.00080367 -0.000199604 0.00212612 -0.00133213 -0.00316774 0.0020897 0.00238109 0.000502653 -0.00109168 0.00305008 0.00165649 0.00280849 0.000869236 -0.000180008 0.00381996 0.00244941
internal_weight=959 262 57 205 71 697 467 150 122 134 96 100 58 317 297 79 56 218 80 56 50 48 138 46
internal_count=959 262 57 205 71 697 467 150 122 134 96 100 58 317 297 79 56 218 80 56 50 48 138 46
cat_boundaries=0 2 4
cat_threshold=2176 66560 2097185 393300
is_linear=0
shrinkage=0.0453713


Tree=32
num_leaves=24
num_cat=4
split_feature=2 11 5 2 25 27 17 21 12 27 27 27 11 20 21 27 27 16 22 5 11 22 12
split_gain=2.93243 0.84127 1.52178 0.758526 0.682709 0.661185 0.580882 0.442263 0.462551 0.413018 0.975166 1.18075 0.20389 0.152081 0.11149 0.0862097 0.085649 0.0843532 0.0842154 0.150524 0.0819 0.0889143 0.0257372
threshold=0 9.5000000000000018 1 2 22867.397559523815 17.500000000000004 641.25000000000011 3383.0700000000006 8.5000000000000018 35.500000000000007 48.500000000000007 47.500000000000007 29.500000000000004 9395.8626332288422 9789.1425000000017 36.500000000000007 26.500000000000004 1582.95 49.000000000000007 3 37.000000000000007 110.00000000000001 8.5000000000000018
decision_type=9 2 1 9 2 2 2 2 2 2 2 2 2 2 2 2 2 2 2 1 2 2 2
left_child=1 2 -1 -2 -5 14 7 8 -7 12 11 -11 16 15 -6 -8 -3 -12 22 -20 21 -15 -9
right_child=3 9 -4 4 5 6 13 18 -10 10 17 -13 -14 20 -16 -17 -18 -19 19 -21 -22 -23 -24
leaf_value=-0.022928831752771366 0.040716280439906161 0.0067093663659578123 0.00033731320760695122 0.016650500951876895 -0.006784940660062991 -0.00029365911694070006 -0.001643122781354934 0.0044317537279070672 -0.011413019033542571 -0.0065901698365210528 -0.0014999722031748242 -0.0058700581743879997 0.0021572263275412575 0.021773524138748886 -0.0028461645269008354 0.0070883818952128001 -0.0042142748465218444 0.0038018185374161916 0.012412471236557147 0.003336322862034296 0.00091948414581884878 0.011640360448671755 -0.000343898973446329
leaf_weight=21 232 20 24 101 28 34 21 22 22 36 23 20 42 96 21 21 20 24 27 27 25 31 21
leaf_count=21 232 20 24 101 28 34 21 22 22 36 23 20 42 96 21 21 20 24 27 27 25 31 21
internal_value=0.000797726 -0.00355994 -0.00914233 0.00219767 0.00113165 0.000296169 0.00100049 -0.00108176 -0.00421315 -0.00230296 -0.00418536 -0.00811498 0.00010727 0.0026368 -0.00452367 0.000204477 -0.00215216 0.000645316 0.000777507 0.00193874 0.0032964 0.00375887 -0.000702497
internal_weight=959 230 45 729 497 396 347 153 56 185 103 56 82 194 49 42 40 47 97 54 152 127 43
internal_count=959 230 45 729 497 396 347 153 56 185 103 56 82 194 49 42 40 47 97 54 152 127 43
cat_boundaries=0 2 3 5 6
cat_threshold=2176 4259840 2 2097187 393232 2
is_linear=0
shrinkage=0.0453713


Tree=33
num_leaves=23
num_cat=2
split_feature=2 20 7 27 27 27 27 27 20 6 27 6 2 11 11 27 27 27 12 25 11 11
split_gain=3.03492 1.05305 1.73835 0.858943 1.09161 0.938078 0.443525 0.933576 0.30811 0.434583 0.312756 0.309603 0.257281 0.617367 0.255393 0.229932 0.178077 0.215313 0.174591 0.128672 0.0736933 0.0124681
threshold=0 17276.850188235298 51.625000000000007 30.500000000000004 53.500000000000007 47.500000000000007 27.500000000000004 26.500000000000004 9395.8626332288422 351.50000000000006 19.500000000000004 2278.0000000000005 1 8.5000000000000018 26.500000000000004 18.500000000000004 18.500000000000004 13.500000000000002 7.5000000000000009 24889.08602213542 30.500000000000004 37.000000000000007
decision_type=9 2 2 2 2 2 2 2 2 2 2 2 9 2 2 2 2 2 2 2 2 2
left_child=1 2 3 -1 5 18 7 8 10 -10 -2 15 13 -8 -3 -11 17 -13 -5 -15 -6 -14
right_child=6 14 -4 4 20 -7 12 -9 9 11 -12 16 21 19 -16 -17 -18 -19 -20 -21 -22 -23
leaf_value=0.0080607623974733728 0.019942632243460118 0.01208001590660104 -0.033141899898473652 -0.0031512297923649794 -0.001431916457104738 -0.0056037257799028059 -0.0033226649174241838 -0.010215890519643377 0.027353115344342482 -0.0026731178277595476 -0.0084212258622941277 0.034647088810820542 0.027028409377757131 0.015895045494902994 -0.0028103048761885865 0.0045715816181198052 0.031599451583528441 -0.0039747749483253188 -0.003484435250960712 0.0020913552023868963 0.0071965260835806346 0.033754836323409344
leaf_weight=41 21 32 25 36 23 20 22 27 115 22 22 20 214 51 30 34 45 37 28 37 22 35
leaf_count=41 21 32 25 36 23 20 22 27 115 22 22 20 214 51 30 34 45 37 28 37 22 35
internal_value=0.000703315 -0.00342196 -0.00517805 -0.00342614 -0.00522383 -0.00821611 0.00223628 0.00109096 0.00179678 0.00235792 -0.0017076 0.000792997 0.0033794 0.001114 0.00155545 -0.00187205 0.00226503 0.000536201 -0.0052127 0.00291882 0.000480202 0.00415226
internal_weight=959 257 195 170 129 84 702 343 316 273 43 158 359 110 62 56 102 57 64 88 45 249
internal_count=959 257 195 170 129 84 702 343 316 273 43 158 359 110 62 56 102 57 64 88 45 249
cat_boundaries=0 2 4
cat_threshold=2176 4259848 1024 1280
is_linear=0
shrinkage=0.0453713


Tree=34
num_leaves=25
num_cat=2
split_feature=2 12 2 25 20 17 17 21 12 27 20 27 27 11 27 21 17 27 11 18 27 27 12 11
split_gain=2.83543 0.967498 0.747261 0.539136 0.520813 0.512333 0.477405 0.448844 0.595731 0.570393 0.233115 0.281231 0.632001 0.219643 0.320154 0.136166 0.160215 0.147127 0.0907516 0.0890558 0.078771 0.0733902 0.0360711 0.0107637
threshold=0 8.5000000000000018 1 20497.240940567073 24666.267259953165 303.30000000000007 530.85000000000002 3383.0700000000006 8.5000000000000018 17.500000000000004 9395.8626332288422 53.500000000000007 36.500000000000007 27.500000000000004 36.500000000000007 15872.860000000002 557.55000000000007 27.500000000000004 10.500000000000002 1020.0000000000001 34.500000000000007 30.500000000000004 9.5000000000000018 34.500000000000007
decision_type=9 2 9 2 2 2 2 2 2 2 2 2 2 2 2 2 2 2 2 2 2 2 2 2
left_child=1 4 22 -4 5 -1 -3 8 13 -9 -7 12 21 20 -15 16 19 -17 -6 -11 -5 -12 -2 -18
right_child=2 6 3 7 18 10 -8 9 -10 15 11 -13 -14 14 -16 17 23 -19 -20 -21 -22 -23 -24 -25
leaf_value=-0.016194344737601986 0.039757254499079138 -0.031327423017013717 0.016958370956291925 0.0063746875309435881 0.034035854709717907 0.0029781652550556312 -0.0038751920341905258 -0.003172030640568342 -0.010159964636907028 0.013762797866755057 -0.0060448240485190836 0.00043704003842017197 -0.0051090289525982302 -0.0067668082144511921 0.0029202370585027066 -0.0043133000186780217 0.019428765160586847 0.012951204949235802 0.0011476663396415912 -0.0021814418646077215 0.0014658648582520262 -9.6137832578156799e-05 0.046717662323978164 0.02269677221959757
leaf_weight=21 210 20 76 20 22 37 28 38 24 43 27 32 22 39 31 27 72 26 20 24 21 28 21 30
leaf_count=21 210 20 76 20 22 37 28 38 24 43 27 32 22 39 31 27 72 26 20 24 21 28 21 30
internal_value=0.000561698 -0.00342196 0.00204569 0.000948382 -0.00217012 -0.00329913 -0.00922875 0.00028549 -0.00181925 0.00138445 -0.00226608 -0.00330624 -0.00475775 -0.000360486 -0.0018861 0.00226692 0.00288942 0.000245968 0.00226022 0.00111486 0.00220744 -0.00198421 0.00412377 0.00400772
internal_weight=959 257 702 471 209 167 48 395 135 260 146 109 77 111 70 222 169 53 42 67 41 55 231 102
internal_count=959 257 702 471 209 167 48 395 135 260 146 109 77 111 70 222 169 53 42 67 41 55 231 102
cat_boundaries=0 2 4
cat_threshold=2176 4259848 2097186 393296
is_linear=0
shrinkage=0.0453713


Tree=35
num_leaves=25
num_cat=2
split_feature=2 25 12 11 2 27 27 7 16 17 11 27 17 27 27 21 27 21 20 15 27 16 12 21
split_gain=2.99367 1.53156 0.812291 0.793307 0.687742 0.543065 0.58472 0.521929 0.538736 0.450718 0.275624 0.301044 0.276126 0.271077 0.723011 0.320914 0.262356 0.225843 0.150869 0.139332 0.0657309 0.0539069 0.0359916 0.0284358
threshold=0 22867.397559523815 8.5000000000000018 29.500000000000004 1 48.500000000000007 36.500000000000007 78.300000000000026 1582.95 557.55000000000007 8.5000000000000018 19.500000000000004 313.2000000000001 37.500000000000007 34.500000000000007 3971.8500000000008 15.500000000000002 15872.860000000002 12664.005463607173 1.0000000180025095e-35 34.500000000000007 1531.0500000000002 9.5000000000000018 3383.0700000000006
decision_type=9 2 2 2 9 2 2 2 2 2 2 2 2 2 2 2 2 2 2 2 2 2 2 2
left_child=1 20 5 -4 22 6 7 8 -3 -8 11 -6 18 14 15 19 -17 -18 -13 -12 21 -1 -2 -15
right_child=4 2 3 -5 10 -7 9 -9 -10 -11 13 12 -14 23 -16 16 17 -19 -20 -21 -22 -23 -24 -25
leaf_value=-0.00043342022029867769 0.03794350641408923 -0.0024091967764000525 -0.030216840447131573 -0.0059764559424703104 -0.002651449010819346 0.0014152424468209747 -0.0029967060125510579 -0.0096405595919878163 0.0071535831708921674 -0.012599738330080223 0.0027985356699309931 -0.00049083797550503042 -0.0087479669462268688 0.007112572032903457 -0.0062452670917262521 -0.0024069420973131346 0.023684908022328876 0.0083916324439575994 0.033110469485233572 -0.0032345634208028867 0.012100023908598628 0.00065644438272176721 0.04459801946834438 0.013296692033112923
leaf_weight=25 207 21 25 25 28 31 21 24 36 24 34 28 21 20 24 20 106 47 30 20 37 21 21 63
leaf_count=25 207 21 25 25 28 31 21 24 36 24 34 28 21 20 24 20 106 47 30 20 37 21 21 63
internal_value=0.000467286 -0.00330349 -0.00548838 -0.0104411 0.00212481 -0.00379154 -0.00509828 -0.00267342 -0.000229332 -0.00914233 0.00101117 -0.000955695 0.000502653 0.00167357 0.000913899 0.00172244 0.002668 0.0033044 0.00211156 -0.0012922 0.00175799 0.000564474 0.00411861 0.00388957
internal_weight=959 290 207 50 669 157 126 81 57 45 441 107 79 334 251 227 173 153 58 54 83 46 228 83
internal_count=959 290 207 50 669 157 126 81 57 45 441 107 79 334 251 227 173 153 58 54 83 46 228 83
cat_boundaries=0 2 4
cat_threshold=2176 66568 2097186 393296
is_linear=0
shrinkage=0.0453713


Tree=36
num_leaves=28
num_cat=5
split_feature=2 20 2 4 27 27 1 20 27 5 27 27 27 17 27 11 8 21 20 27 6 27 17 17 27 22 11
split_gain=2.57333 1.24903 0.644594 0.605316 0.536996 1.91183 0.337046 0.478756 0.351058 0.385182 0.678323 0.332258 0.325356 0.350886 0.244421 0.214766 0.209074 0.202221 0.172113 0.150143 0.122915 0.167212 0.0882698 0.0606284 0.0378011 0.0338327 0.0355792
threshold=0 12485.669896039604 1 2 47.500000000000007 53.500000000000007 3 12664.005463607173 36.500000000000007 4 19.500000000000004 27.500000000000004 19.500000000000004 1613.7500000000002 52.500000000000007 9.5000000000000018 9.6750000000000025 15872.860000000002 12664.005463607173 30.500000000000004 351.50000000000006 25.500000000000004 557.55000000000007 576.45000000000016 25.500000000000004 43.500000000000007 9.5000000000000018
decision_type=9 2 9 1 2 2 9 2 2 1 2 2 2 2 2 2 2 2 2 2 2 2 2 2 2 2 2
left_child=1 3 25 -1 12 -6 7 8 9 10 -4 -12 15 19 -10 -3 18 20 -8 -14 -9 -22 -21 -7 -19 26 -2
right_child=2 4 6 -5 5 23 16 17 14 -11 11 -13 13 -15 -16 -17 -18 24 -20 22 21 -23 -24 -25 -26 -27 -28
leaf_value=-0.028472920266963339 0.032237534828222655 -0.003676188601683041 0.019327640843916329 -0.0065202321035488248 -0.0058658564132863964 -0.0014839331295850933 0.00597396150772615 0.023745436083797342 0.01246534182423932 0.0036867874385729496 -0.010616177909348044 -0.00076074459287623329 0.034117547888870503 -0.0021020860356482916 -0.0015892271265199134 0.0068263873400183717 0.01684752003021003 -0.0035707132821951896 -7.3214037044900182e-05 0.00019615502486624307 -0.0058459359768437934 0.0094592999336889187 0.00047765089300972816 0.0067109977368730875 0.0054646210442424034 0.039140955184749859 0.041677642581055767
leaf_weight=21 35 24 23 20 24 24 34 57 29 31 34 35 39 20 20 20 80 20 29 22 21 37 23 21 23 166 27
leaf_count=21 35 24 23 20 24 24 34 57 29 31 34 35 39 20 20 20 80 20 29 22 21 37 23 21 23 166 27
internal_value=0.000561698 -0.00322454 0.00197857 -0.0104107 -0.00192527 -0.00516522 0.000963176 0.000132469 -0.00151087 -0.00279134 -0.00424065 -0.00644075 -0.000362307 0.00102545 0.0016847 -0.00353889 0.00271949 0.00192628 0.000904718 0.00231696 0.0029045 0.00135714 0.000480202 0.000480202 -0.000702497 0.00392967 0.00297019
internal_weight=959 258 701 41 217 69 473 330 172 123 92 69 148 104 49 44 143 158 63 84 115 58 45 45 43 228 62
internal_count=959 258 701 41 217 69 473 330 172 123 92 69 148 104 49 44 143 158 63 84 115 58 45 45 43 228 62
cat_boundaries=0 2 4 5 6 7
cat_threshold=2176 65800 2097186 393296 4 1057 2
is_linear=0
shrinkage=0.0453713


Tree=37
num_leaves=25
num_cat=4
split_feature=2 7 6 2 2 25 27 20 14 27 27 27 27 27 27 11 8 8 3 27 27 22 11 11
split_gain=2.38351 1.3982 1.37604 0.652147 0.624061 0.486316 0.423443 0.314953 0.507429 0.349501 0.287645 0.19093 0.17944 0.175071 0.221343 0.15439 0.1475 0.339998 0.193837 0.31143 0.0876131 0.0338327 0.0355792 0.0143255
threshold=0 51.625000000000007 2278.0000000000005 1 2 22867.397559523815 53.500000000000007 7750.0430424242431 1.0000000180025095e-35 17.500000000000004 25.500000000000004 47.500000000000007 34.500000000000007 32.500000000000007 26.500000000000004 10.500000000000002 8.6500000000000004 9.6750000000000025 3 28.500000000000004 36.500000000000007 43.500000000000007 9.5000000000000018 30.500000000000004
decision_type=9 2 2 9 9 2 2 2 2 2 2 2 2 2 2 2 2 2 1 2 2 2 2 2
left_child=1 4 10 21 13 -6 11 8 -5 15 -3 -7 -10 14 -1 -9 -11 -18 20 -20 -19 22 -2 -15
right_child=3 2 -4 7 5 6 -8 9 12 16 -12 -13 -14 23 -16 -17 17 18 19 -21 -22 -23 -24 -25
leaf_value=0.017898770062009239 0.03077487473388792 -0.010996002279763431 0.00011826346857241165 -0.0020520122297945139 0.00019492571817404487 -0.001834529465559813 -0.00049550581387496897 -0.0035093950054734826 -0.0071014297274174763 0.030207833183398859 -0.027181065718854057 -0.0044757927979288325 0.022158314272136818 0.012059297712610972 -0.00041745702156754651 0.003307219731993842 -7.2280412989031583e-05 0.016953576046898605 -0.0010461025823747059 0.0074930245601828394 0.007760776199271428 0.037365077670915937 0.039786672165542276 0.0062041319883748957
leaf_weight=36 35 20 27 28 43 23 30 24 22 46 21 21 21 27 21 23 21 76 67 60 53 166 27 21
leaf_count=36 35 20 27 28 43 23 30 24 22 46 21 21 21 27 21 23 21 76 67 60 53 166 27 21
internal_value=0.000514492 -0.00285299 -0.00853784 0.00199159 -0.00117384 -0.00326701 -0.00571986 0.000911043 -0.00179828 0.00146291 -0.0135658 -0.00845548 0.00130556 0.00135521 -0.000229332 -0.00212258 0.00199532 0.00157646 0.00203865 0.000553991 0.00318212 0.00392967 0.00297019 0.00343755
internal_weight=959 290 68 669 222 117 74 441 71 370 41 44 43 105 57 47 323 277 256 127 129 228 62 48
internal_count=959 290 68 669 222 117 74 441 71 370 41 44 43 105 57 47 323 277 256 127 129 228 62 48
cat_boundaries=0 2 4 6 7
cat_threshold=2176 66568 2097186 393296 128 66560 40
is_linear=0
shrinkage=0.0453713


Tree=38
num_leaves=28
num_cat=4
split_feature=2 20 2 4 13 27 27 15 27 20 27 27 27 17 25 13 4 21 20 16 21 6 27 17 13 17 16
split_gain=2.67872 1.18701 0.691233 0.605316 0.546244 0.382784 0.848233 0.38215 0.556178 0.547302 0.366479 0.494008 0.261463 0.337717 0.168867 0.299987 0.232316 0.235301 0.110257 0.085649 0.0744865 0.0679415 0.0797614 0.0303626 0.0279254 0.0327302 0.0119798
threshold=0 12485.669896039604 1 2 2.5000000000000004 36.500000000000007 53.500000000000007 1.0000000180025095e-35 15.500000000000002 7750.0430424242431 27.500000000000004 19.500000000000004 19.500000000000004 544.95000000000016 24889.08602213542 2.5000000000000004 3 3383.0700000000006 12485.669896039604 1582.95 15872.860000000002 1646.0000000000002 34.500000000000007 1222.7500000000002 3.5000000000000004 156.60000000000005 1582.95
decision_type=9 2 9 1 2 2 2 2 2 2 2 2 2 2 2 2 1 2 2 2 2 2 2 2 2 2 2
left_child=1 3 24 -1 -3 12 -7 8 -4 -9 11 -11 -6 -14 18 -16 17 -17 21 -15 23 22 -10 -20 25 -2 -8
right_child=2 4 7 -5 5 6 26 9 14 10 -12 -13 13 19 15 16 -18 -19 20 -21 -22 -23 -24 -25 -26 -27 -28
leaf_value=-0.025947824470390953 0.031738567455971929 0.013110477732749372 -0.0055560711894000539 -0.0049911591234100315 -0.0037556267995941467 -0.0039706548850183794 -0.0023291265977625399 -0.0025621447530861136 -0.0078820073200558064 0.01975104094055289 0.016302247623169445 -0.012172355021771202 0.029866611442053374 0.00016763054623125084 -0.0015471164802650552 -0.00039851643787215435 0.0064217500593352819 0.0046805042181524096 0.017484862456625436 -0.00073876498140754599 0.0080975557215954754 0.0014177705565454779 0.027242891321875972 0.021697071690840841 0.039103366575304804 0.033405049211111024 0.0057730737594923883
leaf_weight=21 22 34 23 20 35 39 22 33 21 28 33 31 27 20 20 21 39 25 97 20 30 31 20 21 21 185 20
leaf_count=21 22 34 23 20 35 39 22 33 21 28 33 31 27 20 20 21 39 25 97 20 30 31 20 21 21 185 20
internal_value=0.000467286 -0.0033925 0.00191495 -0.0104107 -0.00213231 -0.00311205 -0.005402 0.000869654 0.00165849 -0.00124862 0.000577826 -0.00155757 -0.00121942 0.000458649 0.00214955 0.000634757 0.00182177 -0.00037598 0.00285922 -0.00215216 0.00356554 0.00134566 0.000104047 0.00407822 0.00392967 0.00427351 -0.000821199
internal_weight=959 258 701 41 217 183 81 473 348 125 92 59 102 67 325 105 85 46 220 40 148 72 41 118 228 207 42
internal_count=959 258 701 41 217 183 81 473 348 125 92 59 102 67 325 105 85 46 220 40 148 72 41 118 228 207 42
cat_boundaries=0 2 4 5 6
cat_threshold=2176 65800 2097186 393296 4 1
is_linear=0
shrinkage=0.0453713


Tree=39
num_leaves=26
num_cat=2
split_feature=2 22 6 2 27 27 27 27 27 27 18 27 27 22 17 18 17 18 11 27 11 17 22 11 25
split_gain=2.31349 0.657369 1.40873 0.580713 0.492292 1.07505 0.451823 0.773595 0.415679 0.311831 0.425922 0.261142 0.273597 0.238661 0.342227 0.211666 0.163021 0.182125 0.116483 0.0962489 0.0793761 0.0639097 0.0338327 0.0355792 0.0203464
threshold=0 69.000000000000014 351.50000000000006 1 27.500000000000004 26.500000000000004 47.500000000000007 53.500000000000007 17.500000000000004 47.500000000000007 762.50000000000011 37.500000000000007 28.500000000000004 74.500000000000014 1027.9500000000003 4750.0000000000009 557.55000000000007 712.50000000000011 29.500000000000004 30.500000000000004 34.500000000000007 1975.0000000000002 43.500000000000007 9.5000000000000018 24889.08602213542
decision_type=9 2 2 9 2 2 2 2 2 2 2 2 2 2 2 2 2 2 2 2 2 2 2 2 2
left_child=1 11 6 22 5 8 19 -8 15 20 -11 12 18 16 -15 -5 17 -10 -1 -3 24 -4 23 -2 -6
right_child=3 2 21 4 9 -7 7 -9 13 10 -12 -13 -14 14 -16 -17 -18 -19 -20 -21 -22 -23 -24 -25 -26
leaf_value=-0.0010966284380629593 0.027862945701100754 0.0053761187074029323 -0.026555968037980694 0.0046721914036704851 0.013025847291891332 -0.0076600394474985907 -0.0040925661638030516 -0.00062044504585040731 0.024673167423686058 0.0097963450360732379 -0.0026417422247481978 0.0093709261632258459 -0.012711629293409771 0.0070809609358338218 -0.0078384294731011963 -0.0053582232722664764 0.020227963174601495 -0.00049938939321503468 0.021509930774761755 -0.00066838623245779301 0.00018949088587822768 -0.0068745528157702768 0.034154142312089235 0.036465865823998578 0.017107585480938027
leaf_weight=20 35 25 20 36 107 21 21 40 20 24 33 35 21 27 24 20 65 31 24 41 30 20 166 27 26
leaf_count=20 35 25 20 36 107 21 21 40 20 24 33 35 21 27 24 20 65 31 24 41 30 20 166 27 26
internal_value=0.000703315 -0.00281175 -0.00464036 0.00207474 0.0010862 -0.000294732 -0.00221301 -0.00495737 0.000664814 0.00265498 -0.000229332 0 -0.00168868 0.00179696 -0.0007675 -0.00265241 0.00291832 0.000938258 0.000392277 0.000398796 0.00365379 -0.011842 0.00392967 0.00297019 0.00412916
internal_weight=959 267 167 692 464 244 127 61 223 220 57 100 65 167 51 56 116 51 44 66 163 40 228 62 133
internal_count=959 267 167 692 464 244 127 61 223 220 57 100 65 167 51 56 116 51 44 66 163 40 228 62 133
cat_boundaries=0 2 4
cat_threshold=2177 4259848 2097186 393296
is_linear=0
shrinkage=0.0453713


Tree=40
num_leaves=26
num_cat=2
split_feature=2 27 27 2 12 27 16 25 27 27 9 17 20 12 25 21 16 27 11 17 11 27 22 11 16
split_gain=2.15252 0.797825 1.03633 0.696263 0.595519 0.52986 0.492744 0.453116 0.378134 1.35487 0.291759 0.192779 0.141743 0.232909 0.212774 0.262501 0.181089 0.241617 0.136091 0.132526 0.103715 0.0696664 0.0329805 0.0355792 0.00795547
threshold=0 31.500000000000004 38.500000000000007 1 8.5000000000000018 15.500000000000002 25991.000000000004 24889.08602213542 47.500000000000007 50.500000000000007 3.0750000000000006 576.45000000000016 7750.0430424242431 6.5000000000000009 24889.08602213542 15872.860000000002 13238.500000000002 26.500000000000004 29.500000000000004 234.90000000000006 18.500000000000004 27.500000000000004 43.500000000000007 9.5000000000000018 1582.95
decision_type=9 2 2 9 2 2 2 2 2 2 2 2 2 2 2 2 2 2 2 2 2 2 2 2 2
left_child=1 6 -3 22 5 11 10 -6 20 -10 18 -5 13 -7 15 19 17 -16 -1 -14 -4 -9 23 -2 -11
right_child=3 2 8 4 7 12 -8 21 9 24 -12 -13 14 -15 16 -17 -18 -19 -20 -21 -22 -23 -24 -25 -26
leaf_value=-0.003627575298427322 0.026598766569390711 -0.021264383321695338 -0.0013721302490647984 0.011135772156640427 -0.0073124931961006737 -0.0021170913743931968 -0.0065626451552248388 -0.00012977649205016663 -0.0072758623514553424 -0.0017434618556051815 0.0055508993140168253 -0.0051151135122106655 0.00061472254369953098 0.0045183432372873453 0.0040851578909143586 0.0057868196115544255 0.011609465073951214 -0.0043072244385826391 0.00047742845283261359 0.015213671710476504 0.00097023063760760635 0.0086909053293645327 0.031094913346801201 0.034811360694176022 0.0048833732328115321
leaf_weight=22 35 27 20 20 31 22 20 29 27 23 38 20 25 27 21 39 33 25 28 155 22 30 157 27 29
leaf_count=22 35 27 20 20 31 22 20 29 27 23 38 20 25 27 21 39 33 25 28 155 22 30 157 27 29
internal_value=0.000532532 -0.00294402 -0.00519737 0.00183236 0.000806888 0.00159721 -8.19476e-05 -0.00246153 -0.00327881 -0.00508781 0.00140881 -0.00322881 0.00217005 -8.77704e-05 0.00253944 0.00326197 0.000502653 -0.00131845 -0.000869236 0.00398533 0.000204477 -7.3415e-05 0.00390602 0.00297019 -0.000669522
internal_weight=952 256 148 696 477 387 108 90 121 79 88 40 347 49 298 219 79 46 50 180 42 59 219 62 52
internal_count=952 256 148 696 477 387 108 90 121 79 88 40 347 49 298 219 79 46 50 180 42 59 219 62 52
cat_boundaries=0 2 4
cat_threshold=2176 4259848 2097186 393232
is_linear=0
shrinkage=0.0453713


Tree=41
num_leaves=19
num_cat=3
split_feature=2 2 12 4 25 27 12 25 25 27 21 27 11 11 20 11 8 27
split_gain=1.99508 0.933073 0.784947 0.661517 0.308502 0.33993 0.330263 0.730859 0.205167 0.301201 0.199116 0.222836 0.150711 0.103401 0.0900453 0.0593557 0.0715524 0.0236326
threshold=0 1 9.5000000000000018 2 20497.240940567073 15.500000000000002 8.5000000000000018 24889.08602213542 22867.397559523815 53.500000000000007 2812.2275000000004 35.500000000000007 29.500000000000004 3.5000000000000004 17276.850188235298 9.5000000000000018 13.275000000000002 22.500000000000004
decision_type=9 9 2 1 2 2 2 2 2 2 2 2 2 2 2 2 2 2
left_child=3 15 4 -1 13 -6 10 -8 -5 -10 12 -12 -7 -3 -9 16 -2 -15
right_child=1 2 -4 8 5 6 7 14 9 -11 11 -13 -14 17 -16 -17 -18 -19
leaf_value=-0.022663020757250341 0.02959156031992791 0.0043220757281184881 -0.0088840251835273394 -0.00034553387806756026 -0.0047614960539054388 0.0033542916031587878 -0.0068295953658929582 0.00094539578614538677 -0.00338797459441332 -0.0009283708901791295 0.0060079529931469236 0.00030594094040128461 -0.00052776275860303627 0.012308727845682444 0.012704741119138089 0.035111074373648021 0.021229779434644856 0.013741623825809278
leaf_weight=20 23 21 32 35 37 21 23 24 36 30 203 97 53 21 27 140 56 53
leaf_count=20 23 21 32 35 37 21 23 24 36 30 203 97 53 21 27 140 56 53
internal_value=0.000437428 0.00124301 0.000305238 -0.00473643 0.000701366 0.000232746 0.000584495 -0.00214455 -0.00347471 -0.00492654 0.00113373 0.00165167 -0.00095278 0.00303543 0.000938258 0.00370973 0.00273932 0.00381303
internal_weight=952 831 612 121 580 485 448 74 101 66 374 300 74 95 51 219 79 74
internal_count=952 831 612 121 580 485 448 74 101 66 374 300 74 95 51 219 79 74
cat_boundaries=0 1 3 4
cat_threshold=2048 2097186 393232 4
is_linear=0
shrinkage=0.0453713


Tree=42
num_leaves=25
num_cat=2
split_feature=2 2 6 20 12 27 6 7 25 12 27 25 27 27 17 17 8 27 21 27 17 16 17 17
split_gain=2.03073 0.89148 0.661517 0.540187 1.04112 0.416087 0.431232 0.279785 0.347528 0.317198 0.266828 0.205167 0.301201 0.164279 0.158906 0.14014 0.135115 0.182162 0.124237 0.101897 0.0713688 0.0497929 0.0137826 0.00679845
threshold=0 1 900.50000000000011 12485.669896039604 8.5000000000000018 17.500000000000004 351.50000000000006 78.300000000000026 24889.08602213542 7.5000000000000009 28.500000000000004 22867.397559523815 53.500000000000007 23.500000000000004 576.45000000000016 576.45000000000016 9.2750000000000004 36.500000000000007 15872.860000000002 36.500000000000007 544.95000000000016 9957.5000000000018 156.60000000000005 471.8250000000001
decision_type=9 9 2 2 2 2 2 2 2 2 2 2 2 2 2 2 2 2 2 2 2 2 2 2
left_child=2 20 11 4 13 6 -5 8 18 14 -9 -1 -13 -3 -10 -11 17 -15 23 -18 21 22 -2 -7
right_child=1 3 -4 5 -6 7 -8 10 9 15 -12 12 -14 16 -16 -17 19 -19 -20 -21 -22 -23 -24 -25
leaf_value=-0.00032985654363790103 0.025946496143123599 -0.0013906897689351567 -0.021634769178606364 0.0041259772708078356 -0.0099217424738609339 0.01297418639132141 -0.0045529883723634465 -0.0014463756732918927 0.044923220271898621 0.00034466980951059335 0.024352846868586988 -0.0032342576533918319 -0.00088624946057719453 -0.013377541936168113 -0.0012637485241648102 0.013397759152611934 0.011957925068170455 0.028265878874637846 0.0061300982088786102 0.00052154765231702334 0.033308947534439269 0.012964851690390685 0.025912921758695164 0.015470427640869857
leaf_weight=35 21 39 20 31 38 37 29 24 22 60 32 36 30 21 23 36 29 20 23 35 147 25 26 113
leaf_count=35 21 39 20 31 38 37 29 24 22 60 32 36 30 21 23 36 29 20 23 35 147 25 26 113
internal_value=0.00048498 0.00129682 -0.00473643 0.000377932 -0.00167522 0.00125979 -0.00218962 0.00182867 0.00235351 0.000665297 -0.00109168 -0.00347471 -0.00492654 0.000123854 -0.00240512 0.00212612 0.00105823 -0.000945404 0.00370422 0.00233159 0.00370973 0.00256958 0.00341518 0.00417475
internal_weight=952 831 121 612 182 430 60 370 314 141 56 101 66 144 45 96 105 41 173 64 219 72 47 150
internal_count=952 831 121 612 182 430 60 370 314 141 56 101 66 144 45 96 105 41 173 64 219 72 47 150
cat_boundaries=0 1 3
cat_threshold=2048 2097186 393232
is_linear=0
shrinkage=0.0453713


Tree=43
num_leaves=28
num_cat=4
split_feature=2 6 5 27 27 2 17 17 17 11 27 25 27 21 18 27 27 27 12 12 17 11 18 27 17 11 4
split_gain=2.1927 1.81024 1.19713 0.601611 0.848419 0.56691 0.317491 0.325996 0.361787 0.299793 0.1468 0.125267 0.134238 0.349459 0.215973 0.215819 0.202366 0.171182 0.0749296 0.0966841 0.0713688 0.0692634 0.0497929 0.0474144 0.0137826 0.0121191 0.0104184
threshold=0 351.50000000000006 1 47.500000000000007 48.500000000000007 2 486.50000000000006 323.40000000000003 234.90000000000006 26.500000000000004 22.500000000000004 22867.397559523815 28.500000000000004 3971.8500000000008 4750.0000000000009 35.500000000000007 38.500000000000007 71.500000000000014 6.5000000000000009 7.5000000000000009 544.95000000000016 29.500000000000004 2125.0000000000005 24.500000000000004 156.60000000000005 29.500000000000004 3
decision_type=9 2 1 2 2 9 2 2 2 2 2 2 2 2 2 2 2 2 2 2 2 2 2 2 2 2 1
left_child=1 3 -3 18 -5 20 7 8 10 -4 -7 -8 13 25 26 -14 -17 -18 -1 -20 22 -21 24 -16 -2 -13 -15
right_child=5 2 9 4 -6 6 11 -9 -10 -11 -12 12 15 14 23 16 17 -19 19 21 -22 -23 -24 -25 -26 -27 -28
leaf_value=0.0090400755866418894 0.024769268892386887 -0.021026112192345986 -0.00048740647667755861 -0.0032385476606534647 0.00073889128663500749 -0.0030486396075800463 0.011939128571345757 -0.0069638790011497835 0.01326195456085107 -0.0049874492485986544 0.0003016160784819713 -0.0021285656621886757 0.019218947044238759 0.021712195504974784 0.0072038520879551312 -0.0052863016457139712 0.018696391330184133 0.0024731621291072337 -0.0010910922336649883 0.0023628846265808484 0.031797676011895225 -2.1155362400068149e-05 0.012376619020071802 -0.0029659280008062219 0.024737217822708064 -0.0026622785042724945 0.012428396291505573
