tree
version=v4
num_class=1
num_tree_per_iteration=1
label_index=0
max_feature_idx=25
objective=quantile
feature_names=office arrival_port service_type service_category size_category loskrav gt loa_m beam_m draft_m stay_days month quarter is_summer is_shoulder day_of_week week_of_year gt_x_stay loa_x_stay fuel_x_stay size_svc_mean_charge size_svc_median_charge size_svc_count port_mean_charge port_median_charge cmt_len
feature_infos=-1:0:1:2 -1:0:10:9:11:5:8 -1:11:39:42:5:54:50:40:23:49:1:10:35:7:21:36:48:0:26:38:32:51:2:3:8:9:13:34:53 -1:1:4:3:6:5:0:2 -1:0:2:1 -1:1:0 [51.899999999999999:2407] [18.899999999999999:79.200000000000003] [7.0999999999999996:13.630000000000001] [2.4366666666666665:7.2000000000000002] [2:304] [4:10] [2:4] [0:1] [0:1] [0:6] [13:42] [412:731728] [73:23529.600000000002] [160:152000] [6471.8956521739137:92027.435714285719] [1633.8499999999999:88597.850000000006] [1:110] [15464.873913043477:37969.530833333338] [4230.0500000000002:20267.695] [0:272]
tree_sizes=854 859 880 904 757 890 995 896 775 973 1044 1042 1036 1251 1135 864 974 869 767 783 943 977

Tree=0
num_leaves=8
num_cat=1
split_feature=2 25 25 21 19 16 11
split_gain=2.75546 2.87962 3.46336 4.17002 0.038938 0.0153365 0.0347038
threshold=0 31.500000000000004 52.500000000000007 2684.8900000000008 2680.0000000000005 22.500000000000004 5.5000000000000009
decision_type=9 2 2 2 2 2 2
left_child=1 4 3 -3 -1 6 -2
right_child=5 2 -4 -5 -6 -7 -8
leaf_value=6.284061393845036 6.3258759558925099 6.2483539879896162 6.2971981478231536 6.2460706760631588 6.307892855368511 6.312544783952946 6.3096103960848531
leaf_weight=33 26 15.999999999999998 22 18 14.999999999999998 252 14.999999999999998
leaf_count=33 26 16 22 18 15 252 15
internal_value=6.2744 6.26778 6.25942 6.24944 6.27601 6.27689 6.27581
internal_weight=397 104 56 34 48 293 41
internal_count=397 104 56 34 48 293 41
cat_boundaries=0 2
cat_threshold=2099200 4194312
is_linear=0
shrinkage=1


Tree=1
num_leaves=8
num_cat=0
split_feature=25 25 21 6 25 18 25
split_gain=1.77974 6.41659 0.313125 0.580755 0.233538 0.0633338 0.0404007
threshold=47.500000000000007 49.500000000000007 5949.3050000000012 152.00000000000003 38.500000000000007 1222.7500000000002 66.500000000000014
decision_type=2 2 2 2 2 2 2
left_child=2 -2 3 -1 5 -5 -3
right_child=1 6 -4 4 -6 -7 -8
leaf_value=0.0109910459890461 -0.024476206538470935 0.02550923374882479 0.072180186242147393 0.0039227826576761328 -0.028003981161860737 -0.01014319652813199 0.0041148179596823655
leaf_weight=67 18 36 204 19 15.999999999999998 22 14.999999999999998
leaf_count=67 18 36 204 19 16 22 15
internal_value=-0.000258121 -0.0075615 0.00126486 -0.000684931 -0.00442207 -0.00225061 0.00141879
internal_weight=397 69 328 124 57 41 51
internal_count=397 69 328 124 57 41 51
is_linear=0
shrinkage=0.05


Tree=2
num_leaves=8
num_cat=0
split_feature=25 25 21 9 16 25 15
split_gain=1.77974 6.41659 0.313125 0.685771 0.221934 0.0404007 0.0180441
threshold=47.500000000000007 49.500000000000007 5949.3050000000012 3.8500000000000005 27.500000000000004 66.500000000000014 3.5000000000000004
decision_type=2 2 2 2 2 2 2
left_child=2 -2 3 -1 6 -3 -5
right_child=1 5 -4 4 -6 -7 -8
leaf_value=0.010657894316139949 -0.023252396211547399 0.024233772061383531 0.068571176930040029 -0.0050783616447103198 -0.040069436927339386 0.0039090770616982354 0.0017895894844488912
leaf_weight=72 18 36 204 16.000000000000004 21 14.999999999999998 14.999999999999998
leaf_count=72 18 36 204 16 21 15 15
internal_value=-0.000258121 -0.0075615 0.00126486 -0.000684931 -0.00508637 0.00141879 -0.00217042
internal_weight=397 69 328 124 52 51 31
internal_count=397 69 328 124 52 51 31
is_linear=0
shrinkage=0.05


Tree=3
num_leaves=8
num_cat=1
split_feature=2 25 25 21 21 16 11
split_gain=2.75546 2.87962 3.46336 4.17002 0.038938 0.0153365 0.0347038
threshold=0 31.500000000000004 52.500000000000007 2684.8900000000008 4053.7250000000008 22.500000000000004 5.5000000000000009
decision_type=9 2 2 2 2 2 2
left_child=1 4 3 -3 -1 6 -2
right_child=5 2 -4 -5 -6 -7 -8
leaf_value=-0.010720774757116698 0.043107171376684537 -0.022603480231714414 0.018924891182134695 -0.025112273277439208 0.054602693713656815 0.035545781028423068 0.032571268500586385
leaf_weight=14.999999999999998 26 15.999999999999998 22 18 33 252 14.999999999999998
leaf_count=15 26 16 22 18 33 252 15
internal_value=-0.000258121 -0.00687993 -0.0152406 -0.0252199 0.00135135 0.00223524 0.00115572
internal_weight=397 104 56 34 48 293 41
internal_count=397 104 56 34 48 293 41
cat_boundaries=0 2
cat_threshold=2099200 4194312
is_linear=0
shrinkage=0.05


Tree=4
num_leaves=7
num_cat=2
split_feature=2 25 25 10 21 4
split_gain=2.04853 2.42282 4.52244 0.220639 0.0192127 0.0244
threshold=0 39.500000000000007 48.500000000000007 28.500000000000004 2684.8900000000008 1
decision_type=9 2 2 2 2 1
left_child=1 3 -3 -1 5 -2
right_child=4 2 -4 -5 -6 -7
leaf_value=-0.01859060645212289 0.049348432053253705 -0.024298677212674979 0.018038724230827721 0.0077058903514374251 0.055017345945577702 0.0016558967347335822
leaf_weight=24 19 25 26 45 241 17
leaf_count=24 19 25 26 45 241 17
internal_value=-0.000132208 -0.00534204 -0.0140411 0.000253256 0.00222048 0.000969529
internal_weight=397 120 51 69 277 36
internal_count=397 120 51 69 277 36
cat_boundaries=0 2 3
cat_threshold=2048 4195328 1
is_linear=0
shrinkage=0.05


Tree=5
num_leaves=8
num_cat=1
split_feature=2 25 25 10 16 21 10
split_gain=2.31821 2.36901 5.05673 0.186896 0.0370404 0.0158707 0.0339798
threshold=0 39.500000000000007 48.500000000000007 28.500000000000004 30.500000000000004 2684.8900000000008 30.500000000000004
decision_type=9 2 2 2 2 2 2
left_child=1 3 -3 -1 -5 6 -2
right_child=5 2 -4 4 -6 -7 -8
leaf_value=-0.018592763907815779 0.043723094401727371 -0.024892300767299314 0.018590851041065254 0.011949524781961511 0.0021884831996386244 0.051914250009208289 0.0093017926265758829
leaf_weight=22 25 26 28 35 15.999999999999998 239 14.999999999999998
leaf_count=22 25 26 28 35 16 239 15
internal_value=-0.000320118 -0.00567104 -0.0140481 -0.000170999 0.00141879 0.00222241 0.00112219
internal_weight=406 127 54 73 51 279 40
internal_count=406 127 54 73 51 279 40
cat_boundaries=0 2
cat_threshold=2048 4195328
is_linear=0
shrinkage=0.05


Tree=6
num_leaves=9
num_cat=1
split_feature=2 23 17 21 15 15 20 10
split_gain=1.90946 1.42162 2.29941 0.362141 0.267537 0.0968635 0.0166493 0.0332193
threshold=0 20759.448433919028 1582.95 4053.7250000000008 2.5000000000000004 3.5000000000000004 10476.288006493511 30.500000000000004
decision_type=9 2 2 2 2 2 2 2
left_child=1 -1 5 4 -4 -3 7 -2
right_child=6 2 3 -5 -6 -7 -8 -9
leaf_value=0.0094653333602023881 0.03151822787203197 -0.027471598577635703 -0.0048098928338288103 0.076829413588024489 -0.03468422414984218 -0.013085463903336604 0.050792302996256006 0.0088367029952470966
leaf_weight=40 24 16.000000000000004 14.999999999999998 21 20 14.999999999999998 240 14.999999999999998
leaf_count=40 24 16 15 21 20 15 240 15
internal_value=-7.38734e-05 -0.00494165 -0.00892652 -0.00276292 -0.00591168 -0.0198553 0.00222241 0.00108696
internal_weight=406 127 87 56 35 31 279 39
internal_count=406 127 87 56 35 31 279 39
cat_boundaries=0 2
cat_threshold=2048 4195328
is_linear=0
shrinkage=0.05


Tree=7
num_leaves=8
num_cat=1
split_feature=2 25 25 13 10 21 10
split_gain=1.90946 2.28676 4.44308 0.111851 0.0424932 0.0158707 0.0339798
threshold=0 39.500000000000007 48.500000000000007 1.0000000180025095e-35 27.500000000000004 2684.8900000000008 30.500000000000004
decision_type=9 2 2 2 2 2 2
left_child=1 3 -3 -1 -5 6 -2
right_child=5 2 -4 4 -6 -7 -8
leaf_value=-0.0087302011930392841 0.038997324531828206 -0.022183947973682693 0.018622902395671465 -0.0094341481381756617 0.0047188714288199929 0.046778922358935091 0.0083948678454847259
leaf_weight=17 25 26 28 14.999999999999998 41 239 14.999999999999998
leaf_count=17 25 26 28 15 41 239 15
internal_value=-7.38734e-05 -0.00494165 -0.0131238 0.000376197 0.00151515 0.00222241 0.00112219
internal_weight=406 127 54 73 56 279 40
internal_count=406 127 54 73 56 279 40
cat_boundaries=0 2
cat_threshold=2048 4195328
is_linear=0
shrinkage=0.05


Tree=8
num_leaves=7
num_cat=1
split_feature=2 25 25 10 21 25
split_gain=2.33578 2.05329 4.13815 0.129729 0.0356002 0.113559
threshold=0 39.500000000000007 49.500000000000007 27.500000000000004 2684.8900000000008 27.500000000000004
decision_type=9 2 2 2 2 2
left_child=1 3 -3 -1 5 -2
right_child=4 2 -4 -5 -6 -7
leaf_value=-0.010380362314809984 -0.0052029472433103331 -0.021074750574998555 0.018178164267913285 0.0058323578946886563 0.042150487576363485 0.031291060084564067
leaf_weight=29 22 26 25 27 226 51
leaf_count=29 22 26 25 27 226 51
internal_value=-0.000196996 -0.00621264 -0.0140411 -8.91265e-05 0.00207862 0.00106019
internal_weight=406 107 51 56 299 73
internal_count=406 107 51 56 299 73
cat_boundaries=0 2
cat_threshold=2048 4194560
is_linear=0
shrinkage=0.05


Tree=9
num_leaves=9
num_cat=1
split_feature=2 25 25 10 16 18 20 10
split_gain=2.01322 2.06239 4.44308 0.186896 0.0370404 0.0254807 0.0197633 0.0297515
threshold=0 39.500000000000007 48.500000000000007 28.500000000000004 30.500000000000004 156.60000000000005 10476.288006493511 30.500000000000004
decision_type=9 2 2 2 2 2 2 2
left_child=1 3 -3 -1 -5 -2 7 -7
right_child=5 2 -4 4 -6 6 -8 -9
leaf_value=-0.015555621748138168 0.027008565327168377 -0.020021013046248648 0.016003748579079633 0.011035206723114574 0.0016661705669806304 0.035906512019486768 0.048062753021512 0.0082352718153760156
leaf_weight=22 26 26 28 35 15.999999999999998 20 218 14.999999999999998
leaf_count=22 26 26 28 35 16 20 218 15
internal_value=-0.000320118 -0.00530635 -0.0131238 -0.000170999 0.00141879 0.00204946 0.00228171 0.000925926
internal_weight=406 127 54 73 51 279 253 35
internal_count=406 127 54 73 51 279 253 35
cat_boundaries=0 2
cat_threshold=2048 4195328
is_linear=0
shrinkage=0.05


Tree=10
num_leaves=10
num_cat=1
split_feature=2 21 24 10 10 15 18 21 16
split_gain=1.22343 0.687898 0.82028 1.20217 0.0437766 0.0853008 0.0306892 0.0111656 0.0264204
threshold=0 5949.3050000000012 5102.5850000000009 30.500000000000004 33.500000000000007 4.5000000000000009 313.2000000000001 1708.7250000000001 34.500000000000007
decision_type=9 2 2 2 2 2 2 2 2
left_child=1 2 -1 -4 7 -6 -3 8 -2
right_child=4 6 3 -5 5 -7 -8 -9 -10
leaf_value=0.0015731275578028333 0.033530898523659758 0.057583059250690828 -0.032010905013973023 -0.011031727606383974 0.031247771548025372 0.0021728789984853006 0.035665840913170342 0.035691954210674719 0.011403498806070788
leaf_weight=23 27 14.999999999999998 26 21 31 23 21 192 19
leaf_count=23 27 15 26 21 31 23 21 192 19
internal_value=0.000226074 -0.00413437 -0.00741797 -0.0111996 0.00190334 0.000554529 0.000969529 0.00226795 0.00130152
internal_weight=398 106 70 47 292 54 36 238 46
internal_count=398 106 70 47 292 54 36 238 46
cat_boundaries=0 2
cat_threshold=2048 4194560
is_linear=0
shrinkage=0.05


Tree=11
num_leaves=10
num_cat=1
split_feature=2 21 23 10 10 15 18 21 16
split_gain=1.05511 0.57698 0.675982 0.931599 0.0437766 0.0853008 0.0306892 0.0111656 0.0264204
threshold=0 5949.3050000000012 20759.448433919028 30.500000000000004 33.500000000000007 4.5000000000000009 313.2000000000001 1708.7250000000001 34.500000000000007
decision_type=9 2 2 2 2 2 2 2 2
left_child=1 2 -1 -4 7 -6 -3 8 -2
right_child=4 6 3 -5 5 -7 -8 -9 -10
leaf_value=0.0014944711799126818 0.031854353597476771 0.054703906288156294 -0.030410359763274386 -0.010480141226064771 0.029685382970624119 0.0020642350485610308 0.033882548867511846 0.033907356500140977 0.010833323865767252
leaf_weight=23 27 14.999999999999998 26 21 31 23 21 192 19
leaf_count=23 27 15 26 21 31 23 21 192 19
internal_value=0.00035167 -0.0037037 -0.00670471 -0.010138 0.00190334 0.000554529 0.000969529 0.00226795 0.00130152
internal_weight=398 106 70 47 292 54 36 238 46
internal_count=398 106 70 47 292 54 36 238 46
cat_boundaries=0 2
cat_threshold=2048 4194560
is_linear=0
shrinkage=0.05


Tree=12
num_leaves=10
num_cat=0
split_feature=21 17 25 25 17 25 25 25 10
split_gain=0.485482 0.201202 0.21293 1.09088 0.228893 0.108236 0.042857 0.135071 0.0258487
threshold=7958.6925000000001 1241.6000000000001 39.500000000000007 48.500000000000007 26398.500000000004 15.500000000000002 27.500000000000004 23.500000000000004 29.500000000000004
decision_type=2 2 2 2 2 2 2 2 2
left_child=1 -1 4 -4 6 -2 7 -3 -5
right_child=5 2 3 8 -6 -7 -8 -9 -10
leaf_value=-0.014232015247159375 0.032398882638416691 0.032022232446769647 -0.010053658883615056 0.0065181320973041511 -0.0010693678729051027 0.043874083063873887 0.0087989626723884214 -0.0087344736563255646 0.016940600377624532
leaf_weight=14.999999999999998 30 28 24 19 21 170 49 15.999999999999998 26
leaf_count=15 30 28 24 19 21 170 49 16 26
internal_value=0.000226074 -0.00151439 -0.00102403 -0.00321997 0.000262927 0.00197401 0.0013695 0.000113379 0.00127494
internal_weight=398 198 183 69 114 200 93 44 45
internal_count=398 198 183 69 114 200 93 44 45
is_linear=0
shrinkage=0.05


Tree=13
num_leaves=12
num_cat=1
split_feature=2 22 23 25 18 18 25 15 16 22 16
split_gain=0.758387 0.452984 0.927466 1.10454 0.286016 0.0737485 0.133422 0.286373 0.0408511 0.0103524 0.0264204
threshold=0 28.500000000000004 22608.828794627683 53.500000000000007 280.50000000000006 1222.7500000000002 27.500000000000004 3.5000000000000004 32.500000000000007 88.000000000000014 34.500000000000007
decision_type=9 2 2 2 2 2 2 2 2 2 2
left_child=1 4 -3 -4 -1 9 7 -7 -6 -2 -11
right_child=5 2 3 -5 8 6 -8 -9 -10 10 -12
leaf_value=-0.010635852810174921 0.030942950226226059 0.0032330206243306584 -0.016390062808208688 -0.00027184584469189813 0.054715938562944259 0.03163911231177035 0.031755155001961764 -0.0054511284633921124 0.020768858302528982 0.02982168778398351 0.010728381355295169
leaf_weight=17 159 19 21 14.999999999999998 37 17 37 14.999999999999998 14.999999999999998 27 19
leaf_count=17 159 19 21 15 37 17 37 15 15 27 19
internal_value=0.000226074 -0.00287099 -0.0064882 -0.0112188 -0.000325615 0.00168955 0.000253256 -0.00202492 0.00143954 0.00223062 0.00130152
internal_weight=398 124 55 36 69 274 69 32 52 205 46
internal_count=398 124 55 36 69 274 69 32 52 205 46
cat_boundaries=0 2
cat_threshold=8390656 4194560
is_linear=0
shrinkage=0.05


Tree=14
num_leaves=11
num_cat=1
split_feature=2 21 24 10 18 15 6 21 16 10
split_gain=0.639449 0.4261 0.429183 0.492963 0.0737485 0.11802 0.0488687 0.0103524 0.0264204 0.00651264
threshold=0 5949.3050000000012 5102.5850000000009 30.500000000000004 1222.7500000000002 3.5000000000000004 2278.0000000000005 1708.7250000000001 34.500000000000007 37.000000000000007
decision_type=9 2 2 2 2 2 2 2 2 2
left_child=1 2 -1 -4 7 -6 -3 8 -2 -7
right_child=4 6 3 -5 5 9 -8 -9 -10 -11
leaf_value=0.00081814845608108001 0.028330603394784326 0.069428202115823068 -0.027852337136618145 -0.0086339480811531959 0.0375686284711578 -0.0019605508723811878 0.0031298074167735641 0.029395802714914751 0.010191962287530408 0.0082639861717763805
leaf_weight=23 27 24 26 21 35 19 30 159 19 14.999999999999998
leaf_count=23 27 24 26 21 35 19 30 159 19 15
internal_value=0.00035167 -0.00249814 -0.00527817 -0.00801486 0.00168955 0.000253256 0.000554529 0.00223062 0.00130152 -0.00175953
internal_weight=398 124 70 47 274 69 54 205 46 34
internal_count=398 124 70 47 274 69 54 205 46 34
cat_boundaries=0 2
cat_threshold=8390656 4194560
is_linear=0
shrinkage=0.05


Tree=15
num_leaves=8
num_cat=1
split_feature=2 21 23 10 10 15 10
split_gain=1.2551 0.770075 0.778555 1.00966 0.122041 0.226662 0.0315772
threshold=0 5949.3050000000012 20759.448433919028 30.500000000000004 32.000000000000007 4.5000000000000009 6.5000000000000009
decision_type=9 2 2 2 2 2 2
left_child=1 2 -1 -4 -2 -6 -3
right_child=4 6 3 -5 5 -7 -8
leaf_value=0.00049558845292862759 0.026543109925200592 0.0037596289802364446 -0.031278550789249758 -0.0096168387100857063 0.030565721097797767 -0.004508766191717856 0.071592534615422268
leaf_weight=21 234 14.999999999999998 23 23 36 22 22
leaf_count=21 234 15 23 23 36 22 22
internal_value=0.000214592 -0.00425066 -0.0078614 -0.0114967 0.00190334 0 0.00101078
internal_weight=396 104 67 46 292 58 37
internal_count=396 104 67 46 292 58 37
cat_boundaries=0 2
cat_threshold=2048 4194560
is_linear=0
shrinkage=0.05


Tree=16
num_leaves=9
num_cat=1
split_feature=2 21 23 18 18 25 22 18
split_gain=1.08273 0.647275 0.63993 0.628528 0.0818411 0.112446 0.286969 0.0315772
threshold=0 5949.3050000000012 20759.448433919028 576.45000000000016 1027.9500000000003 25.500000000000004 38.000000000000007 358.50000000000006
decision_type=9 2 2 2 2 2 2 2
left_child=1 2 -1 -4 -2 6 -6 -3
right_child=4 7 3 -5 5 -7 -8 -9
leaf_value=0.00047080903028217936 0.02529152587878904 0.049930293869612806 -0.022633349237774034 -0.013316808502963752 -0.0064486214532131301 0.022380954621263258 0.031182630849873074 0.030396034653030812
leaf_weight=21 215 14.999999999999998 20 26 15.999999999999998 40 21 22
leaf_count=21 215 15 20 26 16 40 21 22
internal_value=0.000340823 -0.00381245 -0.00711624 -0.0104121 0.00190334 0.000486381 -0.00141509 0.00101078
internal_weight=396 104 67 46 292 77 37 37
internal_count=396 104 67 46 292 77 37 37
cat_boundaries=0 2
cat_threshold=2048 4194560
is_linear=0
shrinkage=0.05


Tree=17
num_leaves=8
num_cat=1
split_feature=2 21 23 10 10 15 10
split_gain=0.922839 0.535069 0.514882 0.50064 0.122041 0.226662 0.0315772
threshold=0 5949.3050000000012 20759.448433919028 30.500000000000004 32.000000000000007 4.5000000000000009 6.5000000000000009
decision_type=9 2 2 2 2 2 2
left_child=1 2 -1 -4 -2 -6 -3
right_child=4 6 3 -5 5 -7 -8
leaf_value=0.00044726857876808691 0.023951378135001127 0.0017588319205122487 -0.029002200113329508 -0.0084701563494332319 0.028216579737782251 -0.0039608968094713209 0.066491119736747081
leaf_weight=21 234 14.999999999999998 23 23 36 22 22
leaf_count=21 234 15 23 23 36 22 22
internal_value=0.000467054 -0.00337423 -0.00637109 -0.00932755 0.00190334 0 0.00101078
internal_weight=396 104 67 46 292 58 37
internal_count=396 104 67 46 292 58 37
cat_boundaries=0 2
cat_threshold=2048 4194560
is_linear=0
shrinkage=0.05


Tree=18
num_leaves=7
num_cat=1
split_feature=2 21 24 10 10 15
split_gain=0.518041 0.331754 0.623476 0.137239 0.122041 0.226662
threshold=0 4053.7250000000008 7275.2500000000009 4.5000000000000009 32.000000000000007 4.5000000000000009
decision_type=9 2 2 2 2 2
left_child=1 2 -1 -3 -2 -6
right_child=4 3 -4 -5 5 -7
leaf_value=0.0066423378391438029 0.022753809228251081 -0.012469520835917479 -0.022613667238180792 0.021062463921534502 0.026805750750893115 -0.0037628519689977546
leaf_weight=18 234 17 34 35 36 22
leaf_count=18 234 17 34 35 36 22
internal_value=0.000845746 -0.0020596 -0.00508637 0.000479847 0.00190334 0
internal_weight=396 104 52 52 292 58
internal_count=396 104 52 52 292 58
cat_boundaries=0 2
cat_threshold=2048 4194560
is_linear=0
shrinkage=0.05


Tree=19
num_leaves=7
num_cat=1
split_feature=2 21 23 18 10 15
split_gain=0.518041 0.331754 0.623476 0.165331 0.122041 0.226662
threshold=0 4053.7250000000008 22608.828794627683 280.50000000000006 32.000000000000007 4.5000000000000009
decision_type=9 2 2 2 2 2
left_child=1 2 -1 -3 -2 -6
right_child=4 3 -4 -5 5 -7
leaf_value=0.0063102209471866235 0.021616118766838513 -0.012467090063140904 -0.021482983876271747 0.021989872417105809 0.025465463213348468 -0.0035747093705478742
leaf_weight=18 234 14.999999999999998 34 37 36 22
leaf_count=18 234 15 34 37 36 22
internal_value=0.000845746 -0.0020596 -0.00508637 0.000479847 0.00190334 0
internal_weight=396 104 52 52 292 58
internal_count=396 104 52 52 292 58
cat_boundaries=0 2
cat_threshold=2048 4194560
is_linear=0
shrinkage=0.05


Tree=20
num_leaves=9
num_cat=0
split_feature=21 15 14 21 10 15 10 16
split_gain=0.415631 0.244351 0.239093 0.517095 0.252311 0.102611 0.0393983 0.038472
threshold=7958.6925000000001 4.5000000000000009 1.0000000180025095e-35 2684.8900000000008 29.500000000000004 2.5000000000000004 30.500000000000004 30.500000000000004
decision_type=2 2 2 2 2 2 2 2
left_child=1 2 4 -4 5 7 -3 -1
right_child=-2 6 3 -5 -6 -7 -8 -9
leaf_value=-0.003723541396368088 0.029814992014634441 0.0044499150819052426 -0.0075434914271135609 0.0019525914838341076 0.0077487265803748533 0.0014315854353682627 0.0053734558660160107 -0.017459641578033615
leaf_weight=15.999999999999998 194 49 17 20 39 20 17 19
leaf_count=16 194 49 17 20 39 20 17 19
internal_value=0.000824597 -0.000773719 -0.00204043 -0.00545822 -0.000637619 -0.00285844 0.00166415 -0.00448718
internal_weight=391 197 131 37 94 55 66 35
internal_count=391 197 131 37 94 55 66 35
is_linear=0
shrinkage=0.05


Tree=21
num_leaves=9
num_cat=3
split_feature=2 14 4 0 15 10 11 22
split_gain=0.584106 0.487361 0.189407 0.0492669 0.0452854 0.0394453 0.0104927 0.038938
threshold=0 1.0000000180025095e-35 1 2 2.5000000000000004 30.500000000000004 8.5000000000000018 23.500000000000004
decision_type=9 2 1 1 2 2 2 2
left_child=1 2 -1 -2 -4 -6 -5 -8
right_child=3 -3 4 6 5 -7 7 -9
leaf_value=-0.0084582944829193398 0.0044488519075397597 -0.0056218178223519143 0.00083928709680648305 0.027619247324698087 0.0060898315575080748 0.0018092954670321023 0.0013110009690480908 0.040001236417422537
leaf_weight=19 15.999999999999998 21 26 212 34 14.999999999999998 14.999999999999998 33
leaf_count=19 16 21 26 212 34 15 15 33
internal_value=0.000824597 -0.00205835 -0.000637619 0.00204474 0.000432756 0.00137475 0.00228758 0.00135135
internal_weight=391 115 94 276 75 49 260 48
internal_count=391 115 94 276 75 49 260 48
cat_boundaries=0 2 3 4
cat_threshold=8390656 1024 4 2
is_linear=0
shrinkage=0.05


end of trees

feature_importances:
cmt_len=30
stay_days=28
size_svc_median_charge=24
service_type=18
day_of_week=14
week_of_year=11
loa_x_stay=11
port_mean_charge=7
size_svc_count=4
month=3
gt_x_stay=3
port_median_charge=3
size_category=2
gt=2
is_shoulder=2
size_svc_mean_charge=2
office=1
draft_m=1
is_summer=1
fuel_x_stay=1

parameters:
[boosting: gbdt]
[objective: quantile]
[metric: quantile]
[tree_learner: serial]
[device_type: cpu]
[data_sample_strategy: bagging]
[data: ]
[valid: ]
[num_iterations: 3000]
[learning_rate: 0.05]
[num_leaves: 40]
[num_threads: 0]
[seed: 42]
[deterministic: 0]
[force_col_wise: 0]
[force_row_wise: 0]
[histogram_pool_size: -1]
[max_depth: 6]
[min_data_in_leaf: 15]
[min_sum_hessian_in_leaf: 0.001]
[bagging_fraction: 0.83367]
[pos_bagging_fraction: 1]
[neg_bagging_fraction: 1]
[bagging_freq: 5]
[bagging_seed: 400]
[bagging_by_query: 0]
[feature_fraction: 0.84924]
[feature_fraction_bynode: 1]
[feature_fraction_seed: 30056]
[extra_trees: 0]
[extra_seed: 12879]
[early_stopping_round: 0]
[early_stopping_min_delta: 0]
[first_metric_only: 0]
[max_delta_step: 0]
[lambda_l1: 0.1]
[lambda_l2: 0.1]
[linear_lambda: 0]
[min_gain_to_split: 0]
[drop_rate: 0.1]
[max_drop: 50]
[skip_drop: 0.5]
[xgboost_dart_mode: 0]
[uniform_drop: 0]
[drop_seed: 17869]
[top_rate: 0.2]
[other_rate: 0.1]
[min_data_per_group: 100]
[max_cat_threshold: 32]
[cat_l2: 10]
[cat_smooth: 10]
[max_cat_to_onehot: 4]
[top_k: 20]
[monotone_constraints: ]
[monotone_constraints_method: basic]
[monotone_penalty: 0]
[feature_contri: ]
[forcedsplits_filename: ]
[refit_decay_rate: 0.9]
[cegb_tradeoff: 1]
[cegb_penalty_split: 0]
[cegb_penalty_feature_lazy: ]
[cegb_penalty_feature_coupled: ]
[path_smooth: 0]
[interaction_constraints: ]
[verbosity: -1]
[saved_feature_importance_type: 0]
[use_quantized_grad: 0]
[num_grad_quant_bins: 4]
[quant_train_renew_leaf: 0]
[stochastic_rounding: 1]
[linear_tree: 0]
[max_bin: 255]
[max_bin_by_feature: ]
[min_data_in_bin: 3]
[bin_construct_sample_cnt: 200000]
[data_random_seed: 175]
[is_enable_sparse: 1]
[enable_bundle: 1]
[use_missing: 1]
[zero_as_missing: 0]
[feature_pre_filter: 0]
[pre_partition: 0]
[two_round: 0]
[header: 0]
[label_column: ]
[weight_column: ]
[group_column: ]
[ignore_column: ]
[categorical_feature: 0,1,2,3,4,5]
[forcedbins_filename: ]
[precise_float_parser: 0]
[parser_config_file: ]
[objective_seed: 16083]
[num_class: 1]
[is_unbalance: 0]
[scale_pos_weight: 1]
[sigmoid: 1]
[boost_from_average: 1]
[reg_sqrt: 0]
[alpha: 0.05]
[fair_c: 1]
[poisson_max_delta_step: 0.7]
[tweedie_variance_power: 1.5]
[lambdarank_truncation_level: 30]
[lambdarank_norm: 1]
[label_gain: ]
[lambdarank_position_bias_regularization: 0]
[eval_at: ]
[multi_error_top_k: 1]
[auc_mu_weights: ]
[num_machines: 1]
[local_listen_port: 12400]
[time_out: 120]
[machine_list_filename: ]
[machines: ]
[gpu_platform_id: -1]
[gpu_device_id: -1]
[gpu_use_dp: 0]
[num_gpu: 1]

end of parameters

pandas_categorical:[["Bergen Office", "Copenhagen Office", "Stockholm OFFICE"], ["Bergen", "Esbjerg", "Fredericia", "G\u00f6teborg", "Kristiansand", "K\u00f8benhavn", "Malm\u00f6", "Stavanger", "Stockholm", "Svolv\u00e6r", "Troms\u00f8", "\u00c5lesund"], ["Administrative Fees", "Agency Fees", "Agency Services", "Agent Time & Service", "Airport Transfer", "Arrival Pilot Fees", "Boat Work", "Car Rental", "Carpenter Service", "Clearance in/out", "Courier", "Custom Clearance", "Custom Formalities", "Delivery Charge", "Delivery Services", "Dirty Water Removal Service", "Diver Services", "Doctor/Medical", "Dry Cleaning Services", "Dry Dock/Shipyard Services", "Florist Services", "Fuel - Diesel", "Garbage Disposal", "Guide Services", "Hotel Accommodation", "Hydraulic Services", "Immigration Formalities", "International Transport", "Internet Connection", "Laundry/Dry Cleaning", "Logistic Arrangements", "Lube Oil Supply", "Marina Water Fees", "Mechanical Services", "Medical Arrangements", "Mooring/Unmooring Assistance", "NOx Tax", "Parcel Transfer", "Pilot Fees Arrival", "Port Dues", "Provisioning", "Provisioning Assistance", "Purchasing Assistance", "Rental Car", "Repair of", "Service", "Sludge/Oil/Water Removal", "Speciality Shipment Items", "Storage & Transport", "Storage Arrangements", "Technical Assistance", "Technician", "Tourism or Guide / Tour", "Tours / Excursions", "Transfer Service", "Transportation"], ["Agency Fee", "Agency Services", "Bunkering", "Hospitality", "Port Marina", "Provisioning", "Technical Services"], ["Liten", "Mellomstor", "Stor"], ["Ja", "Nei"]]
